{"learner":{"attributes":{"scikit_learn":"{\"_estimator_type\": \"classifier\"}"},"feature_names":["Make_1","Make_2","Make_3","Make_4","Make_5","Make_6","Make_7","Make_8","Make_9","Make_10","Make_11","Make_12","Make_13","Make_14","Make_15","Make_16","Make_17","Make_18","Make_19","AccidentArea_1","AccidentArea_2","Sex_1","Sex_2","Fault_1","Fault_2","PolicyType_1","PolicyType_2","PolicyType_3","PolicyType_4","PolicyType_5","PolicyType_6","PolicyType_7","PolicyType_8","PolicyType_9","VehicleCategory_1","VehicleCategory_2","VehicleCategory_3","AgentType_1","AgentType_2","AddressChange_Claim_1","AddressChange_Claim_2","AddressChange_Claim_3","AddressChange_Claim_4","AddressChange_Claim_5","BasePolicy_1","BasePolicy_2","BasePolicy_3","AgeUnknown"],"feature_types":["int","int","int","int","int","int","int","int","int","int","int","int","int","int","int","int","int","int","int","int","int","int","int","int","int","int","int","int","int","int","int","int","int","int","int","int","int","int","int","int","int","int","int","int","int","int","int","int"],"gradient_booster":{"model":{"gbtree_model_param":{"num_parallel_tree":"1","num_trees":"100"},"iteration_indptr":[0,1,2,3,4,5,6,7,8,9,10,11,12,13,14,15,16,17,18,19,20,21,22,23,24,25,26,27,28,29,30,31,32,33,34,35,36,37,38,39,40,41,42,43,44,45,46,47,48,49,50,51,52,53,54,55,56,57,58,59,60,61,62,63,64,65,66,67,68,69,70,71,72,73,74,75,76,77,78,79,80,81,82,83,84,85,86,87,88,89,90,91,92,93,94,95,96,97,98,99,100],"tree_info":[0,0,0,0,0,0,0,0,0,0,0,0,0,0,0,0,0,0,0,0,0,0,0,0,0,0,0,0,0,0,0,0,0,0,0,0,0,0,0,0,0,0,0,0,0,0,0,0,0,0,0,0,0,0,0,0,0,0,0,0,0,0,0,0,0,0,0,0,0,0,0,0,0,0,0,0,0,0,0,0,0,0,0,0,0,0,0,0,0,0,0,0,0,0,0,0,0,0,0,0],"trees":[{"base_weights":[-1.5093988E-2,3.5454035E-1,-1.6173356E0,-1.4284793E0,7.4024695E-1,-1.6677887E0,-1.1948584E0,-5.983051E-1,5.332569E-1,1.0117323E0,4.3722826E-1,-1.6914601E0,-8.329502E-1,-4.803276E-3,-1.3705509E0,1.0191842E0,-4.2857146E-1,4.4866532E-1,-4.8571432E-1,-1.7142433E0,-3.1924766E-1,2.2666387E-1,-5.3846157E-1,-1.2421124E0,-5.4E-1,1.0296544E0,-5.0925765E-2,-6.808607E-1,4.651437E-1,-1.7751894E0,-1.4511424E0,-5.172414E-1,-3.3509675E-1,1.061708E0,7.0735294E-1,-5.225807E-1,1.9571902E-1,4.403803E-1,3.4485742E-1,-5.6381017E-1,-1.4027838E0,-1.7031747E0,-9.166758E-1,1.0794125E0,2.8191215E-1,9.306835E-1,-2.2728415E-1,4.474648E-1,-4.2857146E-1,-5.5200005E-1,-3.917276E-1,-5.832168E-1,-3.8682142E-1,-4.4000003E-1,-2.4320495E-1,1.1326725E0,8.6589646E-1,5.816027E-1,-4.2857146E-1,3.745953E-1,8.0250555E-1,-7.9319656E-1,4.2620528E-1,4.5971793E-1,-1.4495721E-1,1.1031295E0,4.4989118E-1,1.4399943E0,8.1203896E-1,9.2765033E-1,-4.1538465E-1,2.630343E-1,7.0267044E-2,3.358468E-1,-5.4E-1,4.9013147E-1,2.555506E-1,1.1278112E0,8.448476E-1,5.011754E-1,2.6011294E-1,7.021819E-1,3.4187642E-1,6.5154773E-1,4.2620528E-1,5.470196E-1,3.301699E-1,-1.780575E-2,9.114375E-1,1.3526626E0,1.08849E0,1.0166268E0,-4.666667E-1,1.5079889E-1,2.157168E-1,1.15381464E-1,2.6011294E-1,4.9786383E-1,6.835079E-1,6.879256E-1,2.4882773E-1,-4.636323E-1,1.393019E-1,4.782597E-1,7.6469564E-1,4.2247656E-1,8.7999064E-1,1.1585845E0,9.5357037E-1,8.268674E-1,4.694287E-1,4.3989623E-1,5.7349676E-1,-4.2857146E-1,2.1955422E-1,1.6996256E-1,3.789454E-1,-1.0234432E-1,8.659726E-2,-4.4000003E-1,-3.5657263E-1,3.358468E-1,1.9532529E-1,1.15381464E-1,4.2620528E-1,1.2225245E0,8.8119966E-1,9.7738194E-1,2.0624688E-1,-1.601092E-2,1.0067024E0,4.7532475E-1,-3.4114772E-1,5.476941E-1,3.789454E-1,-3.9065462E-1,-6.4751446E-2,3.5890645E-1,4.5377025E-1,2.9131123E-1,-4.0000004E-1,4.2620528E-1,9.5693904E-1,-4.8000002E-1,4.782597E-1,2.6687816E-1,4.782597E-1,4.4809046E-1,2.8301618E-1,-4.5000002E-1,9.2089824E-2,1.5467234E-1,2.8301618E-1,-1.5449408E-1,-8.852799E-2,4.2620528E-1,2.8062013E-1,1.2915744E-1,2.9638308E-1],"categories":[],"categories_nodes":[],"categories_segments":[],"categories_sizes":[],"default_left":[0,0,0,0,0,0,0,0,0,0,0,0,0,0,0,0,0,0,0,0,0,0,0,0,0,0,0,0,0,0,0,0,0,0,0,0,0,0,0,0,0,0,0,0,0,0,0,0,0,0,0,0,0,0,0,0,0,0,0,0,0,0,0,0,0,0,0,0,0,0,0,0,0,0,0,0,0,0,0,0,0,0,0,0,0,0,0,0,0,0,0,0,0,0,0,0,0,0,0,0,0,0,0,0,0,0,0,0,0,0,0,0,0,0,0,0,0,0,0,0,0,0,0,0,0,0,0,0,0,0,0,0,0,0,0,0,0,0,0,0,0,0,0,0,0,0,0,0,0,0,0,0,0,0,0,0,0,0,0],"id":0,"left_children":[1,3,5,7,9,11,13,-1,-1,15,17,19,21,-1,23,25,-1,27,-1,29,-1,-1,-1,31,-1,33,-1,35,37,39,41,-1,-1,43,45,-1,-1,47,-1,-1,49,51,53,55,57,59,61,63,-1,-1,-1,-1,-1,-1,-1,65,67,69,-1,-1,71,73,-1,75,-1,77,-1,79,81,83,-1,-1,-1,-1,-1,85,87,89,91,-1,-1,93,-1,95,-1,97,99,101,103,105,107,109,-1,-1,-1,-1,-1,111,113,115,117,119,-1,-1,121,-1,123,125,127,129,-1,131,133,-1,-1,-1,-1,-1,-1,-1,135,-1,-1,-1,-1,137,139,141,-1,143,145,147,149,151,-1,153,-1,-1,-1,-1,-1,-1,155,-1,-1,-1,-1,157,-1,-1,-1,-1,-1,-1,-1,-1,-1,-1,-1],"loss_changes":[1.7031573E3,1.6080813E3,9.497803E0,7.5811456E2,1.5765515E2,8.057495E0,1.2619423E1,0E0,0E0,1.9875366E1,2.2125717E1,4.81958E0,2.4549026E1,0E0,6.9345856E-1,1.2752319E1,0E0,1.7173752E1,0E0,4.590454E0,0E0,0E0,0E0,7.34375E-1,0E0,9.597534E0,0E0,2.0133572E1,1.4632095E1,1.1267944E1,1.049942E1,0E0,0E0,1.2246826E1,1.9750282E1,0E0,0E0,1.2074707E1,0E0,0E0,1.0880432E0,3.441452E0,6.098099E-1,9.123779E0,1.1870334E1,2.0852127E0,1.8713072E1,1.0042465E1,0E0,0E0,0E0,0E0,0E0,0E0,0E0,6.020447E0,4.44693E0,1.4236338E1,0E0,0E0,2.1915092E0,3.0281496E1,0E0,5.155838E0,0E0,3.2479248E0,0E0,4.388981E-1,5.257843E0,1.3593407E0,0E0,0E0,0E0,0E0,0E0,6.5455017E0,2.0160698E1,3.8192139E0,2.6925339E1,0E0,0E0,7.1769714E-2,0E0,3.9175034E-1,0E0,3.307541E0,5.544979E0,1.7472849E1,2.0943089E0,9.9334717E-1,3.7611694E0,4.7351837E0,0E0,0E0,0E0,0E0,0E0,1.5164413E0,1.5470192E1,1.785511E0,3.8959894E0,4.010166E0,0E0,0E0,4.4581795E-1,0E0,2.5625677E0,4.845886E0,4.784546E-1,6.8641853E0,0E0,6.6006126E0,2.3644257E0,0E0,0E0,0E0,0E0,0E0,0E0,0E0,1.04971886E-1,0E0,0E0,0E0,0E0,2.3083496E-1,1.445364E1,1.2930298E-1,0E0,2.5323406E1,1.144619E0,2.4199104E0,8.480748E0,1.6401787E0,0E0,2.1081686E-1,0E0,0E0,0E0,0E0,0E0,0E0,2.702942E-1,0E0,0E0,0E0,0E0,1.5911255E0,0E0,0E0,0E0,0E0,0E0,0E0,0E0,0E0,0E0,0E0,0E0],"parents":[2147483647,0,0,1,1,2,2,3,3,4,4,5,5,6,6,9,9,10,10,11,11,12,12,14,14,15,15,17,17,19,19,23,23,25,25,27,27,28,28,29,29,30,30,33,33,34,34,37,37,40,40,41,41,42,42,43,43,44,44,45,45,46,46,47,47,55,55,56,56,57,57,60,60,61,61,63,63,65,65,67,67,68,68,69,69,75,75,76,76,77,77,78,78,81,81,83,83,85,85,86,86,87,87,88,88,89,89,90,90,91,91,97,97,98,98,99,99,100,100,101,101,104,104,106,106,107,107,108,108,109,109,111,111,112,112,120,120,125,125,126,126,127,127,129,129,130,130,131,131,132,132,133,133,135,135,142,142,147,147],"right_children":[2,4,6,8,10,12,14,-1,-1,16,18,20,22,-1,24,26,-1,28,-1,30,-1,-1,-1,32,-1,34,-1,36,38,40,42,-1,-1,44,46,-1,-1,48,-1,-1,50,52,54,56,58,60,62,64,-1,-1,-1,-1,-1,-1,-1,66,68,70,-1,-1,72,74,-1,76,-1,78,-1,80,82,84,-1,-1,-1,-1,-1,86,88,90,92,-1,-1,94,-1,96,-1,98,100,102,104,106,108,110,-1,-1,-1,-1,-1,112,114,116,118,120,-1,-1,122,-1,124,126,128,130,-1,132,134,-1,-1,-1,-1,-1,-1,-1,136,-1,-1,-1,-1,138,140,142,-1,144,146,148,150,152,-1,154,-1,-1,-1,-1,-1,-1,156,-1,-1,-1,-1,158,-1,-1,-1,-1,-1,-1,-1,-1,-1,-1,-1],"split_conditions":[1E0,1E0,1E0,1E0,1E0,1E0,1E0,-5.983051E-1,5.332569E-1,1E0,1E0,1E0,1E0,-4.803276E-3,1E0,1E0,-4.2857146E-1,1E0,-4.8571432E-1,1E0,-3.1924766E-1,2.2666387E-1,-5.3846157E-1,1E0,-5.4E-1,1E0,-5.0925765E-2,1E0,1E0,1E0,1E0,-5.172414E-1,-3.3509675E-1,1E0,1E0,-5.225807E-1,1.9571902E-1,1E0,3.4485742E-1,-5.6381017E-1,1E0,1E0,1E0,1E0,1E0,1E0,1E0,1E0,-4.2857146E-1,-5.5200005E-1,-3.917276E-1,-5.832168E-1,-3.8682142E-1,-4.4000003E-1,-2.4320495E-1,1E0,1E0,1E0,-4.2857146E-1,3.745953E-1,1E0,1E0,4.2620528E-1,1E0,-1.4495721E-1,1E0,4.4989118E-1,1E0,1E0,1E0,-4.1538465E-1,2.630343E-1,7.0267044E-2,3.358468E-1,-5.4E-1,1E0,1E0,1E0,1E0,5.011754E-1,2.6011294E-1,1E0,3.4187642E-1,1E0,4.2620528E-1,1E0,1E0,1E0,1E0,1E0,1E0,1E0,-4.666667E-1,1.5079889E-1,2.157168E-1,1.15381464E-1,2.6011294E-1,1E0,1E0,1E0,1E0,1E0,1.393019E-1,4.782597E-1,1E0,4.2247656E-1,1E0,1E0,1E0,1E0,4.694287E-1,1E0,1E0,-4.2857146E-1,2.1955422E-1,1.6996256E-1,3.789454E-1,-1.0234432E-1,8.659726E-2,-4.4000003E-1,1E0,3.358468E-1,1.9532529E-1,1.15381464E-1,4.2620528E-1,1E0,1E0,1E0,2.0624688E-1,1E0,1E0,1E0,1E0,1E0,3.789454E-1,1E0,-6.4751446E-2,3.5890645E-1,4.5377025E-1,2.9131123E-1,-4.0000004E-1,4.2620528E-1,1E0,-4.8000002E-1,4.782597E-1,2.6687816E-1,4.782597E-1,1E0,2.8301618E-1,-4.5000002E-1,9.2089824E-2,1.5467234E-1,2.8301618E-1,-1.5449408E-1,-8.852799E-2,4.2620528E-1,2.8062013E-1,1.2915744E-1,2.9638308E-1],"split_indices":[44,23,4,42,30,42,19,0,0,33,11,47,23,0,21,11,0,37,0,21,0,0,0,23,0,4,0,1,6,1,5,0,0,41,28,0,0,8,0,0,23,3,23,1,5,19,41,2,0,0,0,0,0,0,0,47,40,0,0,0,21,19,0,21,0,21,0,42,21,6,0,0,0,0,0,5,3,19,0,0,0,19,0,3,0,0,19,5,40,35,5,3,0,0,0,0,0,1,40,41,40,19,0,0,19,0,2,3,28,5,0,41,39,0,0,0,0,0,0,0,4,0,0,0,0,8,28,29,0,15,39,42,4,41,0,1,0,0,0,0,0,0,40,0,0,0,0,13,0,0,0,0,0,0,0,0,0,0,0],"split_type":[0,0,0,0,0,0,0,0,0,0,0,0,0,0,0,0,0,0,0,0,0,0,0,0,0,0,0,0,0,0,0,0,0,0,0,0,0,0,0,0,0,0,0,0,0,0,0,0,0,0,0,0,0,0,0,0,0,0,0,0,0,0,0,0,0,0,0,0,0,0,0,0,0,0,0,0,0,0,0,0,0,0,0,0,0,0,0,0,0,0,0,0,0,0,0,0,0,0,0,0,0,0,0,0,0,0,0,0,0,0,0,0,0,0,0,0,0,0,0,0,0,0,0,0,0,0,0,0,0,0,0,0,0,0,0,0,0,0,0,0,0,0,0,0,0,0,0,0,0,0,0,0,0,0,0,0,0,0,0],"sum_hessian":[2.873804E3,2.3357332E3,5.380708E2,4.1492786E2,1.9208052E3,4.7803522E2,6.003557E1,3.53E2,6.1927845E1,1.0118835E3,9.0892175E2,4.6385672E2,1.4178523E1,7.928523E0,5.2107048E1,1.0093835E3,2.5E0,9.0467175E2,4.25E0,4.459282E2,1.7928524E1,5.428523E0,8.75E0,4.3107048E1,9E0,1.00070496E3,8.678523E0,1.2428523E1,8.922432E2,3.573926E2,8.853557E1,6.25E0,3.6857048E1,9.080986E2,9.260637E1,6.75E0,5.678523E0,8.626721E2,2.9571138E1,2.7610706E2,8.128557E1,5.8678524E1,2.9857046E1,8.87563E2,2.0535568E1,7.474932E1,1.7857046E1,8.601721E2,2.5E0,1.15E1,6.978557E1,3.475E1,2.3928524E1,2.75E0,2.7107046E1,7.0692175E2,1.8064127E2,1.8035568E1,2.5E0,1.8964092E1,5.5785233E1,1.3678523E1,4.178523E0,8.494936E2,1.0678523E1,6.57958E2,4.8963753E1,1.3285569E1,1.673557E2,1.5785569E1,2.25E0,4.885671E1,6.928523E0,4.678523E0,9E0,7.381372E2,1.1135637E2,5.9749426E2,6.0463753E1,8.107046E0,5.178523E0,1.27677505E2,3.9678185E1,1.1607046E1,4.178523E0,5.4271E2,1.9542717E2,7.928523E1,3.2071136E1,8.396342E1,5.135308E2,5.6963753E1,3.5E0,1.2357046E1,1.15320465E2,6.428523E0,5.178523E0,4.0242548E2,1.4028455E2,3.4821136E1,1.6060603E2,4.1214092E1,3.8071136E1,3.928523E0,2.8142616E1,7.335637E1,1.0607046E1,3.3296106E2,1.8056978E2,4.4178185E1,1.2785569E1,2.3167683E2,1.7074864E2,2.5E0,1.3778455E2,3.0392616E1,4.428523E0,9.678523E0,1.509275E2,2.75E0,3.8464092E1,4.678523E0,2.3464092E1,6.428523E0,4.178523E0,2.6781876E2,6.514227E1,1.6328421E2,1.7285568E1,7.928523E0,3.624966E1,2.219983E2,9.678523E0,1.6632013E2,4.428523E0,2.9535568E1,8.928523E0,2.5035468E2,1.7464092E1,6.3142277E1,2E0,4.178523E0,1.591057E2,4E0,3.928523E0,3.2321136E1,3.928523E0,2.1164127E2,1.0357046E1,3E0,6.678523E0,1.5596307E2,1.0357046E1,1.0928523E1,1.8607046E1,4.178523E0,1.5492717E2,2.0671274E2,4.928523E0],"tree_param":{"num_deleted":"0","num_feature":"48","num_nodes":"159","size_leaf_vector":"1"}},{"base_weights":[6.417202E-2,3.315917E-1,-1.0948159E0,-9.297395E-1,5.8287185E-1,-1.1367172E0,-1.3476683E-2,-4.6341306E-1,4.3268263E-1,7.6495624E-1,3.8942042E-1,-1.2570755E0,-7.265908E-1,7.820319E-1,-5.0435555E-1,3.9738122E-1,-4.4669878E-1,-1.2869803E0,-1.14381135E-1,-7.920834E-1,3.3213347E-1,7.292961E-1,1.2396505E0,-4.5756388E-1,4.0800482E-1,-1.3490502E0,-9.791876E-1,-4.4176224E-1,-6.743287E-1,4.2863965E-1,-3.4982628E-1,7.3504114E-1,-3.3814013E-1,3.48118E-1,5.671989E-1,-4.0035877E-1,1.1788569E-1,4.569073E-1,1.8706001E-1,-1.3796916E0,-2.3344897E-1,-8.5092664E-1,-4.4222108E-1,-4.15222E-1,-6.211706E-1,7.2374254E-1,1.4023108E0,4.4171754E-1,1.1881448E0,-1.6237974E-1,2.322826E-1,-4.4460988E-1,-1.2259218E0,-4.409969E-1,-7.108818E-1,-3.6354822E-1,-1.7673597E-1,7.072094E-1,3.051736E-1,3.048942E-1,5.655241E-1,4.477628E-1,-3.3814013E-1,8.478907E-1,4.9568716E-1,1.657547E-1,1.7474061E-1,-4.4993615E-1,-3.5203382E-1,-3.97725E-1,-6.3425726E-1,7.2295177E-1,5.128519E-1,4.3519878E-1,1.2942872E0,1.1016215E-1,4.060368E-1,2.6434405E-2,1.6106066E-1,-4.143887E-1,-1.6859256E-1,7.580156E-1,6.4340425E-1,5.943164E-1,-3.8538578E-1,4.1515E-1,9.090296E-1,5.5527264E-1,1.9800222E-1,7.215744E-1,9.8743445E-1,6.802043E-1,6.252684E-2,2.9105288E-1,5.172532E-1,1.9430262E-1,4.263896E-1,3.866038E-1,1.9682513E-1,7.523821E-1,7.845217E-2,8.43697E-1,3.404611E-1,7.210633E-1,3.1845635E-1,4.4906178E-1,3.2000926E-1,-4.587631E-1,3.92418E-1,4.545389E-1,3.2233262E-1,7.8552663E-1,5.8684736E-1,2.2554994E-1,4.034828E-1,7.031694E-1,3.91614E-1,2.546433E-2,3.8283005E-1,1.0805354E-1,2.313236E-1,5.7310337E-1,-3.6797637E-1,4.4880447E-1,2.65133E-1,2.778272E-1,1.4677535E-1,7.68741E-1,3.4717414E-1,-4.0202346E-1,6.680888E-1,-5.0117224E-2,7.308228E-1,1.98616E-1,5.2716367E-2,4.832213E-1,4.0570772E-1,1.2825987E-1,7.386511E-2,3.1387824E-1,2.2222967E-1,3.660586E-1,1.5816337E-1,-4.4582513E-1,2.864886E-1,2.7873728E-1,2.055221E-1,2.2440694E-2,1.5805672E-1,2.0644334E-1,1.0160497E-1],"categories":[],"categories_nodes":[],"categories_segments":[],"categories_sizes":[],"default_left":[0,0,0,0,0,0,0,0,0,0,0,0,0,0,0,0,0,0,0,0,0,0,0,0,0,0,0,0,0,0,0,0,0,0,0,0,0,0,0,0,0,0,0,0,0,0,0,0,0,0,0,0,0,0,0,0,0,0,0,0,0,0,0,0,0,0,0,0,0,0,0,0,0,0,0,0,0,0,0,0,0,0,0,0,0,0,0,0,0,0,0,0,0,0,0,0,0,0,0,0,0,0,0,0,0,0,0,0,0,0,0,0,0,0,0,0,0,0,0,0,0,0,0,0,0,0,0,0,0,0,0,0,0,0,0,0,0,0,0,0,0,0,0,0,0,0,0,0,0,0,0],"id":1,"left_children":[1,3,5,7,9,11,-1,-1,-1,13,15,17,19,21,-1,23,-1,25,-1,27,29,31,33,35,37,39,41,-1,43,-1,-1,45,-1,-1,-1,-1,-1,47,49,51,-1,53,-1,-1,55,57,59,61,63,-1,65,-1,67,-1,69,-1,-1,71,-1,-1,-1,73,-1,75,-1,-1,77,-1,-1,-1,79,81,83,85,87,-1,-1,-1,-1,-1,-1,89,91,93,-1,95,97,-1,-1,99,101,103,-1,-1,105,107,109,-1,-1,111,-1,113,-1,115,117,119,-1,-1,121,123,125,127,129,-1,-1,131,-1,-1,-1,-1,-1,133,-1,135,-1,137,-1,139,-1,-1,141,143,145,-1,-1,147,149,-1,-1,-1,-1,-1,-1,-1,-1,-1,-1,-1,-1,-1,-1],"loss_changes":[8.8822675E2,7.385139E2,2.3585571E1,5.6701874E2,6.8114685E1,2.4588623E1,0E0,0E0,0E0,4.306134E1,1.4704071E1,9.934448E0,8.554939E0,2.3064941E1,0E0,8.729294E0,0E0,6.024414E0,0E0,8.0544815E0,1.4270131E1,1.0352661E1,3.0277863E0,9.486219E0,9.957855E0,4.477051E0,3.0727692E0,0E0,2.841484E0,0E0,0E0,5.701416E0,0E0,0E0,0E0,0E0,0E0,7.9210052E0,5.729755E0,2.9020386E0,0E0,3.8537903E0,0E0,0E0,1.0481834E0,3.541565E0,6.4956474E-1,7.5845947E0,9.49316E-1,0E0,2.8682947E0,0E0,4.524231E-2,0E0,1.4214096E0,0E0,0E0,2.1826782E0,0E0,0E0,0E0,7.3534546E0,0E0,2.0889716E0,0E0,0E0,4.277095E0,0E0,0E0,0E0,1.632761E0,1.6588135E0,1.0423712E1,6.6046753E0,2.4428806E0,0E0,0E0,0E0,0E0,0E0,0E0,3.7060547E0,3.732872E0,1.3459969E0,0E0,1.6720505E0,1.9389572E0,0E0,0E0,6.320114E0,5.202255E-1,3.0625E0,0E0,0E0,1.5847864E0,1.2918061E1,1.821579E0,0E0,0E0,1.9004211E0,0E0,7.9408073E-1,0E0,1.1663055E0,5.348443E0,1.1742115E0,0E0,0E0,1.0400806E1,8.9907074E-1,9.5238495E-1,1.3294525E0,1.27544155E1,0E0,0E0,4.110756E0,0E0,0E0,0E0,0E0,0E0,9.6191883E-1,0E0,5.77446E-1,0E0,4.530182E-1,0E0,1.8899078E0,0E0,0E0,5.062397E0,1.2765248E1,1.0755768E0,0E0,0E0,5.0344925E0,4.268219E0,0E0,0E0,0E0,0E0,0E0,0E0,0E0,0E0,0E0,0E0,0E0,0E0,0E0,0E0],"parents":[2147483647,0,0,1,1,2,2,3,3,4,4,5,5,9,9,10,10,11,11,12,12,13,13,15,15,17,17,19,19,20,20,21,21,22,22,23,23,24,24,25,25,26,26,28,28,31,31,37,37,38,38,39,39,41,41,44,44,45,45,46,46,47,47,48,48,50,50,52,52,54,54,57,57,61,61,63,63,66,66,70,70,71,71,72,72,73,73,74,74,81,81,82,82,83,83,85,85,86,86,89,89,90,90,91,91,94,94,95,95,96,96,99,99,101,101,103,103,104,104,105,105,108,108,109,109,110,110,111,111,112,112,115,115,121,121,123,123,125,125,127,127,130,130,131,131,132,132,135,135,136,136],"right_children":[2,4,6,8,10,12,-1,-1,-1,14,16,18,20,22,-1,24,-1,26,-1,28,30,32,34,36,38,40,42,-1,44,-1,-1,46,-1,-1,-1,-1,-1,48,50,52,-1,54,-1,-1,56,58,60,62,64,-1,66,-1,68,-1,70,-1,-1,72,-1,-1,-1,74,-1,76,-1,-1,78,-1,-1,-1,80,82,84,86,88,-1,-1,-1,-1,-1,-1,90,92,94,-1,96,98,-1,-1,100,102,104,-1,-1,106,108,110,-1,-1,112,-1,114,-1,116,118,120,-1,-1,122,124,126,128,130,-1,-1,132,-1,-1,-1,-1,-1,134,-1,136,-1,138,-1,140,-1,-1,142,144,146,-1,-1,148,150,-1,-1,-1,-1,-1,-1,-1,-1,-1,-1,-1,-1,-1,-1],"split_conditions":[1E0,1E0,1E0,1E0,1E0,1E0,-1.3476683E-2,-4.6341306E-1,4.3268263E-1,1E0,1E0,1E0,1E0,1E0,-5.0435555E-1,1E0,-4.4669878E-1,1E0,-1.14381135E-1,1E0,1E0,1E0,1E0,1E0,1E0,1E0,1E0,-4.4176224E-1,1E0,4.2863965E-1,-3.4982628E-1,1E0,-3.3814013E-1,3.48118E-1,5.671989E-1,-4.0035877E-1,1.1788569E-1,1E0,1E0,1E0,-2.3344897E-1,1E0,-4.4222108E-1,-4.15222E-1,1E0,1E0,1E0,1E0,1E0,-1.6237974E-1,1E0,-4.4460988E-1,1E0,-4.409969E-1,1E0,-3.6354822E-1,-1.7673597E-1,1E0,3.051736E-1,3.048942E-1,5.655241E-1,1E0,-3.3814013E-1,1E0,4.9568716E-1,1.657547E-1,1E0,-4.4993615E-1,-3.5203382E-1,-3.97725E-1,1E0,1E0,1E0,1E0,1E0,1.1016215E-1,4.060368E-1,2.6434405E-2,1.6106066E-1,-4.143887E-1,-1.6859256E-1,1E0,1E0,1E0,-3.8538578E-1,1E0,1E0,5.5527264E-1,1.9800222E-1,1E0,1E0,1E0,6.252684E-2,2.9105288E-1,1E0,1E0,1E0,3.866038E-1,1.9682513E-1,1E0,7.845217E-2,1E0,3.404611E-1,1E0,1E0,1E0,3.2000926E-1,-4.587631E-1,1E0,1E0,1E0,1E0,1E0,2.2554994E-1,4.034828E-1,1E0,3.91614E-1,2.546433E-2,3.8283005E-1,1.0805354E-1,2.313236E-1,1E0,-3.6797637E-1,1E0,2.65133E-1,1E0,1.4677535E-1,1E0,3.4717414E-1,-4.0202346E-1,1E0,1E0,1E0,1.98616E-1,5.2716367E-2,1E0,1E0,1.2825987E-1,7.386511E-2,3.1387824E-1,2.2222967E-1,3.660586E-1,1.5816337E-1,-4.4582513E-1,2.864886E-1,2.7873728E-1,2.055221E-1,2.2440694E-2,1.5805672E-1,2.0644334E-1,1.0160497E-1],"split_indices":[44,23,2,42,30,1,0,0,0,11,7,6,42,26,0,37,0,4,0,23,23,33,21,1,1,47,21,0,19,0,0,12,0,0,0,0,0,42,40,5,0,23,0,0,40,47,21,8,0,0,19,0,23,0,40,0,0,3,0,0,0,12,0,6,0,0,21,0,0,0,19,5,28,2,40,0,0,0,0,0,0,28,28,19,0,40,19,0,0,6,4,21,0,0,41,19,3,0,0,0,0,39,0,43,39,21,0,0,0,10,21,8,40,0,0,40,0,0,0,0,0,21,0,5,0,19,0,40,0,0,19,42,19,0,0,19,19,0,0,0,0,0,0,0,0,0,0,0,0,0,0],"split_type":[0,0,0,0,0,0,0,0,0,0,0,0,0,0,0,0,0,0,0,0,0,0,0,0,0,0,0,0,0,0,0,0,0,0,0,0,0,0,0,0,0,0,0,0,0,0,0,0,0,0,0,0,0,0,0,0,0,0,0,0,0,0,0,0,0,0,0,0,0,0,0,0,0,0,0,0,0,0,0,0,0,0,0,0,0,0,0,0,0,0,0,0,0,0,0,0,0,0,0,0,0,0,0,0,0,0,0,0,0,0,0,0,0,0,0,0,0,0,0,0,0,0,0,0,0,0,0,0,0,0,0,0,0,0,0,0,0,0,0,0,0,0,0,0,0,0,0,0,0,0,0],"sum_hessian":[2.8636665E3,2.3273728E3,5.362937E2,3.861826E2,1.9411902E3,5.15632E2,2.066164E1,3.06951E2,7.9231606E1,9.9845215E2,9.42738E2,3.9704694E2,1.1858512E2,9.9220624E2,6.2459497E0,9.395446E2,3.1933827E0,3.8348328E2,1.356365E1,1.1191399E2,6.67113E0,8.920055E2,1.00200745E2,1.1015198E1,9.285294E2,3.1631232E2,6.717096E1,1.4812618E1,9.710137E1,3.8784935E0,2.7926366E0,8.898557E2,2.1497662E0,9.180628E1,8.394458E0,5.1430893E0,5.872109E0,7.5938434E2,1.6914508E2,2.98855E2,1.7457325E1,5.5504936E1,1.1666021E1,5.0213614E0,9.208001E1,8.77089E2,1.2766741E1,7.455023E2,1.3882003E1,9.24717E0,1.5989792E2,1.7424713E2,1.24607864E2,8.487903E0,4.7017033E1,2.844758E0,8.923525E1,8.3354456E2,4.354444E1,8.819951E0,3.9467895E0,7.4335254E2,2.1497662E0,9.641112E0,4.2408905E0,2.304511E1,1.368528E2,1.5601988E1,1.09005875E2,3.4035566E0,4.3613476E1,7.685728E2,6.49717E1,7.3397314E2,9.379425E0,5.8271136E0,3.8139985E0,1.1143854E2,2.5414265E1,2.249987E0,4.136349E1,5.275183E2,2.4105453E2,6.279508E1,2.176622E0,7.0597784E2,2.7995293E1,3.9739249E0,5.4055004E0,4.5878894E2,6.872937E1,2.2173195E2,1.9322596E1,8.712464E0,5.408261E1,3.5075012E1,6.7090283E2,9.556755E0,1.8438538E1,4.2939948E2,2.9389462E1,3.8205093E1,3.0524273E1,1.9833676E2,2.3395182E1,4.972816E1,4.3544526E0,2.9234607E0,3.215155E1,5.254034E2,1.4549944E2,3.5464468E2,7.475478E1,3.4400417E1,3.8046784E0,1.9458138E2,3.7553835E0,1.9683008E1,3.7121723E0,4.0631527E1,9.096635E0,2.9504757E1,2.6467943E0,5.2049536E2,4.908026E0,1.169749E2,2.8524538E1,3.422576E2,1.2387097E1,2.3973863E0,7.23574E1,6.861434E0,1.8771994E2,2.356413E1,5.940627E0,2.8371194E2,2.3678343E2,1.8209522E1,9.876538E1,2.8008728E1,3.1424887E2,1.3152137E1,5.920526E1,2.6280868E0,4.2333474E0,3.1569883E1,1.5615005E2,2.764727E1,2.5606467E2,4.3636234E1,1.9314719E2],"tree_param":{"num_deleted":"0","num_feature":"48","num_nodes":"151","size_leaf_vector":"1"}},{"base_weights":[1.1605044E-2,2.1973518E-1,-9.5946676E-1,-8.998902E-1,4.138972E-1,-1.1630826E0,-3.303701E-1,-4.022406E-1,1.2129385E0,5.6993616E-1,2.4997479E-1,-1.2407244E0,1.3894008E-1,-1.0520613E-1,-4.1683364E-1,3.8115525E-1,7.142518E-1,5.8206916E-1,-3.975637E-1,2.6172432E-1,-4.2560515E-1,-1.2742883E0,-5.191378E-1,-3.5735297E-1,-3.2158837E-2,8.720491E-2,3.140909E-1,8.2293004E-1,5.3741294E-1,3.4229407E-1,1.9589004E-3,-1.2336658E0,-4.2735228E-1,-3.1596744E-1,-1.1109275E-1,6.1039594E-3,-3.0844295E-1,8.963469E-1,-4.5371883E-2,5.1997316E-1,2.6708648E-1,-4.543251E-1,3.5882863E-1,5.650978E-1,-4.4900466E-2,-3.8296533E-1,-3.1292462E-1,-4.5441377E-1,7.644956E-2,9.661442E-1,3.239661E-1,-7.06449E-1,3.6400986E-1,4.9147615E-1,7.1360826E-1,3.3056462E-1,9.2723906E-1,-7.409674E-2,2.912528E-1,-3.590303E-1,2.4399981E-1,-3.1842712E-1,4.053563E-2,1.0175112E0,1.12935945E-1,-2.502395E-1,5.0331134E-1,-6.66685E-1,2.068789E-1,5.2822936E-1,1.901089E-2,7.73844E-1,-3.1481385E-1,7.384255E-1,2.9273498E-1,3.5720557E-1,7.751516E-1,-3.8627723E-1,-3.189435E-2,5.629338E-1,3.173249E-1,-2.6542422E-1,2.896556E-1,5.4593605E-1,2.5890164E-2,-4.2029433E-3,6.559833E-2,9.163893E-1,-1.12050725E-2,-4.1910648E-1,8.63176E-1,2.4662358E-1,5.690161E-1,1.8076995E-1,3.6645526E-1,-3.786012E-1,3.0780947E-1,1.2688808E-2,-9.260751E-2,4.6501834E-2,3.1959325E-1,5.527343E-1,-3.3713836E-2,7.8743094E-1,1.0893219E0,7.788754E-1,4.5411012E-1,3.1497478E-1,-2.2754903E-1,4.0668154E-1,3.1531993E-1,1.6035895E-3,4.5139015E-2,5.3494924E-1,8.148265E-1,9.7211085E-2,2.6935866E-1,1.1006537E-1,3.5967162E-1,8.54385E-1,4.6433634E-1,2.720068E-1,2.3285662E-1,-6.8739645E-2,-1.6050062E-1,2.9298794E-1,6.604852E-2,5.4272133E-1,-5.2750006E-2,7.384743E-1,3.5274512E-1,6.9220495E-1,3.1288832E-1,-1.0143857E-1,3.195604E-1,4.3930882E-1,2.438239E-1,-1.863367E-1,4.7641415E-2,5.3131145E-1,9.469531E-1,1.9298692E-1,3.5274512E-1,4.3747836E-1,9.182096E-1,-5.024492E-1,3.4174365E-1,2.4930276E-1,2.2632276E-1,2.300931E-1,2.819875E-1,-4.15286E-1,-1.1937292E-2,4.7854277E-1,6.158934E-1,1.8898216E-1,4.0611365E-1,-3.408966E-1,2.7373114E-1,1.8277586E-1,3.551251E-1,4.0315185E-2,1.0750671E-1,2.245417E-1,1.5422371E-1,1.4801462E-1,-4.414504E-2,2.1679899E-2,1.4831875E-1,1.7630363E-1,4.3443942E-1,6.55495E-2,1.1225372E-1],"categories":[],"categories_nodes":[],"categories_segments":[],"categories_sizes":[],"default_left":[0,0,0,0,0,0,0,0,0,0,0,0,0,0,0,0,0,0,0,0,0,0,0,0,0,0,0,0,0,0,0,0,0,0,0,0,0,0,0,0,0,0,0,0,0,0,0,0,0,0,0,0,0,0,0,0,0,0,0,0,0,0,0,0,0,0,0,0,0,0,0,0,0,0,0,0,0,0,0,0,0,0,0,0,0,0,0,0,0,0,0,0,0,0,0,0,0,0,0,0,0,0,0,0,0,0,0,0,0,0,0,0,0,0,0,0,0,0,0,0,0,0,0,0,0,0,0,0,0,0,0,0,0,0,0,0,0,0,0,0,0,0,0,0,0,0,0,0,0,0,0,0,0,0,0,0,0,0,0,0,0,0,0,0,0,0,0,0,0,0,0,0,0],"id":2,"left_children":[1,3,5,7,9,11,13,-1,15,17,19,21,-1,23,-1,-1,25,27,-1,29,-1,31,33,-1,35,-1,-1,37,39,41,43,45,-1,-1,-1,47,-1,49,51,53,-1,-1,55,-1,57,-1,-1,59,61,63,65,67,-1,69,71,73,75,77,-1,-1,-1,-1,-1,79,-1,81,-1,-1,-1,83,85,87,-1,89,91,-1,93,95,97,99,-1,-1,-1,101,-1,-1,-1,103,-1,-1,105,107,109,-1,-1,-1,-1,111,-1,-1,-1,113,-1,115,117,119,-1,121,123,125,-1,-1,-1,127,129,-1,-1,-1,-1,131,133,135,-1,137,-1,-1,-1,139,-1,141,-1,143,-1,145,-1,147,149,151,-1,153,155,-1,-1,157,159,-1,-1,161,-1,163,-1,-1,165,167,169,-1,-1,-1,-1,-1,-1,-1,-1,171,-1,-1,-1,-1,-1,-1,-1,-1,-1],"loss_changes":[5.325118E2,4.720378E2,5.9184814E1,3.0063138E2,4.7170074E1,4.4884155E1,2.730341E1,0E0,6.98822E-1,2.2543488E1,1.8092224E1,7.4570923E0,0E0,7.577835E0,0E0,0E0,8.33591E-1,9.684845E0,0E0,1.8801674E1,0E0,1.9311523E-1,9.2840433E-1,0E0,3.4736722E0,0E0,0E0,9.308266E0,4.4428406E0,2.15941E1,1.892626E1,7.857971E-1,0E0,0E0,0E0,2.9054234E0,0E0,5.044098E0,1.1080317E1,3.854126E0,0E0,0E0,1.0625275E1,0E0,6.2839336E0,0E0,0E0,1.215985E1,5.332362E0,3.2219696E0,1.2918274E1,1.9915998E1,0E0,1.1580414E1,1.0958553E1,9.809296E0,3.4628868E-1,2.6825185E0,0E0,0E0,0E0,0E0,0E0,1.3963165E0,0E0,1.0234725E1,0E0,0E0,0E0,4.7986603E0,3.2750332E-1,1.0783936E1,0E0,1.5723204E1,7.456047E0,0E0,1.0318813E0,3.131031E1,2.240963E0,2.0876288E0,0E0,0E0,0E0,2.7259674E0,0E0,0E0,0E0,9.0647125E-1,0E0,0E0,1.6784401E0,1.6690239E1,6.1864986E0,0E0,0E0,0E0,0E0,1.5813124E-1,0E0,0E0,0E0,2.3110352E0,0E0,2.2126923E0,2.0289497E0,7.477684E-1,0E0,8.678467E0,3.1458004E0,6.67982E0,0E0,0E0,0E0,3.1601105E0,1.1116028E-1,0E0,0E0,0E0,0E0,4.300804E-1,4.0240154E0,1.8349476E0,0E0,1.2103922E0,0E0,0E0,0E0,2.0290527E0,0E0,5.765877E-1,0E0,9.353533E-1,0E0,1.5270422E1,0E0,3.2924585E0,3.1746025E0,6.157691E0,0E0,2.0985565E0,9.257908E-1,0E0,0E0,1.0626179E1,2.1375561E-1,0E0,0E0,4.2505026E-1,0E0,4.35112E-1,0E0,0E0,1.9041301E0,2.119934E0,3.9045258E0,0E0,0E0,0E0,0E0,0E0,0E0,0E0,0E0,2.2959137E-1,0E0,0E0,0E0,0E0,0E0,0E0,0E0,0E0,0E0],"parents":[2147483647,0,0,1,1,2,2,3,3,4,4,5,5,6,6,8,8,9,9,10,10,11,11,13,13,16,16,17,17,19,19,21,21,22,22,24,24,27,27,28,28,29,29,30,30,31,31,35,35,37,37,38,38,39,39,42,42,44,44,47,47,48,48,49,49,50,50,51,51,53,53,54,54,55,55,56,56,57,57,63,63,65,65,69,69,70,70,71,71,73,73,74,74,76,76,77,77,78,78,79,79,83,83,87,87,90,90,91,91,92,92,97,97,101,101,103,103,104,104,105,105,107,107,108,108,109,109,113,113,114,114,119,119,120,120,121,121,123,123,127,127,129,129,131,131,133,133,135,135,136,136,137,137,139,139,140,140,143,143,144,144,147,147,149,149,152,152,153,153,154,154,163,163],"right_children":[2,4,6,8,10,12,14,-1,16,18,20,22,-1,24,-1,-1,26,28,-1,30,-1,32,34,-1,36,-1,-1,38,40,42,44,46,-1,-1,-1,48,-1,50,52,54,-1,-1,56,-1,58,-1,-1,60,62,64,66,68,-1,70,72,74,76,78,-1,-1,-1,-1,-1,80,-1,82,-1,-1,-1,84,86,88,-1,90,92,-1,94,96,98,100,-1,-1,-1,102,-1,-1,-1,104,-1,-1,106,108,110,-1,-1,-1,-1,112,-1,-1,-1,114,-1,116,118,120,-1,122,124,126,-1,-1,-1,128,130,-1,-1,-1,-1,132,134,136,-1,138,-1,-1,-1,140,-1,142,-1,144,-1,146,-1,148,150,152,-1,154,156,-1,-1,158,160,-1,-1,162,-1,164,-1,-1,166,168,170,-1,-1,-1,-1,-1,-1,-1,-1,172,-1,-1,-1,-1,-1,-1,-1,-1,-1],"split_conditions":[1E0,1E0,1E0,1E0,1E0,1E0,1E0,-4.022406E-1,1E0,1E0,1E0,1E0,1.3894008E-1,1E0,-4.1683364E-1,3.8115525E-1,1E0,1E0,-3.975637E-1,1E0,-4.2560515E-1,1E0,1E0,-3.5735297E-1,1E0,8.720491E-2,3.140909E-1,1E0,1E0,1E0,1E0,1E0,-4.2735228E-1,-3.1596744E-1,-1.1109275E-1,1E0,-3.0844295E-1,1E0,1E0,1E0,2.6708648E-1,-4.543251E-1,1E0,5.650978E-1,1E0,-3.8296533E-1,-3.1292462E-1,1E0,1E0,1E0,1E0,1E0,3.6400986E-1,1E0,1E0,1E0,1E0,1E0,2.912528E-1,-3.590303E-1,2.4399981E-1,-3.1842712E-1,4.053563E-2,1E0,1.12935945E-1,1E0,5.0331134E-1,-6.66685E-1,2.068789E-1,1E0,1E0,1E0,-3.1481385E-1,1E0,1E0,3.5720557E-1,1E0,1E0,1E0,1E0,3.173249E-1,-2.6542422E-1,2.896556E-1,1E0,2.5890164E-2,-4.2029433E-3,6.559833E-2,1E0,-1.12050725E-2,-4.1910648E-1,1E0,1E0,1E0,1.8076995E-1,3.6645526E-1,-3.786012E-1,3.0780947E-1,1E0,-9.260751E-2,4.6501834E-2,3.1959325E-1,1E0,-3.3713836E-2,1E0,1E0,1E0,4.5411012E-1,1E0,1E0,1E0,3.1531993E-1,1.6035895E-3,4.5139015E-2,1E0,1E0,9.7211085E-2,2.6935866E-1,1.1006537E-1,3.5967162E-1,1E0,1E0,1E0,2.3285662E-1,1E0,-1.6050062E-1,2.9298794E-1,6.604852E-2,1E0,-5.2750006E-2,1E0,3.5274512E-1,1E0,3.1288832E-1,1E0,3.195604E-1,1E0,1E0,1E0,4.7641415E-2,1E0,1E0,1.9298692E-1,3.5274512E-1,1E0,1E0,-5.024492E-1,3.4174365E-1,1E0,2.2632276E-1,1E0,2.819875E-1,-4.15286E-1,1E0,1E0,1E0,1.8898216E-1,4.0611365E-1,-3.408966E-1,2.7373114E-1,1.8277586E-1,3.551251E-1,4.0315185E-2,1.0750671E-1,1E0,1.5422371E-1,1.4801462E-1,-4.414504E-2,2.1679899E-2,1.4831875E-1,1.7630363E-1,4.3443942E-1,6.55495E-2,1.1225372E-1],"split_indices":[44,23,1,42,30,6,21,0,1,11,11,2,0,19,0,0,29,19,0,5,0,21,23,0,41,0,0,4,47,37,37,3,0,0,0,23,0,0,21,28,0,0,2,0,42,0,0,42,40,21,21,31,0,4,3,40,19,19,0,0,0,0,0,29,0,26,0,0,0,6,21,5,0,19,4,0,21,21,21,2,0,0,0,13,0,0,0,4,0,0,12,21,21,0,0,0,0,41,0,0,0,2,0,6,40,42,0,6,1,19,0,0,0,42,39,0,0,0,0,1,0,19,0,0,0,0,0,12,0,42,0,3,0,6,0,3,7,3,0,5,21,0,0,4,39,0,0,0,0,13,0,0,19,40,41,0,0,0,0,0,0,0,0,47,0,0,0,0,0,0,0,0,0],"split_type":[0,0,0,0,0,0,0,0,0,0,0,0,0,0,0,0,0,0,0,0,0,0,0,0,0,0,0,0,0,0,0,0,0,0,0,0,0,0,0,0,0,0,0,0,0,0,0,0,0,0,0,0,0,0,0,0,0,0,0,0,0,0,0,0,0,0,0,0,0,0,0,0,0,0,0,0,0,0,0,0,0,0,0,0,0,0,0,0,0,0,0,0,0,0,0,0,0,0,0,0,0,0,0,0,0,0,0,0,0,0,0,0,0,0,0,0,0,0,0,0,0,0,0,0,0,0,0,0,0,0,0,0,0,0,0,0,0,0,0,0,0,0,0,0,0,0,0,0,0,0,0,0,0,0,0,0,0,0,0,0,0,0,0,0,0,0,0,0,0,0,0,0,0],"sum_hessian":[2.632728E3,2.1686865E3,4.6404153E2,3.1996866E2,1.8487178E3,3.499323E2,1.14109215E2,2.650273E2,5.494133E1,9.45865E2,9.028528E2,3.3421277E2,1.5719563E1,9.5009186E1,1.9100021E1,4.7866844E1,7.074488E0,9.405364E2,5.328586E0,8.9737726E2,5.4755616E0,3.1862622E2,1.5586557E1,5.023249E0,8.998594E1,3.9366145E0,3.1378734E0,1.443785E2,7.961579E2,6.846929E2,2.126844E2,2.58055E2,6.0571224E1,2.072482E0,1.3514075E1,8.761394E1,2.371999E0,1.3309288E2,1.1285608E1,7.610204E2,3.5137516E1,5.243947E0,6.794489E2,4.215299E0,2.084691E2,2.0600223E2,5.2052757E1,1.0886393E1,7.672755E1,1.1801407E2,1.507881E1,7.687154E0,3.598455E0,6.6647437E2,9.4546005E1,6.4877057E2,3.0678324E1,2.0354549E2,4.9236107E0,6.90123E0,3.9851627E0,2.9240832E0,7.380347E1,1.0789042E2,1.0123654E1,1.1160212E1,3.9185987E0,3.4017127E0,4.2854414E0,6.1826154E2,4.8212822E1,9.196491E1,2.581091E0,5.3494892E1,5.952757E2,8.728996E0,2.1949327E1,2.326871E1,1.8027678E2,9.992631E0,9.789779E1,7.5119624E0,3.648249E0,5.9421783E2,2.4043713E1,4.2168316E1,6.044506E0,7.8109604E1,1.3855311E1,2.3897204E0,5.110517E1,5.117561E2,8.351957E1,1.752378E1,4.425546E0,1.4428494E1,8.840215E0,1.5608987E2,2.4186903E1,6.2368693E0,3.755762E0,5.883029E2,5.9149146E0,4.7924786E1,3.0184816E1,4.718751E1,3.9176588E0,4.4757468E2,6.418143E1,6.3858368E1,1.9661203E1,1.4917738E2,6.912494E0,5.537665E2,3.453647E1,9.980146E0,3.794464E1,4.5482364E0,2.5636581E1,3.6668423E1,1.0519088E1,4.1088522E2,3.668945E1,4.3128002E1,2.1053427E1,1.4700943E1,4.9157425E1,5.480107E2,5.755813E0,3.102099E1,3.5154786E0,2.222503E1,1.4443392E1,5.845829E0,4.6732583E0,5.7133934E1,3.537513E2,2.8552763E1,1.4575237E1,5.352179E2,1.2792779E1,2.7505512E1,3.5154786E0,1.1828736E1,1.0396295E1,2.4229045E0,3.4229245E0,3.6759235E1,2.0374699E1,3.4821356E2,5.53775E0,2.7468934E0,2.580587E1,3.336928E2,2.0152507E2,8.621887E0,4.170892E0,2.4194148E0,9.409322E0,6.3280225E0,4.068272E0,1.8985157E1,1.7774078E1,3.4329346E2,4.920102E0,4.8883033E0,2.0917566E1,1.2740575E1,3.2095224E2,1.9656715E2,4.9579225E0,3.3233182E2,1.0961626E1],"tree_param":{"num_deleted":"0","num_feature":"48","num_nodes":"173","size_leaf_vector":"1"}},{"base_weights":[1.1195378E-1,2.9111636E-1,-8.824943E-1,-8.0268794E-1,4.3929544E-1,-9.855538E-1,-5.7355666E-1,-3.676669E-1,1.0541457E0,-4.1192356E-1,4.4682723E-1,-1.01623E0,-6.904634E-2,-3.9520198E-1,-4.5778656E-1,3.4115532E-1,1.2585805E-1,4.9587336E-1,2.8138608E-1,-6.1216766E-1,-1.0495051E0,-3.4934953E-1,-3.5429206E-1,5.015563E-1,-6.191344E-1,6.9848573E-1,2.0036963E-1,-3.6156097E-1,2.6790485E-1,-9.930335E-1,-3.9668193E-1,-3.1978524E-1,-2.9604048E-1,5.0640726E-1,-4.452435E-1,2.8833053E-1,1.936139E-1,3.7465093E-1,2.2286724E-2,-3.6643612E-1,-9.554289E-1,-3.0131018E-1,-7.4907325E-2,5.1211596E-1,-5.6344074E-1,3.9871654E-1,-3.4725732E-1,1.4094146E-1,-2.3097184E-1,-9.338363E-1,-3.9644772E-1,7.8902525E-1,4.8929757E-1,-3.859634E-1,4.0904455E-2,3.2630116E-1,2.1799375E-1,-9.077418E-2,5.038059E-2,-9.0865624E-1,-3.78244E-1,6.352837E-1,1.4889455E0,5.8676314E-1,3.8827366E-1,3.013698E-1,3.3404005E-1,-3.5184437E-1,-2.6457027E-1,3.5078946E-1,7.8521293E-1,1.460759E-1,1.880572E0,5.9598815E-1,-3.1703955E-1,4.432676E-1,-1.9908022E-2,2.8139472E-1,2.47852E-1,2.8649513E-2,6.37446E-1,8.427594E-1,4.3906815E-2,7.370569E-1,2.0466243E-1,8.999397E-1,5.4179204E-1,5.0350285E-1,2.4728428E-1,-5.272126E-1,1.1640657E-1,6.40602E-2,8.693603E-2,-7.744122E-1,7.535598E-1,7.424938E-1,9.2336096E-2,8.969302E-1,1.6745064E-1,9.312394E-1,1.3512999E-1,5.6611085E-1,3.4568107E-1,5.8633065E-1,3.2958487E-1,-6.1099166E-1,1.05643876E-1,3.4553003E-2,9.439091E-2,1.3858257E-1,-6.1555547E-1,5.021931E-2,3.8760054E-1,2.6220378E-1,1.1389801E-1,1.0722194E0,7.812797E-1,8.658081E-1,1.1292863E0,5.873855E-1,3.9598802E-1,8.047525E-2,1.6190809E-1,4.1537926E-1,6.1242247E-1,7.570383E-2,1.0117317E-1,-8.224124E-2,8.4221475E-2,1.533294E-1,3.7473518E-1,2.694716E-1,9.9749595E-2,2.7586907E-1,1.94831E-1,3.8618788E-1,2.3878016E-1,5.752287E-1,2.6841903E-1,-3.0748446E-2,2.2825453E-1,2.989425E-1,3.9017373E-1,5.9485257E-1,3.669756E-1,-4.6839423E-2,8.21365E-3,1.826942E-1,1.5250306E-1,3.773539E-2,2.5439703E-1,1.6849856E-1,2.5133404E-1],"categories":[],"categories_nodes":[],"categories_segments":[],"categories_sizes":[],"default_left":[0,0,0,0,0,0,0,0,0,0,0,0,0,0,0,0,0,0,0,0,0,0,0,0,0,0,0,0,0,0,0,0,0,0,0,0,0,0,0,0,0,0,0,0,0,0,0,0,0,0,0,0,0,0,0,0,0,0,0,0,0,0,0,0,0,0,0,0,0,0,0,0,0,0,0,0,0,0,0,0,0,0,0,0,0,0,0,0,0,0,0,0,0,0,0,0,0,0,0,0,0,0,0,0,0,0,0,0,0,0,0,0,0,0,0,0,0,0,0,0,0,0,0,0,0,0,0,0,0,0,0,0,0,0,0,0,0,0,0,0,0,0,0,0,0,0,0,0,0,0,0,0,0],"id":3,"left_children":[1,3,5,7,9,11,13,-1,15,-1,17,19,-1,-1,21,-1,-1,23,25,27,29,31,-1,33,-1,35,37,-1,-1,39,-1,-1,41,43,-1,-1,-1,45,47,-1,49,-1,-1,51,53,55,-1,57,-1,59,-1,61,63,-1,-1,65,-1,-1,-1,67,-1,69,71,73,75,77,-1,-1,-1,79,81,-1,83,85,-1,87,89,91,-1,93,95,97,-1,-1,-1,99,101,103,105,-1,107,-1,-1,109,111,113,-1,115,-1,117,-1,119,121,123,125,-1,-1,127,-1,-1,-1,-1,-1,-1,-1,129,131,133,135,137,139,-1,-1,141,143,-1,-1,145,-1,-1,-1,-1,-1,-1,-1,-1,-1,147,-1,-1,-1,149,-1,151,-1,-1,-1,-1,-1,-1,-1,-1,-1],"loss_changes":[4.608294E2,3.554948E2,1.2007263E1,2.0683945E2,2.6964142E1,6.5953674E0,8.108459E0,0E0,2.1101608E0,0E0,1.5465393E1,3.1614075E0,0E0,0E0,6.5728035E0,0E0,0E0,2.2593811E1,1.4798573E1,2.2432943E1,2.691742E0,2.697815E0,0E0,1.5004028E1,0E0,3.7688828E-1,1.1524032E1,0E0,0E0,7.176666E-1,0E0,0E0,2.2050786E0,9.307648E0,0E0,0E0,0E0,7.383589E0,1.7483574E1,0E0,2.9136658E-1,0E0,0E0,8.898712E0,4.382554E0,4.169632E0,0E0,1.9856887E0,0E0,3.8285828E-1,0E0,1.0916191E1,1.31651E1,0E0,0E0,2.6831303E0,0E0,0E0,0E0,2.0927429E-1,0E0,3.6541252E0,6.583008E0,1.1096573E1,1.506797E1,1.3448639E0,0E0,0E0,0E0,3.0847068E0,2.06501E0,0E0,7.5708466E0,1.0831329E1,0E0,6.8552628E0,1.9296387E1,2.1532059E-2,0E0,1.0403837E1,3.8557768E-1,3.3794403E-1,0E0,0E0,0E0,1.0221634E0,2.597412E0,6.3076553E0,3.447762E1,0E0,1.2171552E0,0E0,0E0,1.4366604E1,2.7418938E0,2.7612066E-1,0E0,5.5274963E-2,0E0,2.514572E-1,0E0,1.647522E0,8.6443806E-1,1.1034164E0,2.374649E-3,0E0,0E0,1.5955504E0,0E0,0E0,0E0,0E0,0E0,0E0,0E0,8.33086E-1,1.2878075E0,2.8196335E-1,4.30851E-2,1.2027893E0,1.1138019E1,0E0,0E0,4.0862556E0,2.0841675E0,0E0,0E0,3.1097633E-1,0E0,0E0,0E0,0E0,0E0,0E0,0E0,0E0,0E0,6.9496155E-1,0E0,0E0,0E0,3.6647441E0,0E0,1.5985489E0,0E0,0E0,0E0,0E0,0E0,0E0,0E0,0E0,0E0],"parents":[2147483647,0,0,1,1,2,2,3,3,4,4,5,5,6,6,8,8,10,10,11,11,14,14,17,17,18,18,19,19,20,20,21,21,23,23,25,25,26,26,29,29,32,32,33,33,37,37,38,38,40,40,43,43,44,44,45,45,47,47,49,49,51,51,52,52,55,55,59,59,61,61,62,62,63,63,64,64,65,65,69,69,70,70,72,72,73,73,75,75,76,76,77,77,79,79,80,80,81,81,85,85,86,86,87,87,88,88,90,90,93,93,94,94,95,95,97,97,99,99,101,101,102,102,103,103,104,104,107,107,115,115,116,116,117,117,118,118,119,119,120,120,123,123,124,124,127,127,137,137,141,141,143,143],"right_children":[2,4,6,8,10,12,14,-1,16,-1,18,20,-1,-1,22,-1,-1,24,26,28,30,32,-1,34,-1,36,38,-1,-1,40,-1,-1,42,44,-1,-1,-1,46,48,-1,50,-1,-1,52,54,56,-1,58,-1,60,-1,62,64,-1,-1,66,-1,-1,-1,68,-1,70,72,74,76,78,-1,-1,-1,80,82,-1,84,86,-1,88,90,92,-1,94,96,98,-1,-1,-1,100,102,104,106,-1,108,-1,-1,110,112,114,-1,116,-1,118,-1,120,122,124,126,-1,-1,128,-1,-1,-1,-1,-1,-1,-1,130,132,134,136,138,140,-1,-1,142,144,-1,-1,146,-1,-1,-1,-1,-1,-1,-1,-1,-1,148,-1,-1,-1,150,-1,152,-1,-1,-1,-1,-1,-1,-1,-1,-1],"split_conditions":[1E0,1E0,1E0,1E0,1E0,1E0,1E0,-3.676669E-1,1E0,-4.1192356E-1,1E0,1E0,-6.904634E-2,-3.9520198E-1,1E0,3.4115532E-1,1.2585805E-1,1E0,1E0,1E0,1E0,1E0,-3.5429206E-1,1E0,-6.191344E-1,1E0,1E0,-3.6156097E-1,2.6790485E-1,1E0,-3.9668193E-1,-3.1978524E-1,1E0,1E0,-4.452435E-1,2.8833053E-1,1.936139E-1,1E0,1E0,-3.6643612E-1,1E0,-3.0131018E-1,-7.4907325E-2,1E0,1E0,1E0,-3.4725732E-1,1E0,-2.3097184E-1,1E0,-3.9644772E-1,1E0,1E0,-3.859634E-1,4.0904455E-2,1E0,2.1799375E-1,-9.077418E-2,5.038059E-2,1E0,-3.78244E-1,1E0,1E0,1E0,1E0,1E0,3.3404005E-1,-3.5184437E-1,-2.6457027E-1,1E0,1E0,1.460759E-1,1E0,1E0,-3.1703955E-1,1E0,1E0,1E0,2.47852E-1,1E0,1E0,1E0,4.3906815E-2,7.370569E-1,2.0466243E-1,1E0,1E0,1E0,1E0,-5.272126E-1,1E0,6.40602E-2,8.693603E-2,1E0,1E0,1E0,9.2336096E-2,1E0,1.6745064E-1,1E0,1.3512999E-1,1E0,1E0,1E0,1E0,-6.1099166E-1,1.05643876E-1,1E0,9.439091E-2,1.3858257E-1,-6.1555547E-1,5.021931E-2,3.8760054E-1,2.6220378E-1,1.1389801E-1,1E0,1E0,1E0,1E0,1E0,1E0,8.047525E-2,1.6190809E-1,1E0,1E0,7.570383E-2,1.0117317E-1,1E0,8.4221475E-2,1.533294E-1,3.7473518E-1,2.694716E-1,9.9749595E-2,2.7586907E-1,1.94831E-1,3.8618788E-1,2.3878016E-1,1E0,2.6841903E-1,-3.0748446E-2,2.2825453E-1,1E0,3.9017373E-1,1E0,3.669756E-1,-4.6839423E-2,8.21365E-3,1.826942E-1,1.5250306E-1,3.773539E-2,2.5439703E-1,1.6849856E-1,2.5133404E-1],"split_indices":[44,23,1,42,37,6,23,0,1,0,5,19,0,0,21,0,0,31,19,4,4,40,0,7,0,40,30,0,0,23,0,0,19,8,0,0,0,41,21,0,2,0,0,40,29,21,0,40,0,47,0,0,30,0,0,31,0,0,0,40,0,30,30,11,21,42,0,0,0,1,39,0,42,19,0,0,19,29,0,4,42,1,0,0,0,3,4,3,19,0,1,0,0,19,21,39,0,41,0,21,0,6,28,19,19,0,0,4,0,0,0,0,0,0,0,3,3,0,1,12,28,0,0,10,11,0,0,0,0,0,0,0,0,0,0,0,0,1,0,0,0,2,0,6,0,0,0,0,0,0,0,0,0],"split_type":[0,0,0,0,0,0,0,0,0,0,0,0,0,0,0,0,0,0,0,0,0,0,0,0,0,0,0,0,0,0,0,0,0,0,0,0,0,0,0,0,0,0,0,0,0,0,0,0,0,0,0,0,0,0,0,0,0,0,0,0,0,0,0,0,0,0,0,0,0,0,0,0,0,0,0,0,0,0,0,0,0,0,0,0,0,0,0,0,0,0,0,0,0,0,0,0,0,0,0,0,0,0,0,0,0,0,0,0,0,0,0,0,0,0,0,0,0,0,0,0,0,0,0,0,0,0,0,0,0,0,0,0,0,0,0,0,0,0,0,0,0,0,0,0,0,0,0,0,0,0,0,0,0],"sum_hessian":[2.5840479E3,2.1901682E3,3.9387964E2,2.6077853E2,1.9293896E3,2.9370984E2,1.0016982E2,2.126829E2,4.809564E1,7.234554E0,1.922155E3,2.8191614E2,1.1793688E1,1.2093609E1,8.807621E1,4.1830307E1,6.2653284E0,1.4810813E3,4.4107382E2,2.2925632E1,2.589905E2,7.788148E1,1.0194734E1,1.4786025E3,2.478709E0,7.049917E1,3.7057465E2,1.6588957E1,6.3366747E0,2.1841272E2,4.057779E1,4.0772905E0,7.3804184E1,1.4757423E3,2.8602147E0,8.982383E0,6.151678E1,1.8672852E2,1.8384615E2,2.6424137E1,1.9198859E2,3.263336E0,7.054085E1,1.4684282E3,7.314167E0,1.8456929E2,2.159226E0,1.6061177E2,2.3234364E1,1.8464796E2,7.340626E0,1.09235565E2,1.3591926E3,3.1847918E0,4.1293755E0,1.5281808E2,3.1751205E1,8.6287E0,1.5198308E2,1.7495396E2,9.694E0,9.112671E1,1.8108856E1,6.8933234E2,6.698603E2,1.4946698E2,3.351109E0,1.2151013E1,1.6280295E2,3.260246E1,5.852425E1,5.719113E0,1.2389744E1,6.8611865E2,3.2136784E0,5.902504E2,7.960988E1,1.4546642E2,4.000555E0,1.5869038E1,1.6733421E1,5.3395374E1,5.1288724E0,7.6572523E0,4.7324915E0,1.0146444E2,5.8465424E2,4.5028635E2,1.3996408E2,4.926362E0,7.468352E1,1.8919775E1,1.26546646E2,7.4962935E0,8.372744E0,1.1740069E1,4.9933524E0,4.3049416E1,1.034596E1,9.385733E1,7.60711E0,5.1847394E2,6.618027E1,3.0341483E2,1.468715E2,5.335403E0,1.3462868E2,5.368859E1,2.0994926E1,4.1338153E0,3.3624785E0,4.636366E0,3.736378E0,7.5826764E0,4.1573935E0,1.3824579E1,2.9224838E1,7.458683E1,1.92705E1,4.586633E2,5.981065E1,4.9005035E1,1.717523E1,4.241771E1,2.6099713E2,1.6312513E1,1.3055899E2,3.686512E1,1.682347E1,4.245869E0,9.57871E0,2.238855E1,6.836287E0,5.7140804E1,1.7446026E1,1.1132243E1,8.138256E0,4.4397382E2,1.4689482E1,2.5580675E1,3.4229977E1,3.8669006E1,3.7487035E0,2.5561835E2,5.3787713E0,2.1767973E1,1.5097148E1,2.8968582E2,1.5428798E2,3.0332027E1,8.336979E0,2.2780574E2,2.7812607E1],"tree_param":{"num_deleted":"0","num_feature":"48","num_nodes":"153","size_leaf_vector":"1"}},{"base_weights":[5.8231216E-2,-7.850952E-1,1.5695427E-1,-1.0863837E0,2.7719596E-1,2.627465E-1,-4.223539E-1,-3.487737E-1,-7.758973E-1,4.0823182E-1,1.2215822E-1,-4.6526554E-1,9.851949E-1,-3.348821E-1,-3.265316E-1,3.8149E-1,8.453793E-1,-3.4113497E-1,1.3076581E-1,-5.2647775E-1,2.2045846E-1,-5.284204E-2,-2.6302597E-1,3.7267992E-1,4.4304597E-1,-3.0581249E-2,2.817566E-1,3.3380175E-1,9.455453E-2,-5.944734E-1,-3.5473153E-2,3.3723682E-1,6.025521E-1,4.5160198E-1,-1.4147973E-1,1.4428104E-1,-6.867546E-2,-6.856796E-1,-3.4463856E-1,2.218071E-1,-2.1818396E-1,3.2644206E-1,3.4109238E-1,5.0214607E-1,3.8103768E-1,4.0328345E-1,4.1294292E-1,1.5804133E-1,-1.0851656E-1,-1.2871584E-1,2.3317957E-1,-5.886443E-1,-3.5389686E-1,-3.0235082E-1,-2.7841204E-1,-2.6867602E-2,-2.758516E-1,2.9732952E-1,1.7323303E-1,5.718947E-1,-3.1018734E-1,-3.5792625E-1,4.4782388E-1,1.4157195E-1,5.683503E-1,-2.6265044E-2,-1.1892394E-1,-6.27485E-1,-1.2124415E-3,-2.8598228E-1,-6.653038E-2,3.314729E-1,-6.83605E-2,-4.5414783E-2,6.1421216E-1,3.3658975E-1,-4.7123554E-1,4.8820683E-1,3.10457E-2,1.3294592E-1,2.2356576E-1,9.799955E-2,4.0121907E-1,-7.9962575E-1,-4.283564E-1,3.1408298E-1,2.9742876E-1,-5.346711E-1,3.1997892E-1,7.4493164E-1,8.494984E-2,4.562938E-1,2.905813E-1,9.029107E-2,2.4465075E-1,-2.2585696E-1,-3.3517006E-1,-2.799138E-1,-3.9294466E-1,6.490917E-1,2.9217952E-1,-5.2570254E-1,-6.3438065E-2,2.759381E-1,7.180151E-4,9.7598754E-2,2.309798E-1,4.2900923E-1,2.704238E-1,5.2422196E-1,4.7365826E-2,-4.404256E-1,2.950104E-1,-2.7806112E-1,-1.0647881E-1,2.740308E-1,3.643753E-1,3.5474044E-1,9.797724E-2,2.246107E-1,-7.992639E-2,3.6555764E-1,1.7554101E-1,1.633141E-1,2.4089982E-1,6.934927E-3,2.3470582E-1,3.456368E-1,-3.0585995E-2,-3.239814E-1,3.39064E-1,3.9596695E-1,5.279043E-2,1.12298355E-1,1.0243261E-2,3.3039454E-1,2.1561475E-1,-1.017432E-1,4.6140927E-1,-1.0252557E-1,4.3107964E-2,4.244515E-1,-7.001064E-2,9.4223775E-2,1.6997828E-1,-5.3772587E-1,4.687853E-1,3.6374807E-1,1.8524574E-1,1.608604E-1,-2.0164533E-1,2.5344518E-1,1.8240716E-1,2.643227E-2,2.5878748E-1,-1.3790615E-1,1.9791393E-1,8.2783945E-2,1.7822105E-1,4.9798954E-2,2.0362431E-1,1.0478436E-1,2.1983887E-1,-5.1151153E-2,5.949889E-2,4.8858467E-2,1.3885756E-1,-4.4290178E-2,4.4247292E-2],"categories":[],"categories_nodes":[],"categories_segments":[],"categories_sizes":[],"default_left":[0,0,0,0,0,0,0,0,0,0,0,0,0,0,0,0,0,0,0,0,0,0,0,0,0,0,0,0,0,0,0,0,0,0,0,0,0,0,0,0,0,0,0,0,0,0,0,0,0,0,0,0,0,0,0,0,0,0,0,0,0,0,0,0,0,0,0,0,0,0,0,0,0,0,0,0,0,0,0,0,0,0,0,0,0,0,0,0,0,0,0,0,0,0,0,0,0,0,0,0,0,0,0,0,0,0,0,0,0,0,0,0,0,0,0,0,0,0,0,0,0,0,0,0,0,0,0,0,0,0,0,0,0,0,0,0,0,0,0,0,0,0,0,0,0,0,0,0,0,0,0,0,0,0,0,0,0,0,0,0,0,0,0,0,0,0,0,0,0],"id":4,"left_children":[1,3,5,7,-1,9,11,-1,13,15,17,19,-1,-1,21,23,25,-1,27,29,-1,-1,-1,31,-1,-1,-1,33,35,37,39,41,43,45,-1,47,49,51,53,-1,55,57,-1,59,-1,61,-1,63,-1,65,-1,67,-1,-1,69,-1,-1,71,-1,73,75,-1,77,79,81,-1,-1,83,-1,-1,-1,85,87,-1,89,-1,-1,91,-1,93,-1,-1,-1,95,97,99,-1,101,103,105,-1,107,-1,109,111,-1,-1,-1,113,115,117,-1,119,-1,-1,-1,-1,121,-1,123,125,-1,127,-1,-1,129,-1,131,133,-1,-1,135,-1,137,-1,139,141,143,-1,145,-1,147,149,-1,-1,151,-1,-1,153,155,-1,157,-1,-1,-1,-1,159,161,-1,163,-1,165,-1,-1,-1,167,-1,-1,-1,-1,-1,-1,-1,-1,-1,-1,-1,-1,-1],"loss_changes":[1.9248503E2,1.2576901E2,1.2692433E2,3.9819183E0,0E0,3.574974E1,5.240734E1,0E0,6.317463E0,9.727921E0,9.812513E0,2.368332E1,0E0,0E0,1.5205743E0,7.2853394E0,4.4270287E0,0E0,6.4853945E0,1.0071983E1,0E0,0E0,0E0,6.3705597E0,0E0,0E0,0E0,1.2904157E1,6.127027E0,5.8129807E0,5.5177813E0,5.683525E0,6.501793E0,4.682745E0,0E0,4.0814686E0,9.072437E0,8.57917E0,2.9260225E0,0E0,2.7491536E0,4.8952026E0,0E0,5.5171623E0,0E0,8.554924E0,0E0,3.7265377E0,0E0,1.7924602E0,0E0,3.7144928E0,0E0,0E0,2.3789058E0,0E0,0E0,7.806347E0,0E0,2.7601967E0,1.6386677E1,0E0,1.4855804E0,2.7281723E0,3.542305E0,0E0,0E0,4.9190025E0,0E0,0E0,0E0,6.234104E0,9.961278E0,0E0,3.3602257E0,0E0,0E0,1.0697193E0,0E0,2.5343437E0,0E0,0E0,0E0,3.646431E-1,9.43779E-1,3.8986778E0,0E0,1.4199579E1,5.736104E0,3.6373138E-1,0E0,7.5917816E-1,0E0,7.236808E0,1.3170619E1,0E0,0E0,0E0,1.0967636E0,6.745528E0,6.341076E0,0E0,3.3347497E0,0E0,0E0,0E0,0E0,6.8572044E-1,0E0,3.3897247E0,2.6937652E0,0E0,2.9350405E0,0E0,0E0,1.1300981E1,0E0,4.9153175E0,2.2671576E0,0E0,0E0,5.9746075E-1,0E0,2.6287436E0,0E0,4.411645E0,5.7065754E0,7.159567E-1,0E0,1.6382965E1,0E0,2.2644234E0,3.9305906E0,0E0,0E0,1.1917229E0,0E0,0E0,1.5390711E0,4.5064387E0,0E0,9.766407E-1,0E0,0E0,0E0,0E0,4.8894143E-1,1.3825607E0,0E0,5.710256E-1,0E0,8.9282036E-1,0E0,0E0,0E0,4.5845962E-1,0E0,0E0,0E0,0E0,0E0,0E0,0E0,0E0,0E0,0E0,0E0,0E0,0E0],"parents":[2147483647,0,0,1,1,2,2,3,3,5,5,6,6,8,8,9,9,10,10,11,11,14,14,15,15,16,16,18,18,19,19,23,23,27,27,28,28,29,29,30,30,31,31,32,32,33,33,35,35,36,36,37,37,38,38,40,40,41,41,43,43,45,45,47,47,49,49,51,51,54,54,57,57,59,59,60,60,62,62,63,63,64,64,67,67,71,71,72,72,74,74,77,77,79,79,83,83,84,84,85,85,87,87,88,88,89,89,91,91,93,93,94,94,98,98,99,99,100,100,102,102,107,107,109,109,110,110,112,112,115,115,117,117,118,118,121,121,123,123,125,125,126,126,127,127,129,129,131,131,132,132,135,135,138,138,139,139,141,141,146,146,147,147,149,149,151,151,155,155],"right_children":[2,4,6,8,-1,10,12,-1,14,16,18,20,-1,-1,22,24,26,-1,28,30,-1,-1,-1,32,-1,-1,-1,34,36,38,40,42,44,46,-1,48,50,52,54,-1,56,58,-1,60,-1,62,-1,64,-1,66,-1,68,-1,-1,70,-1,-1,72,-1,74,76,-1,78,80,82,-1,-1,84,-1,-1,-1,86,88,-1,90,-1,-1,92,-1,94,-1,-1,-1,96,98,100,-1,102,104,106,-1,108,-1,110,112,-1,-1,-1,114,116,118,-1,120,-1,-1,-1,-1,122,-1,124,126,-1,128,-1,-1,130,-1,132,134,-1,-1,136,-1,138,-1,140,142,144,-1,146,-1,148,150,-1,-1,152,-1,-1,154,156,-1,158,-1,-1,-1,-1,160,162,-1,164,-1,166,-1,-1,-1,168,-1,-1,-1,-1,-1,-1,-1,-1,-1,-1,-1,-1,-1],"split_conditions":[1E0,1E0,1E0,1E0,2.7719596E-1,1E0,1E0,-3.487737E-1,1E0,1E0,1E0,1E0,9.851949E-1,-3.348821E-1,1E0,1E0,1E0,-3.4113497E-1,1E0,1E0,2.2045846E-1,-5.284204E-2,-2.6302597E-1,1E0,4.4304597E-1,-3.0581249E-2,2.817566E-1,1E0,1E0,1E0,1E0,1E0,1E0,1E0,-1.4147973E-1,1E0,1E0,1E0,1E0,2.218071E-1,1E0,1E0,3.4109238E-1,1E0,3.8103768E-1,1E0,4.1294292E-1,1E0,-1.0851656E-1,1E0,2.3317957E-1,1E0,-3.5389686E-1,-3.0235082E-1,1E0,-2.6867602E-2,-2.758516E-1,1E0,1.7323303E-1,1E0,1E0,-3.5792625E-1,1E0,1E0,1E0,-2.6265044E-2,-1.1892394E-1,1E0,-1.2124415E-3,-2.8598228E-1,-6.653038E-2,1E0,1E0,-4.5414783E-2,1E0,3.3658975E-1,-4.7123554E-1,1E0,3.10457E-2,1E0,2.2356576E-1,9.799955E-2,4.0121907E-1,1E0,1E0,1E0,2.9742876E-1,1E0,1E0,1E0,8.494984E-2,1E0,2.905813E-1,1E0,1E0,-2.2585696E-1,-3.3517006E-1,-2.799138E-1,1E0,1E0,1E0,-5.2570254E-1,1E0,2.759381E-1,7.180151E-4,9.7598754E-2,2.309798E-1,1E0,2.704238E-1,1E0,1E0,-4.404256E-1,1E0,-2.7806112E-1,-1.0647881E-1,1E0,3.643753E-1,1E0,1E0,2.246107E-1,-7.992639E-2,1E0,1.7554101E-1,1E0,2.4089982E-1,1E0,1E0,1E0,-3.0585995E-2,1E0,3.39064E-1,1E0,1E0,1.12298355E-1,1.0243261E-2,1E0,2.1561475E-1,-1.017432E-1,1E0,1E0,4.3107964E-2,1E0,-7.001064E-2,9.4223775E-2,1.6997828E-1,-5.3772587E-1,1E0,1E0,1.8524574E-1,1E0,-2.0164533E-1,1E0,1.8240716E-1,2.643227E-2,2.5878748E-1,1E0,1.9791393E-1,8.2783945E-2,1.7822105E-1,4.9798954E-2,2.0362431E-1,1.0478436E-1,2.1983887E-1,-5.1151153E-2,5.949889E-2,4.8858467E-2,1.3885756E-1,-4.4290178E-2,4.4247292E-2],"split_indices":[23,42,44,1,0,30,8,0,30,47,37,2,0,0,21,11,29,0,19,4,0,0,0,21,0,0,0,1,5,5,19,43,26,42,0,6,41,21,40,0,21,6,0,0,0,40,0,2,0,21,0,6,0,0,19,0,0,35,0,40,19,0,4,7,21,0,0,1,0,0,0,8,4,0,5,0,0,12,0,0,0,0,0,47,40,40,0,5,19,19,0,10,0,40,40,0,0,0,19,5,5,0,28,0,0,0,0,3,0,3,21,0,21,0,0,3,0,3,19,0,0,6,0,1,0,1,1,47,0,1,0,26,26,0,0,21,0,0,39,11,0,4,0,0,0,0,42,12,0,19,0,0,0,0,0,13,0,0,0,0,0,0,0,0,0,0,0,0,0],"split_type":[0,0,0,0,0,0,0,0,0,0,0,0,0,0,0,0,0,0,0,0,0,0,0,0,0,0,0,0,0,0,0,0,0,0,0,0,0,0,0,0,0,0,0,0,0,0,0,0,0,0,0,0,0,0,0,0,0,0,0,0,0,0,0,0,0,0,0,0,0,0,0,0,0,0,0,0,0,0,0,0,0,0,0,0,0,0,0,0,0,0,0,0,0,0,0,0,0,0,0,0,0,0,0,0,0,0,0,0,0,0,0,0,0,0,0,0,0,0,0,0,0,0,0,0,0,0,0,0,0,0,0,0,0,0,0,0,0,0,0,0,0,0,0,0,0,0,0,0,0,0,0,0,0,0,0,0,0,0,0,0,0,0,0,0,0,0,0,0,0],"sum_hessian":[2.3094924E3,2.4129707E2,2.0681953E3,2.0544432E2,3.585276E1,1.7492897E3,3.189058E2,1.6275807E2,4.268624E1,8.587371E2,8.905525E2,3.1612024E2,2.7855446E0,2.3444143E1,1.9242096E1,8.109982E2,4.77389E1,5.1558394E0,8.8539667E2,3.0131314E2,1.4807103E1,1.61484E1,3.0936978E0,8.0585675E2,5.1415043E0,4.2936473E0,4.344525E1,1.3276543E2,7.526312E2,2.6447696E2,3.68362E1,7.00341E2,1.05515755E2,1.1620782E2,1.6557606E1,5.769767E2,1.7565457E2,1.9246866E2,7.2008286E1,6.4474797E0,3.038872E1,6.924032E2,7.937805E0,9.324368E1,1.2272074E1,1.11802895E2,4.4049187E0,5.6237115E2,1.4605492E1,1.648054E2,1.0849171E1,1.627E2,2.9768658E1,5.2469473E0,6.676134E1,2.6632E1,3.756721E0,6.223985E2,7.000469E1,8.614323E1,7.1004543E0,2.3348029E0,1.09468094E2,5.419624E2,2.0408768E1,1.4399008E2,2.0815323E1,1.5249498E2,1.0205022E1,3.9439273E0,6.281741E1,5.6933496E2,5.306354E1,4.6190195E0,8.152421E1,3.3755255E0,3.724929E0,9.760362E1,1.1864473E1,5.3553E2,6.4324017E0,1.6612722E1,3.7960463E0,8.017254E1,7.232244E1,5.5615607E2,1.3178857E1,2.3940014E1,2.912353E1,5.754951E1,2.3974693E1,9.335202E1,4.251599E0,3.8885336E2,1.4667664E2,7.281986E1,7.352676E0,3.079848E0,6.924259E1,3.237368E1,5.237824E2,5.92113E0,1.8018883E1,9.425552E0,1.9697977E1,4.024092E0,5.352542E1,8.9810684E1,3.5413394E0,3.3994167E1,3.548592E2,3.3854406E0,1.432912E2,3.0482543E0,6.6194336E1,2.0356737E1,1.2016944E1,3.955364E2,1.2824602E2,3.0654514E0,1.4953431E1,6.6234E1,2.3576677E1,1.5505904E1,1.8488264E1,2.927222E2,6.213701E1,1.2719836E2,1.6092838E1,1.2351361E1,8.005377E0,3.4774582E2,4.779057E1,2.3151726E1,1.05094284E2,6.1996685E1,4.237317E0,5.722525E0,9.78338E0,1.6272688E2,1.299953E2,4.4280148E1,1.7856861E1,1.134208E2,1.3777557E1,3.8882349E0,8.463126E0,3.0589664E2,4.184919E1,4.2267662E1,5.522907E0,5.0040154E1,1.1956532E1,5.699766E0,4.083613E0,1.5629144E2,6.4354515E0,2.5010098E1,1.927005E1,4.198717E0,4.264409E0,2.9623068E2,9.665952E0,3.933216E0,3.8334446E1,3.6171535E1,1.3868619E1,1.5160663E2,4.68481E0],"tree_param":{"num_deleted":"0","num_feature":"48","num_nodes":"169","size_leaf_vector":"1"}},{"base_weights":[1.5595192E-2,1.4528011E-1,-7.7603847E-1,-8.1734973E-1,2.3411107E-1,-8.1712234E-1,4.924628E-1,-3.3285758E-1,6.3828933E-1,1.63234E0,2.2496991E-1,-8.886226E-1,1.6508171E-1,3.4625778E-1,2.7438253E-1,1.0413767E0,6.532815E-1,2.1451025E-1,2.6975054E-1,-1.0019321E0,-2.4244495E-1,4.5699403E-1,-2.0365812E-2,-2.3027061E-1,5.92103E-1,2.0486549E-1,8.979509E-1,-1.0601909E0,1.0529895E-1,-1.4394374E-1,-2.8175417E-1,2.9223362E-1,1.9919954E-1,1.8875705E-1,6.387221E-1,6.2232035E-1,5.2744484E-1,-3.5320616E-1,-8.176147E-1,-2.6261356E-1,-6.0457394E-2,-3.1895474E-2,1.9919954E-1,1.3680752E-1,3.2381076E-1,1.1295053E-1,6.7589146E-1,-4.3559328E-1,1.2353653E0,-3.4675568E-1,-7.693864E-1,1.1488369E-1,-5.405005E-2,2.3016046E-1,5.6572706E-2,6.244956E-1,2.5662494E-1,6.156692E-1,2.7305925E-1,-5.253732E-1,1.922201E-1,2.4657355E-1,5.104229E-1,-2.1652153E-1,-3.0714953E-1,1.9090767E-1,6.934164E-1,8.4897324E-2,-1.060747E0,6.956353E-1,5.9185017E-2,2.2930118E-1,2.4177073E-1,2.587842E-1,1.6181976E-1,1.6756357E-1,2.694505E-1,3.0722946E-1,5.7086045E-1,1.0217981E-1,-4.46448E-1,-5.652895E-1,2.1888565E-2,8.412981E-1,1.364364E-1,1.8013912E-1,5.2091616E-1,1.3715555E-1,6.7775387E-1,1.446036E-1,2.1079819E-1,7.158817E-2,1.9475095E-1,2.1604565E-1,4.500009E-1,1.5602827E-1,4.9565524E-1,2.2444288E-1,4.163005E-2,1.4922364E-1,-2.4187328E-1,-5.953694E-2,8.496353E-1,8.461677E-2,-1.3049173E-1,1.4651604E-1,2.6474777E-1,2.7024952E-1,1.1740969E-1,2.0544216E-1,3.690315E-2,6.3618636E-1,3.4385088E-1,7.614362E-2,2.2541498E-1,2.9920002E-2,5.937641E-2,2.3078388E-1,-1.3061176E-1,-1.9014856E-2,4.936278E-2,3.5640323E-1,3.6586177E-1,6.589404E-2,1.3753012E-1,6.469099E-2,2.1797433E-1,-1.7525396E-1,1.2326419E-1,2.1578352E-1,7.47755E-3,-9.399772E-3,2.301005E-1,3.0953465E-2,-1.799751E-2],"categories":[],"categories_nodes":[],"categories_segments":[],"categories_sizes":[],"default_left":[0,0,0,0,0,0,0,0,0,0,0,0,0,0,0,0,0,0,0,0,0,0,0,0,0,0,0,0,0,0,0,0,0,0,0,0,0,0,0,0,0,0,0,0,0,0,0,0,0,0,0,0,0,0,0,0,0,0,0,0,0,0,0,0,0,0,0,0,0,0,0,0,0,0,0,0,0,0,0,0,0,0,0,0,0,0,0,0,0,0,0,0,0,0,0,0,0,0,0,0,0,0,0,0,0,0,0,0,0,0,0,0,0,0,0,0,0,0,0,0,0,0,0,0,0,0,0,0,0,0,0,0,0,0,0],"id":5,"left_children":[1,3,5,7,9,11,-1,-1,13,15,17,19,-1,21,-1,23,-1,25,-1,27,29,31,-1,-1,-1,33,35,37,-1,39,-1,41,-1,43,45,47,-1,-1,49,-1,51,-1,-1,53,55,-1,57,59,61,-1,63,-1,-1,65,67,69,71,73,-1,-1,-1,-1,-1,-1,-1,75,77,79,81,83,-1,85,-1,-1,-1,87,-1,-1,89,91,-1,-1,-1,93,-1,95,97,99,101,-1,-1,103,-1,-1,-1,105,107,-1,-1,109,-1,-1,111,113,-1,115,-1,-1,-1,117,119,121,-1,123,-1,-1,-1,125,127,-1,129,131,-1,133,-1,-1,-1,-1,-1,-1,-1,-1,-1,-1,-1],"loss_changes":[2.2627982E2,1.6212868E2,3.215677E1,6.884725E1,2.1802681E1,3.0380554E1,0E0,0E0,1.8956976E0,1.3111095E0,1.19676285E1,2.1058167E1,0E0,7.1612656E-1,0E0,1.3735752E1,0E0,1.1017853E1,0E0,1.9856659E1,2.934132E0,2.1237993E-1,0E0,0E0,0E0,1.1599922E1,4.4427395E0,5.7801514E0,0E0,2.4119334E0,0E0,1.3183606E0,0E0,1.1310585E1,3.265934E-1,1.3012088E1,0E0,0E0,4.2453766E-1,0E0,2.0490491E0,0E0,0E0,8.754675E0,8.9076805E0,0E0,1.586647E-1,1.2161491E1,9.982147E-1,0E0,1.5193176E-1,0E0,0E0,9.700216E0,2.0054573E1,2.3330421E0,5.347088E0,3.564453E-1,0E0,0E0,0E0,0E0,0E0,0E0,0E0,8.102489E0,1.1117668E0,1.6903376E1,1.4768761E1,2.0479927E0,0E0,4.9600124E0,0E0,0E0,0E0,7.4332094E0,0E0,0E0,4.539585E-2,1.0167648E1,0E0,0E0,0E0,2.2709923E0,0E0,2.2291517E0,4.2663374E0,5.3470764E0,4.2400484E0,0E0,0E0,3.859396E0,0E0,0E0,0E0,1.8271928E0,5.375538E-1,0E0,0E0,2.8600569E0,0E0,0E0,7.1330833E-1,3.1377234E0,0E0,6.5523005E-1,0E0,0E0,0E0,2.6057253E0,1.9393435E-1,2.0949554E0,0E0,2.1622071E0,0E0,0E0,0E0,1.9580383E0,5.6054335E0,0E0,2.2149193E0,1.9166237E0,0E0,2.5692806E0,0E0,0E0,0E0,0E0,0E0,0E0,0E0,0E0,0E0,0E0,0E0],"parents":[2147483647,0,0,1,1,2,2,3,3,4,4,5,5,8,8,9,9,10,10,11,11,13,13,15,15,17,17,19,19,20,20,21,21,25,25,26,26,27,27,29,29,31,31,33,33,34,34,35,35,38,38,40,40,43,43,44,44,46,46,47,47,48,48,50,50,53,53,54,54,55,55,56,56,57,57,65,65,66,66,67,67,68,68,69,69,71,71,75,75,78,78,79,79,83,83,85,85,86,86,87,87,88,88,91,91,95,95,96,96,99,99,102,102,103,103,105,105,109,109,110,110,111,111,113,113,117,117,118,118,120,120,121,121,123,123],"right_children":[2,4,6,8,10,12,-1,-1,14,16,18,20,-1,22,-1,24,-1,26,-1,28,30,32,-1,-1,-1,34,36,38,-1,40,-1,42,-1,44,46,48,-1,-1,50,-1,52,-1,-1,54,56,-1,58,60,62,-1,64,-1,-1,66,68,70,72,74,-1,-1,-1,-1,-1,-1,-1,76,78,80,82,84,-1,86,-1,-1,-1,88,-1,-1,90,92,-1,-1,-1,94,-1,96,98,100,102,-1,-1,104,-1,-1,-1,106,108,-1,-1,110,-1,-1,112,114,-1,116,-1,-1,-1,118,120,122,-1,124,-1,-1,-1,126,128,-1,130,132,-1,134,-1,-1,-1,-1,-1,-1,-1,-1,-1,-1,-1],"split_conditions":[1E0,1E0,1E0,1E0,1E0,1E0,4.924628E-1,-3.3285758E-1,1E0,1E0,1E0,1E0,1.6508171E-1,1E0,2.7438253E-1,1E0,6.532815E-1,1E0,2.6975054E-1,1E0,1E0,1E0,-2.0365812E-2,-2.3027061E-1,5.92103E-1,1E0,1E0,1E0,1.0529895E-1,1E0,-2.8175417E-1,1E0,1.9919954E-1,1E0,1E0,1E0,5.2744484E-1,-3.5320616E-1,1E0,-2.6261356E-1,1E0,-3.1895474E-2,1.9919954E-1,1E0,1E0,1.1295053E-1,1E0,1E0,1E0,-3.4675568E-1,1E0,1.1488369E-1,-5.405005E-2,1E0,1E0,1E0,1E0,1E0,2.7305925E-1,-5.253732E-1,1.922201E-1,2.4657355E-1,5.104229E-1,-2.1652153E-1,-3.0714953E-1,1E0,1E0,1E0,1E0,1E0,5.9185017E-2,1E0,2.4177073E-1,2.587842E-1,1.6181976E-1,1E0,2.694505E-1,3.0722946E-1,1E0,1E0,-4.46448E-1,-5.652895E-1,2.1888565E-2,1E0,1.364364E-1,1E0,1E0,1E0,1E0,1.446036E-1,2.1079819E-1,1E0,1.9475095E-1,2.1604565E-1,4.500009E-1,1E0,1E0,2.2444288E-1,4.163005E-2,1E0,-2.4187328E-1,-5.953694E-2,1E0,1E0,-1.3049173E-1,1E0,2.6474777E-1,2.7024952E-1,1.1740969E-1,1E0,1E0,1E0,3.4385088E-1,1E0,2.2541498E-1,2.9920002E-2,5.937641E-2,1E0,1E0,-1.9014856E-2,1E0,1E0,3.6586177E-1,1E0,1.3753012E-1,6.469099E-2,2.1797433E-1,-1.7525396E-1,1.2326419E-1,2.1578352E-1,7.47755E-3,-9.399772E-3,2.301005E-1,3.0953465E-2,-1.799751E-2],"split_indices":[44,23,8,42,37,6,0,0,29,5,12,4,0,1,0,1,0,39,0,47,21,4,0,0,0,26,0,1,0,23,0,21,0,5,0,29,0,0,23,0,19,0,0,30,19,0,21,1,2,0,21,0,0,2,41,21,41,19,0,0,0,0,0,0,0,13,19,11,3,29,0,21,0,0,0,41,0,0,28,6,0,0,0,41,0,35,29,8,19,0,0,2,0,0,0,43,28,0,0,1,0,0,28,7,0,29,0,0,0,21,19,47,0,47,0,0,0,11,3,0,40,3,0,0,0,0,0,0,0,0,0,0,0,0,0],"split_type":[0,0,0,0,0,0,0,0,0,0,0,0,0,0,0,0,0,0,0,0,0,0,0,0,0,0,0,0,0,0,0,0,0,0,0,0,0,0,0,0,0,0,0,0,0,0,0,0,0,0,0,0,0,0,0,0,0,0,0,0,0,0,0,0,0,0,0,0,0,0,0,0,0,0,0,0,0,0,0,0,0,0,0,0,0,0,0,0,0,0,0,0,0,0,0,0,0,0,0,0,0,0,0,0,0,0,0,0,0,0,0,0,0,0,0,0,0,0,0,0,0,0,0,0,0,0,0,0,0,0,0,0,0,0,0],"sum_hessian":[2.2020059E3,1.8927528E3,3.0925305E2,1.592133E2,1.7335396E3,3.0473645E2,4.516617E0,1.3279625E2,2.6417051E1,1.0106343E1,1.7234332E3,2.8992648E2,1.4809941E1,1.3938775E1,1.2478276E1,6.246349E0,3.8599942E0,1.698402E3,2.5031202E1,2.4620331E2,4.372319E1,1.0916412E1,3.0223622E0,2.184482E0,4.0618668E0,1.6760492E3,2.2352766E1,2.3624661E2,9.956693E0,3.9364605E1,4.358586E0,7.4213147E0,3.495098E0,1.6174315E3,5.861771E1,1.8233671E1,4.119094E0,1.5670529E2,7.954132E1,3.0610507E0,3.6303555E1,3.9262166E0,3.495098E0,1.1695625E3,4.47869E2,8.65912E0,4.9958588E1,6.795807E0,1.1437865E1,7.060175E0,7.248115E1,7.2501354E0,2.905342E1,5.397253E2,6.298372E2,8.0281296E1,3.675877E2,4.262944E1,7.3291497E0,2.7757757E0,4.0200315E0,7.525327E0,3.9125378E0,6.428037E1,8.200776E0,4.988672E2,4.085811E1,6.151665E2,1.4670762E1,6.828253E1,1.1998761E1,3.515189E2,1.6068813E1,7.626524E0,3.5002914E1,4.841249E2,1.4742287E1,9.058959E0,3.1799149E1,6.0940625E2,5.7602353E0,8.114294E0,6.5564675E0,4.0995594E1,2.728694E1,3.0219153E2,4.9327377E1,4.580909E2,2.6033985E1,2.1776451E1,1.0022696E1,5.782E2,3.1206251E1,3.6395237E1,4.60036E0,2.821267E2,2.0064812E1,3.0333374E1,1.8994001E1,4.5313617E2,4.9547524E0,4.244078E0,2.1789907E1,5.645138E2,1.3686182E1,2.7966647E2,2.460238E0,2.5438592E0,1.7520952E1,3.014338E2,1.5170236E2,1.4498857E1,7.2910504E0,5.5853033E2,5.9835114E0,1.4795578E2,1.3171068E2,2.80588E2,2.0845787E1,1.6313108E1,1.3538925E2,1.0887862E1,3.6109943E0,5.450883E2,1.3441999E1,2.736622E2,6.9258013E0,1.130097E1,9.544818E0,3.7642934E0,1.3162495E2,6.074905E0,4.8129573E0,4.206753E2,1.2441301E2],"tree_param":{"num_deleted":"0","num_feature":"48","num_nodes":"135","size_leaf_vector":"1"}},{"base_weights":[7.847711E-3,-6.8433404E-1,6.1424E-2,-9.5296437E-1,6.258323E-1,6.770213E-2,-4.952568E-1,-3.2364547E-1,-5.187019E-1,2.2118755E-1,1.9566886E-2,1.0741198E-1,-1.9060284E-1,-3.046236E-1,2.2301786E-2,1.1228886E-1,-7.025587E-1,-8.484907E-2,-3.2107335E-1,1.1645116E-1,-5.057505E-1,1.6669378E-2,-6.4509267E-1,1.0438894E-1,6.296692E-1,-3.0688906E-1,6.5006696E-2,-3.176876E-1,1.3142145E-1,5.2920565E-2,2.2864059E-1,8.2996416E-1,-1.4429356E-1,8.933634E-2,-2.614315E-1,2.513224E-1,2.186264E-2,3.8973385E-1,2.143643E-1,3.0175763E-1,5.1393107E-2,-4.15355E-1,1.3666184E-1,3.0511707E-1,-5.9651154E-1,5.4206764E-3,4.146195E-1,3.0227143E-1,1.3268256E-1,-3.2107633E-1,7.746269E-2,-2.8037727E-1,1.599995E-1,3.5866287E-1,-5.8780986E-1,6.1915573E-2,-1.5821391E-1,5.7999015E-1,-4.875717E-1,1.1201025E-2,3.3042377E-1,3.6263564E-1,8.788447E-2,2.2597447E-1,-1.4294617E-1,3.2389542E-1,3.0879465E-1,5.0387446E-2,1.651013E-1,-1.9485171E-1,9.735844E-3,2.6045367E-1,-4.30207E-1,2.0370692E-1,3.031222E-1,6.947298E-2,3.1550232E-1,-2.041754E-1,1.2628093E-1,2.5312263E-1,-2.7273228E-2,-2.005035E-2,-2.2565627E-1,4.700118E-1,1.715627E-1,4.4759654E-2,2.9992592E-1,-6.800546E-2,-5.124319E-2,2.3595454E-2,-2.0950025E-2,-4.0629026E-1,1.3299996E-1,2.748395E-1,1.4984977E-1,2.8087705E-2,9.546403E-2,2.1767654E-1,4.205612E-1,3.450492E-1,2.4879496E-1,2.752041E-1,-3.8963872E-1,7.817868E-2,-5.5695754E-2,7.014323E-2,1.343983E-1,3.645484E-1,-3.6933694E-2,-2.9285628E-1,3.2286948E-1,2.796494E-1,5.965357E-1,2.3276864E-1,2.4959317E-1,9.6508965E-2,-1.3611363E-1,-9.710161E-2,1.3591656E-1,3.374105E-1,1.5363528E-1,7.122199E-2,2.3705412E-1,2.783954E-1,1.0867833E-1,4.3004747E-2,1.3289393E-1,3.2476973E-2,-2.1862836E-1,-1.1270986E-2,-3.8176495E-1,-4.5956384E-2,4.3898717E-2,-2.216959E-1,1.1512709E-1],"categories":[],"categories_nodes":[],"categories_segments":[],"categories_sizes":[],"default_left":[0,0,0,0,0,0,0,0,0,0,0,0,0,0,0,0,0,0,0,0,0,0,0,0,0,0,0,0,0,0,0,0,0,0,0,0,0,0,0,0,0,0,0,0,0,0,0,0,0,0,0,0,0,0,0,0,0,0,0,0,0,0,0,0,0,0,0,0,0,0,0,0,0,0,0,0,0,0,0,0,0,0,0,0,0,0,0,0,0,0,0,0,0,0,0,0,0,0,0,0,0,0,0,0,0,0,0,0,0,0,0,0,0,0,0,0,0,0,0,0,0,0,0,0,0,0,0,0,0,0,0,0,0,0,0],"id":6,"left_children":[1,3,5,7,9,11,-1,-1,13,-1,-1,15,17,-1,-1,19,-1,21,-1,23,-1,25,27,29,31,-1,33,-1,-1,35,37,39,-1,41,-1,43,45,-1,47,-1,-1,49,51,53,-1,55,57,59,61,-1,-1,-1,63,65,-1,67,69,71,-1,-1,73,75,77,79,81,83,-1,85,-1,87,89,-1,91,-1,93,-1,-1,-1,95,97,-1,-1,-1,99,101,103,-1,-1,-1,-1,-1,-1,-1,105,-1,-1,-1,107,109,111,-1,113,-1,115,117,-1,-1,119,-1,-1,-1,121,123,125,-1,127,129,131,-1,133,-1,-1,-1,-1,-1,-1,-1,-1,-1,-1,-1,-1,-1,-1,-1],"loss_changes":[7.527381E1,5.191916E1,2.0362816E1,6.0758286E0,1.5399952E0,1.9282682E1,0E0,0E0,8.678574E0,0E0,0E0,1.9713003E1,2.3220257E1,0E0,0E0,1.2366133E1,0E0,1.2795177E1,0E0,9.982908E0,0E0,9.678548E0,1.5933305E1,1.0137745E1,8.647008E0,0E0,4.263501E0,0E0,0E0,6.917901E0,6.8212967E0,3.5092983E0,0E0,4.355303E0,0E0,1.8918137E1,6.278436E0,0E0,3.2604198E0,0E0,0E0,7.1916237E0,4.2819505E0,1.88041E1,0E0,8.649012E0,1.4120938E1,1.6330853E0,2.440971E0,0E0,0E0,0E0,3.2826161E0,3.086771E0,0E0,3.887795E0,1.4794354E0,1.1108423E1,0E0,0E0,1.6908913E0,3.2620702E0,6.0529776E0,1.1751738E0,1.326685E0,3.0558167E0,0E0,3.5908766E0,0E0,1.1217308E-1,2.4651495E-1,0E0,7.7469244E0,0E0,8.992386E-1,0E0,0E0,0E0,1.1826615E0,6.4216566E-1,0E0,0E0,0E0,2.9173698E0,1.1110552E1,2.2788205E0,0E0,0E0,0E0,0E0,0E0,0E0,0E0,1.0699711E0,0E0,0E0,0E0,5.2552414E0,1.9847977E1,7.3201466E-1,0E0,1.3832493E0,0E0,2.0117054E0,3.6189628E0,0E0,0E0,1.1954594E-1,0E0,0E0,0E0,7.883568E-1,4.711001E-1,1.1283002E0,0E0,4.6286206E0,4.4885283E0,2.176336E0,0E0,3.505849E0,0E0,0E0,0E0,0E0,0E0,0E0,0E0,0E0,0E0,0E0,0E0,0E0,0E0,0E0,0E0],"parents":[2147483647,0,0,1,1,2,2,3,3,4,4,5,5,8,8,11,11,12,12,15,15,17,17,19,19,21,21,22,22,23,23,24,24,26,26,29,29,30,30,31,31,33,33,35,35,36,36,38,38,41,41,42,42,43,43,45,45,46,46,47,47,48,48,52,52,53,53,55,55,56,56,57,57,60,60,61,61,62,62,63,63,64,64,65,65,67,67,69,69,70,70,72,72,74,74,78,78,79,79,83,83,84,84,85,85,93,93,97,97,98,98,99,99,101,101,103,103,104,104,107,107,111,111,112,112,113,113,115,115,116,116,117,117,119,119],"right_children":[2,4,6,8,10,12,-1,-1,14,-1,-1,16,18,-1,-1,20,-1,22,-1,24,-1,26,28,30,32,-1,34,-1,-1,36,38,40,-1,42,-1,44,46,-1,48,-1,-1,50,52,54,-1,56,58,60,62,-1,-1,-1,64,66,-1,68,70,72,-1,-1,74,76,78,80,82,84,-1,86,-1,88,90,-1,92,-1,94,-1,-1,-1,96,98,-1,-1,-1,100,102,104,-1,-1,-1,-1,-1,-1,-1,106,-1,-1,-1,108,110,112,-1,114,-1,116,118,-1,-1,120,-1,-1,-1,122,124,126,-1,128,130,132,-1,134,-1,-1,-1,-1,-1,-1,-1,-1,-1,-1,-1,-1,-1,-1,-1],"split_conditions":[1E0,1E0,1E0,1E0,1E0,1E0,-4.952568E-1,-3.2364547E-1,1E0,2.2118755E-1,1.9566886E-2,1E0,1E0,-3.046236E-1,2.2301786E-2,1E0,-7.025587E-1,1E0,-3.2107335E-1,1E0,-5.057505E-1,1E0,1E0,1E0,1E0,-3.0688906E-1,1E0,-3.176876E-1,1.3142145E-1,1E0,1E0,1E0,-1.4429356E-1,1E0,-2.614315E-1,1E0,1E0,3.8973385E-1,1E0,3.0175763E-1,5.1393107E-2,1E0,1E0,1E0,-5.9651154E-1,1E0,1E0,1E0,1E0,-3.2107633E-1,7.746269E-2,-2.8037727E-1,1E0,1E0,-5.8780986E-1,1E0,1E0,1E0,-4.875717E-1,1.1201025E-2,1E0,1E0,1E0,1E0,1E0,1E0,3.0879465E-1,1E0,1.651013E-1,1E0,1E0,2.6045367E-1,1E0,2.0370692E-1,1E0,6.947298E-2,3.1550232E-1,-2.041754E-1,1E0,1E0,-2.7273228E-2,-2.005035E-2,-2.2565627E-1,1E0,1E0,1E0,2.9992592E-1,-6.800546E-2,-5.124319E-2,2.3595454E-2,-2.0950025E-2,-4.0629026E-1,1.3299996E-1,1E0,1.4984977E-1,2.8087705E-2,9.546403E-2,1E0,1E0,1E0,2.4879496E-1,1E0,-3.8963872E-1,1E0,1E0,7.014323E-2,1.343983E-1,1E0,-3.6933694E-2,-2.9285628E-1,3.2286948E-1,1E0,1E0,1E0,2.4959317E-1,1E0,1E0,1E0,1.3591656E-1,1E0,1.5363528E-1,7.122199E-2,2.3705412E-1,2.783954E-1,1.0867833E-1,4.3004747E-2,1.3289393E-1,3.2476973E-2,-2.1862836E-1,-1.1270986E-2,-3.8176495E-1,-4.5956384E-2,4.3898717E-2,-2.216959E-1,1.1512709E-1],"split_indices":[23,42,8,1,1,44,0,0,30,0,0,10,3,0,0,31,0,0,0,42,0,40,47,5,1,0,11,0,0,19,37,5,0,19,0,47,41,0,30,0,0,4,37,28,0,1,3,19,19,0,0,0,4,2,0,11,21,29,0,0,40,41,40,6,21,30,0,15,0,30,29,0,1,0,28,0,0,0,21,21,0,0,0,21,21,3,0,0,0,0,0,0,0,21,0,0,0,5,5,3,0,12,0,21,26,0,0,2,0,0,0,43,40,3,0,12,6,21,0,1,0,0,0,0,0,0,0,0,0,0,0,0,0,0,0],"split_type":[0,0,0,0,0,0,0,0,0,0,0,0,0,0,0,0,0,0,0,0,0,0,0,0,0,0,0,0,0,0,0,0,0,0,0,0,0,0,0,0,0,0,0,0,0,0,0,0,0,0,0,0,0,0,0,0,0,0,0,0,0,0,0,0,0,0,0,0,0,0,0,0,0,0,0,0,0,0,0,0,0,0,0,0,0,0,0,0,0,0,0,0,0,0,0,0,0,0,0,0,0,0,0,0,0,0,0,0,0,0,0,0,0,0,0,0,0,0,0,0,0,0,0,0,0,0,0,0,0,0,0,0,0,0,0],"sum_hessian":[2.0276566E3,1.4482385E2,1.8828328E3,1.2040851E2,2.4415354E1,1.8769114E3,5.9212966E0,9.220288E1,2.8205626E1,2.0103287E1,4.3120666E0,1.6273232E3,2.4958818E2,1.4961879E1,1.3243747E1,1.6250417E3,2.2815557E0,2.2378087E2,2.5807308E1,1.6222218E3,2.8198798E0,1.9027289E2,3.3507984E1,1.5861459E3,3.6075966E1,7.5577936E0,1.8271509E2,2.4260603E1,9.247382E0,1.1225723E3,4.6357364E2,3.0778137E1,5.2978296E0,1.789699E2,3.7451918E0,1.5098291E2,9.715893E2,4.9165974E0,4.5865704E2,2.3875107E1,6.9030313E0,1.4676746E1,1.6429315E2,1.4828506E2,2.6978548E0,9.335231E2,3.8066227E1,2.1960944E2,2.390476E2,7.142866E0,7.53388E0,2.670373E0,1.6162277E2,1.4568188E2,2.603169E0,6.944021E2,2.3912094E2,3.587364E1,2.1925921E0,2.1317924E1,1.982915E2,3.781982E1,2.0122778E2,1.3292802E2,2.8694752E1,1.3991165E2,5.770233E0,6.7946796E2,1.4934177E1,1.9616736E2,4.295358E1,2.8020533E1,7.8531027E0,1.266809E1,1.8562341E2,3.289844E1,4.9213815E0,8.77996E0,1.9244783E2,1.2262383E2,1.0304196E1,2.649453E1,2.2002232E0,7.0348495E1,6.956316E1,6.765048E2,2.963139E0,8.077844E1,1.15388916E2,2.3023901E1,1.9929676E1,3.548687E0,4.3044157E0,1.6435251E2,2.127091E1,1.6573721E2,2.6710608E1,1.0309835E2,1.952548E1,5.3649914E1,1.6698582E1,6.574203E1,3.8211362E0,5.0779556E2,1.6870924E2,1.3476942E2,2.9583084E1,7.199885E1,3.10995E1,6.081488E0,1.3443993E1,4.425362E1,9.396296E0,6.2403873E1,3.3381534E0,4.6828842E2,3.950714E1,1.5676012E2,1.194914E1,6.3590977E1,8.407871E0,4.2224834E1,2.0287836E0,2.6649113E0,6.7313843E0,4.4960526E1,1.744335E1,4.625726E2,5.7158346E0,3.7305344E1,2.2017956E0,1.2770714E2,2.9052973E1,2.008094E0,6.1582882E1],"tree_param":{"num_deleted":"0","num_feature":"48","num_nodes":"135","size_leaf_vector":"1"}},{"base_weights":[7.0611775E-2,1.3827449E-1,-4.1436684E-1,-5.717612E-1,1.7916971E-1,-4.5888144E-1,5.323003E-1,-8.564094E-1,5.193514E-1,1.5282406E-1,5.715076E-1,-6.410992E-1,-6.501979E-2,-3.1212166E-1,-3.3994648E-1,6.5293026E-1,3.313901E-1,5.0914496E-1,1.2443598E-1,3.901607E-1,8.822474E-1,-5.329122E-1,-3.257632E-1,-1.7567968E-1,2.7462894E-1,1.5092554E-2,-2.8226662E-1,2.2769365E-1,5.5115648E-2,4.7743255E-3,1.6778983E-1,6.1293316E-1,-4.0827906E-1,1.2767063E-1,-4.251708E-1,1.6114521E-1,1.2376454E-1,7.682374E-1,4.5604002E-1,-4.3680245E-1,-3.0907512E-1,-2.3803864E-1,1.5594657E-1,7.229321E-1,-4.7162545E-1,-1.0187544E0,1.7337132E-1,1.00471E-1,2.7234796E-1,8.45401E-2,-4.8060487E-3,3.6828142E-1,1.7367378E-1,-3.634283E-1,-3.7853092E-1,-2.3442066E-1,-6.0910188E-2,2.4777886E-1,9.7477573E-1,-5.160901E-1,1.9150144E-1,-5.19628E-1,9.821916E-2,3.0017918E-1,6.8240926E-2,1.5546232E-1,5.2448535E-1,-2.992854E-1,-3.215122E-1,-4.037354E-1,4.1425708E-1,6.889203E-1,5.180135E-1,3.520799E-1,-3.0003682E-1,6.252122E-2,1.8924044E-1,1.7541933E-1,-2.6246852E-1,1.731446E-1,-1.620591E-2,-1.7247811E-1,-4.9177986E-1,-2.0037128E-1,-4.1864416E-1,8.121706E-1,-4.0567327E-1,3.254687E-1,3.3701485E-1,-2.93207E-1,1.18298054E-1,5.6218114E-2,1.4510965E-1,2.222097E-1,-4.310196E-2,-9.022785E-2,-2.8471562E-1,-1.7951451E-1,-8.069405E-2,-3.3013347E-1,1.3830693E-1,4.8297352E-1,2.621782E-1,2.633395E-1,5.7697767E-1,2.5734453E-2,1.1880128E-1,-1.198591E-2,2.5098518E-1,-4.369408E-2,-2.2795527E-1,4.78793E-2,-4.6907952E-1,-3.447234E-2,2.7501312E-1,4.9650502E-1,5.518326E-2,9.833453E-1,-2.5958547E-1,-3.2463557E-1,3.1372093E-2,1.4300734E-1,-2.2529735E-1,7.11746E-2,1.07857645E-1,-1.0288606E-1,6.7360505E-2,-1.6576481E-1,4.1181394E-1,4.0249172E-1,7.3799324E-1,1.735164E-2,9.934301E-2,3.1585702E-1,6.562944E-2,2.051414E-2,2.3845434E-1,3.1360698E-1,1.2664843E-1,-1.9393544E-1,4.7234435E-2,1.9252636E-1,2.036118E-2,4.276647E-1,-1.614252E-2,1.3085529E-1,3.69681E-1,-9.7840704E-2,5.6230627E-2,6.2447503E-2,-4.6373833E-2,-1.3515387E-1,1.5882903E-1,1.162249E-1,2.950069E-1,-2.4015938E-1,-3.1964973E-2,1.0318326E-1,1.5825273E-1,-6.137561E-2,-1.0513524E-2,5.2940555E-2,1.2493231E-1,4.2083442E-2,-5.3076476E-1,9.115681E-2,2.5464168E-1,1.9599693E-2,-5.484797E-2,8.501838E-3,2.6820624E-1,-1.3969038E-1,-3.2744706E-1,2.3523685E-2,3.19764E-2,-7.5706863E-3,1.4406064E-1],"categories":[],"categories_nodes":[],"categories_segments":[],"categories_sizes":[],"default_left":[0,0,0,0,0,0,0,0,0,0,0,0,0,0,0,0,0,0,0,0,0,0,0,0,0,0,0,0,0,0,0,0,0,0,0,0,0,0,0,0,0,0,0,0,0,0,0,0,0,0,0,0,0,0,0,0,0,0,0,0,0,0,0,0,0,0,0,0,0,0,0,0,0,0,0,0,0,0,0,0,0,0,0,0,0,0,0,0,0,0,0,0,0,0,0,0,0,0,0,0,0,0,0,0,0,0,0,0,0,0,0,0,0,0,0,0,0,0,0,0,0,0,0,0,0,0,0,0,0,0,0,0,0,0,0,0,0,0,0,0,0,0,0,0,0,0,0,0,0,0,0,0,0,0,0,0,0,0,0,0,0,0,0,0,0,0,0,0,0,0,0,0,0,0,0,0,0],"id":7,"left_children":[1,3,5,7,9,11,-1,13,15,17,19,21,23,-1,25,27,29,31,33,35,37,39,-1,41,-1,-1,-1,-1,-1,-1,-1,43,45,47,-1,49,-1,51,-1,53,-1,55,-1,57,59,61,-1,63,65,-1,-1,-1,-1,-1,67,-1,-1,69,71,-1,-1,-1,-1,73,75,77,79,-1,81,83,-1,85,-1,87,89,91,-1,93,-1,-1,-1,95,97,99,-1,101,-1,103,-1,-1,-1,105,-1,107,-1,109,-1,-1,-1,111,-1,113,-1,115,117,119,121,-1,123,125,-1,127,-1,-1,-1,129,131,133,-1,-1,135,137,-1,-1,-1,139,-1,-1,141,143,145,147,-1,-1,-1,149,151,-1,153,155,-1,-1,-1,157,-1,-1,-1,159,-1,161,163,-1,-1,165,-1,-1,-1,-1,-1,-1,-1,167,-1,169,171,173,175,-1,-1,-1,-1,-1,-1,-1,-1,-1,-1],"loss_changes":[6.8400314E1,5.319482E1,2.5682327E1,3.1445332E1,1.779071E1,1.7968636E1,0E0,7.204754E0,3.177719E-1,1.6345112E1,5.7683296E0,7.671829E0,8.893701E0,0E0,5.295619E0,4.2809296E-1,7.7255607E-1,1.1617023E1,7.679907E0,2.939062E-1,1.6816788E0,6.236004E0,0E0,3.296991E0,0E0,0E0,0E0,0E0,0E0,0E0,0E0,1.3182892E1,8.254363E0,5.881462E0,0E0,1.7339198E-1,0E0,2.3560753E0,0E0,4.9111404E0,0E0,1.1315196E0,0E0,1.150071E1,1.56750765E1,8.4665575E0,0E0,8.125083E0,6.904188E0,0E0,0E0,0E0,0E0,0E0,3.636055E0,0E0,0E0,2.6641232E1,1.2522423E1,0E0,0E0,0E0,0E0,5.574621E0,3.47088E0,3.5129738E0,2.305708E0,0E0,2.5571547E0,4.4010534E0,0E0,1.3144964E1,0E0,2.9604511E0,7.210666E0,2.8427672E0,0E0,2.4373107E0,0E0,0E0,0E0,3.558935E0,9.8040104E-1,1.9052663E0,0E0,5.086956E-1,0E0,2.3177738E0,0E0,0E0,0E0,2.0311282E0,0E0,1.0729251E0,0E0,1.6089246E0,0E0,0E0,0E0,8.30855E0,0E0,2.5604777E0,0E0,6.21332E0,1.8708435E1,4.5201697E0,7.4548006E0,0E0,1.0420132E-1,8.22293E-1,0E0,3.3931494E0,0E0,0E0,0E0,1.0770168E0,7.152358E-1,1.0579243E0,0E0,0E0,1.6041889E0,4.8919044E0,0E0,0E0,0E0,1.0242286E0,0E0,0E0,7.150948E-1,5.4866505E-1,1.81351E0,1.2289251E0,0E0,0E0,0E0,1.9131815E0,7.3671246E0,0E0,2.8811893E0,1.5848467E0,0E0,0E0,0E0,1.8203354E-1,0E0,0E0,0E0,2.4416927E-1,0E0,1.3882251E0,1.1292089E1,0E0,0E0,1.1306663E0,0E0,0E0,0E0,0E0,0E0,0E0,0E0,1.2075561E0,0E0,2.589636E0,9.7768784E-1,4.731989E-2,3.1959455E0,0E0,0E0,0E0,0E0,0E0,0E0,0E0,0E0,0E0,0E0],"parents":[2147483647,0,0,1,1,2,2,3,3,4,4,5,5,7,7,8,8,9,9,10,10,11,11,12,12,14,14,15,15,16,16,17,17,18,18,19,19,20,20,21,21,23,23,31,31,32,32,33,33,35,35,37,37,39,39,41,41,43,43,44,44,45,45,47,47,48,48,54,54,57,57,58,58,63,63,64,64,65,65,66,66,68,68,69,69,71,71,73,73,74,74,75,75,77,77,81,81,82,82,83,83,85,85,87,87,91,91,93,93,95,95,99,99,101,101,103,103,104,104,105,105,106,106,108,108,109,109,111,111,115,115,116,116,117,117,120,120,121,121,125,125,128,128,129,129,130,130,131,131,135,135,136,136,138,138,139,139,143,143,147,147,149,149,150,150,153,153,161,161,163,163,164,164,165,165,166,166],"right_children":[2,4,6,8,10,12,-1,14,16,18,20,22,24,-1,26,28,30,32,34,36,38,40,-1,42,-1,-1,-1,-1,-1,-1,-1,44,46,48,-1,50,-1,52,-1,54,-1,56,-1,58,60,62,-1,64,66,-1,-1,-1,-1,-1,68,-1,-1,70,72,-1,-1,-1,-1,74,76,78,80,-1,82,84,-1,86,-1,88,90,92,-1,94,-1,-1,-1,96,98,100,-1,102,-1,104,-1,-1,-1,106,-1,108,-1,110,-1,-1,-1,112,-1,114,-1,116,118,120,122,-1,124,126,-1,128,-1,-1,-1,130,132,134,-1,-1,136,138,-1,-1,-1,140,-1,-1,142,144,146,148,-1,-1,-1,150,152,-1,154,156,-1,-1,-1,158,-1,-1,-1,160,-1,162,164,-1,-1,166,-1,-1,-1,-1,-1,-1,-1,168,-1,170,172,174,176,-1,-1,-1,-1,-1,-1,-1,-1,-1,-1],"split_conditions":[1E0,1E0,1E0,1E0,1E0,1E0,5.323003E-1,1E0,1E0,1E0,1E0,1E0,1E0,-3.1212166E-1,1E0,1E0,1E0,1E0,1E0,1E0,1E0,1E0,-3.257632E-1,1E0,2.7462894E-1,1.5092554E-2,-2.8226662E-1,2.2769365E-1,5.5115648E-2,4.7743255E-3,1.6778983E-1,1E0,1E0,1E0,-4.251708E-1,1E0,1.2376454E-1,1E0,4.5604002E-1,1E0,-3.0907512E-1,1E0,1.5594657E-1,1E0,1E0,1E0,1.7337132E-1,1E0,1E0,8.45401E-2,-4.8060487E-3,3.6828142E-1,1.7367378E-1,-3.634283E-1,1E0,-2.3442066E-1,-6.0910188E-2,1E0,1E0,-5.160901E-1,1.9150144E-1,-5.19628E-1,9.821916E-2,1E0,1E0,1E0,1E0,-2.992854E-1,1E0,1E0,4.1425708E-1,1E0,5.180135E-1,1E0,1E0,1E0,1.8924044E-1,1E0,-2.6246852E-1,1.731446E-1,-1.620591E-2,1E0,1E0,1E0,-4.1864416E-1,1E0,-4.0567327E-1,1E0,3.3701485E-1,-2.93207E-1,1.18298054E-1,1E0,1.4510965E-1,1E0,-4.310196E-2,1E0,-2.8471562E-1,-1.7951451E-1,-8.069405E-2,1E0,1.3830693E-1,1E0,2.621782E-1,1E0,1E0,1E0,1E0,-1.198591E-2,1E0,1E0,-2.2795527E-1,1E0,-4.6907952E-1,-3.447234E-2,2.7501312E-1,1E0,1E0,1E0,-2.5958547E-1,-3.2463557E-1,1E0,1E0,-2.2529735E-1,7.11746E-2,1.07857645E-1,1E0,6.7360505E-2,-1.6576481E-1,1E0,1E0,1E0,1E0,9.934301E-2,3.1585702E-1,6.562944E-2,1E0,1E0,3.1360698E-1,1E0,1E0,4.7234435E-2,1.9252636E-1,2.036118E-2,1E0,-1.614252E-2,1.3085529E-1,3.69681E-1,1E0,5.6230627E-2,1E0,1E0,-1.3515387E-1,1.5882903E-1,1E0,2.950069E-1,-2.4015938E-1,-3.1964973E-2,1.0318326E-1,1.5825273E-1,-6.137561E-2,-1.0513524E-2,1E0,1.2493231E-1,1E0,1E0,1E0,1E0,1.9599693E-2,-5.484797E-2,8.501838E-3,2.6820624E-1,-1.3969038E-1,-3.2744706E-1,2.3523685E-2,3.19764E-2,-7.5706863E-3,1.4406064E-1],"split_indices":[44,23,8,42,6,1,0,1,30,40,28,0,21,0,29,5,1,21,7,19,39,3,0,42,0,0,0,0,0,0,0,3,3,3,0,29,0,19,0,19,0,23,0,30,29,39,0,19,29,0,0,0,0,0,23,0,0,2,0,0,0,0,0,21,8,28,21,0,5,0,0,39,0,10,5,11,0,21,0,0,0,21,21,28,0,41,0,0,0,0,0,5,0,19,0,11,0,0,0,41,0,5,0,45,29,37,28,0,26,6,0,5,0,0,0,4,2,26,0,0,47,37,0,0,0,2,0,0,39,2,28,1,0,0,0,29,29,0,31,4,0,0,0,1,0,0,0,5,0,12,0,0,0,21,0,0,0,0,0,0,0,2,0,15,21,29,29,0,0,0,0,0,0,0,0,0,0],"split_type":[0,0,0,0,0,0,0,0,0,0,0,0,0,0,0,0,0,0,0,0,0,0,0,0,0,0,0,0,0,0,0,0,0,0,0,0,0,0,0,0,0,0,0,0,0,0,0,0,0,0,0,0,0,0,0,0,0,0,0,0,0,0,0,0,0,0,0,0,0,0,0,0,0,0,0,0,0,0,0,0,0,0,0,0,0,0,0,0,0,0,0,0,0,0,0,0,0,0,0,0,0,0,0,0,0,0,0,0,0,0,0,0,0,0,0,0,0,0,0,0,0,0,0,0,0,0,0,0,0,0,0,0,0,0,0,0,0,0,0,0,0,0,0,0,0,0,0,0,0,0,0,0,0,0,0,0,0,0,0,0,0,0,0,0,0,0,0,0,0,0,0,0,0,0,0,0,0],"sum_hessian":[2.0816777E3,1.8274347E3,2.5424316E2,9.881399E1,1.7286206E3,2.4994994E2,4.2932296E0,7.8539734E1,2.027425E1,1.6211493E3,1.074714E2,1.7045993E2,7.9490005E1,5.716097E1,2.137877E1,1.0405562E1,9.868688E0,1.183766E2,1.5027727E3,6.928972E1,3.8181683E1,1.3887773E2,3.1582209E1,7.216573E1,7.3242755E0,1.3517026E1,7.861744E0,7.9835925E0,2.4219697E0,4.5878882E0,5.2807994E0,1.06643875E2,1.1732729E1,1.5005415E3,2.2311664E0,6.900367E0,6.2389347E1,3.42623E1,3.919386E0,1.1796037E2,2.0917356E1,6.683135E1,5.334382E0,9.712647E1,9.517401E0,7.226373E0,4.5063553E0,1.2645061E3,2.3603534E2,3.7535067E0,3.1468601E0,8.399092E0,2.5863205E1,6.8682885E0,1.1109208E2,2.7543237E0,6.407703E1,3.4333447E1,6.279303E1,4.220075E0,5.2973256E0,4.536001E0,2.6903718E0,1.7456012E2,1.089946E3,1.6237723E2,7.365811E1,7.977644E0,1.0311444E2,2.220777E1,1.2125675E1,4.688533E1,1.59077E1,1.6104773E2,1.3512391E1,1.0800757E3,9.870294E0,1.6010588E2,2.271343E0,6.75144E1,6.143717E0,5.60592E1,4.7055237E1,1.9426311E1,2.7814584E0,4.478331E1,2.1020179E0,1.5705118E2,3.996546E0,6.633834E0,6.8785567E0,1.065267E3,1.4808698E1,1.3989578E2,2.0210108E1,5.1699657E1,4.3595443E0,3.06869E1,1.6368336E1,1.6658794E1,2.7675178E0,8.467495E0,3.6315815E1,1.2758215E2,2.9469034E1,7.172921E2,3.4797495E2,1.3798074E1,1.260977E2,4.93364E1,2.3632576E0,1.3486766E1,3.1720273E0,3.8691573E0,4.598337E0,5.952272E1,6.805943E1,2.323937E1,6.229664E0,2.6649122E0,7.146272E2,3.3936606E2,8.608869E0,1.14759865E2,1.1337838E1,4.0922234E1,8.414168E0,4.894096E0,8.59267E0,4.4762882E1,1.4759839E1,6.0788727E1,7.2707043E0,2.0957035E1,2.282335E0,6.800682E2,3.4558987E1,4.922849E0,3.344432E2,3.0507559E1,1.0414674E1,4.630868E0,3.9618022E0,4.2482006E1,2.2808745E0,1.0332941E1,4.4268985E0,3.6495937E1,2.429279E1,4.1805057E2,2.620176E2,1.0098843E1,2.4460144E1,3.3154498E2,2.898228E0,2.8138707E0,2.7693687E1,2.5524368E1,1.6957638E1,1.2681325E1,2.3814611E1,4.0823642E2,9.8141575E0,2.2232986E2,3.9687748E1,2.821115E2,4.9433475E1,3.8853802E2,1.9698383E1,2.1981691E2,2.512958E0,3.7197536E1,2.4902098E0,1.578366E2,1.24274925E2,2.2456892E1,2.6976582E1],"tree_param":{"num_deleted":"0","num_feature":"48","num_nodes":"177","size_leaf_vector":"1"}},{"base_weights":[1.0255135E-1,-6.611592E-1,1.4160185E-1,-3.1306812E-1,5.360011E-1,1.8876949E-1,-2.6316825E-1,7.159158E-1,-1.8510665E-1,2.8495118E-1,9.783079E-2,-2.058535E-1,-2.9625928E-1,2.337641E-1,5.060708E-2,-1.0802735E-1,7.0008854E-3,2.727157E-1,7.9774994E-1,7.2202615E-2,5.9381485E-1,-3.3049974E-1,-1.6112718E-1,2.452114E-1,4.8026004E-1,6.17375E-1,3.7085035E-1,-3.5314345E-1,7.924525E-2,8.5113007E-1,-5.257915E-1,-2.5610554E-1,9.090206E-2,2.6047328E-1,-4.8634684E-1,5.280622E-1,-2.7122143E-1,3.0453783E-1,2.749642E-1,6.928218E-2,9.021141E-1,1.0198058E0,1.1457016E-1,2.3542227E-1,-5.9712106E-1,-2.1642438E-1,-3.0426902E-1,2.3791876E-1,5.613099E-1,-9.075031E-1,6.1542965E-2,4.4839883E-1,3.5461485E-1,-6.8206266E-2,2.697231E-1,3.5760876E-2,1.9971496E-1,1.6435853E-1,3.35376E-1,7.6795155E-1,4.1973403E-1,-7.5343065E-2,-3.9192718E-1,2.2311713E-1,2.3429136E-1,3.8248408E-1,3.5456467E-1,-4.4403973E-1,1.5914461E-1,1.4007928E-2,1.4331955E-1,7.0746206E-2,-2.2209695E-1,-9.4498254E-2,2.5410601E-1,3.0630228E-1,3.720716E-2,-1.2566294E-1,8.508383E-2,-9.623282E-2,-2.8400433E-1,2.1187437E-1,2.0929095E-1,3.33799E-1,1.487101E-1,1.3482966E-1,-9.907196E-2,1.255937E-1,-5.500074E-1,6.314304E-2,1.3453503E-1,-2.885413E-1,4.876728E-4,3.7588552E-1,1.8354797E-1,2.5441067E-2,1.859165E-1,1.9987223E-1,-3.8730774E-2,8.96098E-2,-1.13328874E-1,-4.1377282E-1,4.2926756E-1,-5.7234776E-1,7.447126E-2,1.9236903E-3,-3.5911198E-3,1.9818588E-1,2.9455414E-1,2.1288428E-1,-1.2240041E-1,1.8529017E-1,2.4201521E-1,-2.504444E-2,3.0648488E-1,1.2127784E-2,-4.436621E-2,-2.048269E-1,-1.5294902E-2,2.33372E-2,1.4733332E-1,-3.4181944E-1,-5.848432E-2,7.5147465E-2,-2.0976935E-1,2.6314074E-1,-2.2701468E-2,2.4407439E-1,-2.7082385E-2,-5.351672E-1,6.797921E-2,1.6643088E-1,3.9626136E-1,2.8506443E-1,1.8154223E-2,2.198704E-1,1.9191846E-1,2.2830157E-1,4.3625483E-1,-7.8168504E-2,1.529435E-2,-4.4043672E-1,-5.7999942E-2,1.5945773E-1,1.13446824E-1,1.7619428E-1,8.9220725E-2,2.7572724E-1,-5.8582947E-2,2.3749463E-1,-1.6287677E-1,3.442331E-1,3.1350583E-1,1.5340629E-1,1.2750956E-1,7.2632246E-2,1.365708E-1,6.953739E-2,1.5088269E-1,1.1488573E-1,7.7028982E-3,7.898927E-3,5.1095195E-2],"categories":[],"categories_nodes":[],"categories_segments":[],"categories_sizes":[],"default_left":[0,0,0,0,0,0,0,0,0,0,0,0,0,0,0,0,0,0,0,0,0,0,0,0,0,0,0,0,0,0,0,0,0,0,0,0,0,0,0,0,0,0,0,0,0,0,0,0,0,0,0,0,0,0,0,0,0,0,0,0,0,0,0,0,0,0,0,0,0,0,0,0,0,0,0,0,0,0,0,0,0,0,0,0,0,0,0,0,0,0,0,0,0,0,0,0,0,0,0,0,0,0,0,0,0,0,0,0,0,0,0,0,0,0,0,0,0,0,0,0,0,0,0,0,0,0,0,0,0,0,0,0,0,0,0,0,0,0,0,0,0,0,0,0,0,0,0,0,0,0,0,0,0,0,0,0,0,0,0,0,0,0,0],"id":8,"left_children":[1,3,5,-1,7,9,11,13,15,17,19,21,-1,-1,-1,-1,-1,23,25,27,29,-1,31,33,35,37,-1,-1,39,41,43,45,-1,47,49,51,-1,53,-1,55,57,59,-1,-1,-1,61,-1,63,65,67,-1,69,-1,-1,-1,71,73,-1,-1,75,-1,77,79,81,-1,83,-1,-1,-1,-1,-1,85,87,-1,89,-1,-1,91,-1,-1,-1,93,-1,-1,95,97,99,101,-1,-1,-1,103,105,107,109,-1,-1,111,113,-1,115,117,119,121,123,-1,-1,125,-1,127,129,131,-1,-1,133,-1,-1,-1,-1,-1,-1,-1,-1,-1,-1,135,-1,137,139,141,-1,143,145,-1,-1,147,-1,149,151,-1,-1,-1,-1,153,-1,-1,-1,155,-1,157,-1,-1,159,161,-1,-1,-1,-1,-1,-1,-1,-1,-1],"loss_changes":[6.1496407E1,4.649065E1,3.746164E1,0E0,3.3695116E0,1.5327938E1,8.304799E0,5.6733227E-1,2.1909988E-1,5.13253E0,1.144714E1,7.481946E0,0E0,0E0,0E0,0E0,0E0,4.6449623E0,7.671623E-1,7.6659355E0,1.3202506E1,0E0,8.155733E0,8.374844E0,6.8689976E0,1.191083E0,0E0,0E0,6.961546E0,2.4900951E0,1.862935E1,4.3730736E0,0E0,4.781048E0,4.6843877E0,4.366995E0,0E0,3.1063154E0,0E0,3.6988144E0,1.6473961E-1,1.4249249E0,0E0,0E0,0E0,3.5938835E0,0E0,5.2556915E0,5.0722857E0,8.841389E0,0E0,9.839783E-1,0E0,0E0,0E0,6.1097794E0,4.925484E0,0E0,0E0,2.7966843E0,0E0,1.5233451E0,2.2610407E0,3.36792E0,0E0,6.6833873E0,0E0,0E0,0E0,0E0,0E0,6.494769E0,4.5577286E1,0E0,1.2375965E0,0E0,0E0,1.4986539E0,0E0,0E0,0E0,2.9284458E0,0E0,0E0,8.970245E-1,4.893862E0,9.6248114E-1,1.1235855E1,0E0,0E0,0E0,3.3222382E0,3.183927E-3,9.934284E0,4.981577E0,0E0,0E0,2.6379976E0,1.861279E0,0E0,8.498194E-1,2.3880792E0,9.1136837E-1,3.6258416E0,2.1978536E0,0E0,0E0,1.3360453E0,0E0,3.78018E0,7.171855E0,1.163127E0,0E0,0E0,2.1354797E0,0E0,0E0,0E0,0E0,0E0,0E0,0E0,0E0,0E0,0E0,8.3748865E-1,0E0,1.2531929E0,1.0866961E0,6.962181E0,0E0,3.6089277E-1,2.9041505E-1,0E0,0E0,1.337678E0,0E0,3.0679436E0,2.4994388E0,0E0,0E0,0E0,0E0,3.8144112E-1,0E0,0E0,0E0,1.8678856E-1,0E0,5.0466156E-1,0E0,0E0,5.75979E-1,5.828161E-1,0E0,0E0,0E0,0E0,0E0,0E0,0E0,0E0,0E0],"parents":[2147483647,0,0,1,1,2,2,4,4,5,5,6,6,7,7,8,8,9,9,10,10,11,11,17,17,18,18,19,19,20,20,22,22,23,23,24,24,25,25,28,28,29,29,30,30,31,31,33,33,34,34,35,35,37,37,39,39,40,40,41,41,45,45,47,47,48,48,49,49,51,51,55,55,56,56,59,59,61,61,62,62,63,63,65,65,71,71,72,72,74,74,77,77,81,81,84,84,85,85,86,86,87,87,91,91,92,92,93,93,94,94,97,97,98,98,100,100,101,101,102,102,103,103,104,104,107,107,109,109,110,110,111,111,114,114,125,125,127,127,128,128,129,129,131,131,132,132,135,135,137,137,138,138,143,143,147,147,149,149,152,152,153,153],"right_children":[2,4,6,-1,8,10,12,14,16,18,20,22,-1,-1,-1,-1,-1,24,26,28,30,-1,32,34,36,38,-1,-1,40,42,44,46,-1,48,50,52,-1,54,-1,56,58,60,-1,-1,-1,62,-1,64,66,68,-1,70,-1,-1,-1,72,74,-1,-1,76,-1,78,80,82,-1,84,-1,-1,-1,-1,-1,86,88,-1,90,-1,-1,92,-1,-1,-1,94,-1,-1,96,98,100,102,-1,-1,-1,104,106,108,110,-1,-1,112,114,-1,116,118,120,122,124,-1,-1,126,-1,128,130,132,-1,-1,134,-1,-1,-1,-1,-1,-1,-1,-1,-1,-1,136,-1,138,140,142,-1,144,146,-1,-1,148,-1,150,152,-1,-1,-1,-1,154,-1,-1,-1,156,-1,158,-1,-1,160,162,-1,-1,-1,-1,-1,-1,-1,-1,-1],"split_conditions":[1E0,1E0,1E0,-3.1306812E-1,1E0,1E0,1E0,1E0,1E0,1E0,1E0,1E0,-2.9625928E-1,2.337641E-1,5.060708E-2,-1.0802735E-1,7.0008854E-3,1E0,1E0,1E0,1E0,-3.3049974E-1,1E0,1E0,1E0,1E0,3.7085035E-1,-3.5314345E-1,1E0,1E0,1E0,1E0,9.090206E-2,1E0,1E0,1E0,-2.7122143E-1,1E0,2.749642E-1,1E0,1E0,1E0,1.1457016E-1,2.3542227E-1,-5.9712106E-1,1E0,-3.0426902E-1,1E0,1E0,1E0,6.1542965E-2,1E0,3.5461485E-1,-6.8206266E-2,2.697231E-1,1E0,1E0,1.6435853E-1,3.35376E-1,1E0,4.1973403E-1,1E0,1E0,1E0,2.3429136E-1,1E0,3.5456467E-1,-4.4403973E-1,1.5914461E-1,1.4007928E-2,1.4331955E-1,1E0,1E0,-9.4498254E-2,1E0,3.0630228E-1,3.720716E-2,1E0,8.508383E-2,-9.623282E-2,-2.8400433E-1,1E0,2.0929095E-1,3.33799E-1,1E0,1E0,1E0,1E0,-5.500074E-1,6.314304E-2,1.3453503E-1,1E0,1E0,1E0,1E0,2.5441067E-2,1.859165E-1,1E0,1E0,8.96098E-2,1E0,1E0,1E0,1E0,1E0,1.9236903E-3,-3.5911198E-3,1E0,2.9455414E-1,1E0,1E0,1E0,2.4201521E-1,-2.504444E-2,1E0,1.2127784E-2,-4.436621E-2,-2.048269E-1,-1.5294902E-2,2.33372E-2,1.4733332E-1,-3.4181944E-1,-5.848432E-2,7.5147465E-2,-2.0976935E-1,1E0,-2.2701468E-2,1E0,1E0,1E0,6.797921E-2,1E0,1E0,2.8506443E-1,1.8154223E-2,1E0,1.9191846E-1,1E0,1E0,-7.8168504E-2,1.529435E-2,-4.4043672E-1,-5.7999942E-2,1E0,1.13446824E-1,1.7619428E-1,8.9220725E-2,1E0,-5.8582947E-2,1E0,-1.6287677E-1,3.442331E-1,1E0,1E0,1.2750956E-1,7.2632246E-2,1.365708E-1,6.953739E-2,1.5088269E-1,1.1488573E-1,7.7028982E-3,7.898927E-3,5.1095195E-2],"split_indices":[23,42,44,0,1,30,3,0,30,39,41,19,0,0,0,0,0,3,6,37,5,0,4,41,28,1,0,0,39,1,19,47,0,45,1,41,0,2,0,3,0,21,0,0,0,1,0,8,21,4,0,19,0,0,0,21,19,0,0,4,0,2,21,12,0,19,0,0,0,0,0,5,1,0,21,0,0,5,0,0,0,19,0,0,5,0,40,5,0,0,0,0,21,21,21,0,0,7,47,0,19,4,19,6,21,0,0,1,0,4,1,2,0,0,40,0,0,0,0,0,0,0,0,0,0,28,0,2,29,5,0,11,19,0,0,4,0,42,40,0,0,0,0,10,0,0,0,6,0,11,0,0,28,19,0,0,0,0,0,0,0,0,0],"split_type":[0,0,0,0,0,0,0,0,0,0,0,0,0,0,0,0,0,0,0,0,0,0,0,0,0,0,0,0,0,0,0,0,0,0,0,0,0,0,0,0,0,0,0,0,0,0,0,0,0,0,0,0,0,0,0,0,0,0,0,0,0,0,0,0,0,0,0,0,0,0,0,0,0,0,0,0,0,0,0,0,0,0,0,0,0,0,0,0,0,0,0,0,0,0,0,0,0,0,0,0,0,0,0,0,0,0,0,0,0,0,0,0,0,0,0,0,0,0,0,0,0,0,0,0,0,0,0,0,0,0,0,0,0,0,0,0,0,0,0,0,0,0,0,0,0,0,0,0,0,0,0,0,0,0,0,0,0,0,0,0,0,0,0],"sum_hessian":[2.057888E3,9.9331474E1,1.9585565E3,7.538123E1,2.3950235E1,1.7546246E3,2.0393187E2,1.9173653E1,4.7765822E0,8.516938E2,9.029309E2,1.9016905E2,1.3762817E1,1.6805786E1,2.3678668E0,2.20119E0,2.5753925E0,8.3334186E2,1.8351908E1,8.5965686E2,4.3274055E1,7.91953E0,1.8224951E2,7.377543E2,9.558758E1,1.4708635E1,3.643272E0,3.88744E0,8.557694E2,3.5382107E1,7.8919506E0,1.5166223E2,3.0587288E1,7.233085E2,1.4445837E1,9.299493E1,2.5926526E0,8.176551E0,6.5320845E0,8.4660315E2,9.166234E0,2.5163223E1,1.02188835E1,4.4100466E0,3.4819038E0,1.4534041E2,6.3218203E0,6.7452814E2,4.8780304E1,8.7836895E0,5.662148E0,8.439969E1,8.595241E0,4.6416187E0,3.5349317E0,6.745242E2,1.7207898E2,4.8096747E0,4.3565593E0,1.6939966E1,8.223258E0,8.136383E1,6.397658E1,6.580042E2,1.6523956E1,3.9122887E1,9.657418E0,6.261105E0,2.5225844E0,5.9199347E0,7.847975E1,5.945792E2,7.9944984E1,1.5988313E1,1.5609067E2,1.1740496E1,5.19947E0,7.1930275E1,9.433554E0,5.8102726E1,5.8738556E0,6.44188E2,1.3816213E1,8.576167E0,3.054672E1,4.318283E2,1.627509E2,6.65141E1,1.3430886E1,1.2917464E2,2.6916027E1,3.0833094E1,4.109718E1,9.306532E1,5.511227E2,2.7936377E1,2.610344E0,3.1400272E2,1.1782557E2,4.941126E0,1.5780977E2,2.3828625E1,4.2685474E1,1.6980738E1,1.3852354E1,2.8180702E1,1.2916478E1,7.298838E1,2.0076948E1,5.0317883E2,4.794383E1,3.079092E2,6.0935054E0,1.0497564E2,1.2849933E1,2.8929443E1,1.2888033E2,1.3176904E1,1.0651721E1,6.7246966E0,3.5960777E1,5.9786444E0,1.1002094E1,1.1835888E1,2.0164669E0,5.9027157E1,1.3961221E1,4.4528497E2,5.7893856E1,2.172078E1,2.622305E1,2.8428506E2,2.3624147E1,2.7610009E0,1.0088932E1,5.4364468E1,4.66269E0,4.1353305E2,3.1751926E1,1.3920725E1,4.3973133E1,4.940906E0,1.6779873E1,2.7691794E2,7.3671436E0,6.3709135E0,1.7253233E1,4.8213333E1,6.151134E0,4.0934567E2,4.187386E0,3.4448886E0,2.8307037E1,2.7229108E2,4.6268497E0,4.258619E1,5.627143E0,4.0256937E2,6.776295E0,2.2538528E1,5.7685094E0,3.228029E1,2.4001079E2],"tree_param":{"num_deleted":"0","num_feature":"48","num_nodes":"163","size_leaf_vector":"1"}},{"base_weights":[4.3318406E-2,-4.05071E-1,6.3454814E-2,-7.655609E-1,4.9235904E-1,2.818874E-2,2.9011077E-1,-3.035283E-1,-1.7513706E-1,7.049932E-1,8.405114E-2,7.063791E-2,-2.8479385E-1,1.0131826E0,1.8086517E-1,-2.6821148E-1,7.638794E-2,2.3236646E-1,9.527273E-2,-1.14240624E-1,1.385384E-1,1.544961E-1,-1.710402E-2,-1.5965258E-1,-3.3783805E-1,1.10406816E-1,3.546709E-1,9.379676E-2,1.6840944E0,1.79926E-1,-2.7616042E-1,-4.36534E-3,-4.247926E-1,-4.6280283E-2,-3.075367E-1,2.6188646E-2,2.3863462E-1,2.515308E-1,9.428014E-1,4.3120155E-1,1.4468887E-1,-4.143439E-1,2.73371E-1,6.5385005E-3,-4.4565937E-1,3.3898395E-2,-3.6983737E-1,1.08848676E-1,-3.999614E-2,3.3800012E-1,-1.8389286E-1,6.333618E-1,-8.164527E-2,1.2988213E-1,7.1017116E-1,-2.9107416E-1,-1.8480182E-1,-2.0496026E-1,3.523853E-2,-2.6859364E-1,6.988537E-2,-7.8431524E-2,3.653168E-2,6.713066E-3,1.11509435E-1,4.8334166E-1,3.3738843E-1,1.16319634E-1,2.3290187E-1,3.015822E-1,3.4435755E-1,2.5386098E-1,-1.3291056E-1,9.55438E-2,-6.58867E-1,7.396885E-1,2.5999004E-2,5.16945E-1,3.7416648E-2,-2.995246E-2,5.6707215E-2,2.090185E-1,2.981031E-1,1.0434966E-1,1.8249494E-1,-6.946859E-2,2.1843551E-1,-1.18001305E-1,6.4323545E-1,-3.536448E-1,5.3798735E-1,1.8178377E-2,2.0424564E-1,-2.3352847E-1,3.3717322E-1,-1.0014116E-1,5.797569E-2,7.328871E-2,1.5313148E-1,9.99981E-2,2.1126924E-1,-2.0482409E-1,2.6092967E-1,2.1122871E-1,7.605479E-2,1.0468636E-3,3.0057263E-1,-1.8041615E-1,5.5810837E-3,-3.7771504E-2,1.1478194E-1,8.5902765E-2,2.6535547E-1,-2.8216046E-1,1.3108367E-1,2.41433E-2,-1.7403458E-1,-6.986707E-2,8.231339E-1,-3.7923637E-1,-1.886216E-2,7.760065E-2,1.6742748E-1,6.77221E-2,1.3660316E-1,-4.2544505E-1,4.0812824E-2,3.7902933E-2,-9.180379E-2,-9.435425E-2,9.182519E-2,-3.7510967E-1,7.597326E-2,1.5059598E-1,3.729484E-1,-2.90919E-1,-2.799453E-2,-5.349053E-1,8.605375E-2,-6.867846E-3,1.0357867E-1,-1.4725108E-1,-4.8293676E-2,2.8760772E-2,1.0112616E-1,-4.2473274E-1,1.3964145E-2,-3.5438985E-1,7.409187E-2,3.1776044E-1,7.393854E-2,-1.3851766E-1,2.1581191E-1,1.9482465E-3,7.0801E-2,1.4780327E-2,3.388928E-1,1.879336E-2,7.6745525E-2,-4.8761278E-1,3.1665552E-2,-4.966441E-3,4.1066933E-2,3.482482E-2,-4.6480507E-2],"categories":[],"categories_nodes":[],"categories_segments":[],"categories_sizes":[],"default_left":[0,0,0,0,0,0,0,0,0,0,0,0,0,0,0,0,0,0,0,0,0,0,0,0,0,0,0,0,0,0,0,0,0,0,0,0,0,0,0,0,0,0,0,0,0,0,0,0,0,0,0,0,0,0,0,0,0,0,0,0,0,0,0,0,0,0,0,0,0,0,0,0,0,0,0,0,0,0,0,0,0,0,0,0,0,0,0,0,0,0,0,0,0,0,0,0,0,0,0,0,0,0,0,0,0,0,0,0,0,0,0,0,0,0,0,0,0,0,0,0,0,0,0,0,0,0,0,0,0,0,0,0,0,0,0,0,0,0,0,0,0,0,0,0,0,0,0,0,0,0,0,0,0,0,0,0,0,0,0,0,0,0,0,0,0],"id":9,"left_children":[1,3,5,7,9,11,13,-1,15,17,19,21,23,25,27,-1,-1,-1,-1,-1,-1,29,31,33,-1,-1,-1,35,37,39,41,43,-1,45,-1,47,49,-1,-1,51,53,55,-1,57,-1,59,-1,-1,61,63,-1,65,-1,67,69,71,-1,73,75,-1,77,79,-1,-1,-1,81,-1,83,-1,85,-1,-1,-1,87,-1,89,91,93,95,-1,-1,97,-1,99,-1,-1,-1,101,103,-1,-1,105,-1,-1,-1,107,-1,109,-1,111,-1,113,-1,-1,-1,115,117,119,-1,-1,-1,121,123,125,-1,127,129,131,133,135,-1,137,139,-1,-1,141,-1,143,-1,-1,-1,145,-1,-1,-1,-1,-1,147,149,151,-1,-1,-1,153,-1,-1,-1,-1,-1,155,157,159,-1,161,163,-1,-1,-1,-1,-1,-1,-1,-1,-1,-1],"loss_changes":[1.754586E1,2.7400806E1,1.48425865E1,8.5424E0,2.0719137E0,2.139522E1,1.9568611E1,0E0,6.0551023E0,1.8536615E-1,1.8512355E0,1.0432562E1,2.0071335E1,3.1207733E0,2.8432943E1,0E0,0E0,0E0,0E0,0E0,0E0,7.9884567E0,1.235393E1,1.649611E1,0E0,0E0,0E0,2.0260677E0,1.2044243E1,6.003521E0,7.074028E0,1.1127024E1,0E0,1.4323503E1,0E0,3.192135E0,5.7858005E0,0E0,0E0,1.2080953E1,4.95109E0,7.465768E-1,0E0,4.1610994E0,0E0,4.7974176E0,0E0,0E0,7.5620985E-1,6.264434E-1,0E0,4.2729893E0,0E0,5.0666933E0,2.3623548E0,4.69742E0,0E0,4.9225227E1,3.9082572E0,0E0,1.9728006E0,5.779876E-1,0E0,0E0,0E0,7.046788E0,0E0,3.336234E0,0E0,2.2583408E0,0E0,0E0,0E0,8.512086E0,0E0,1.7830795E1,3.043068E0,8.119871E0,2.785254E0,0E0,0E0,1.3932292E0,0E0,1.4038763E0,0E0,0E0,0E0,4.7012796E0,3.051052E-1,0E0,0E0,2.8570294E0,0E0,0E0,0E0,6.629098E-1,0E0,1.6057273E0,0E0,1.2868013E0,0E0,2.5696275E0,0E0,0E0,0E0,2.2599971E0,6.596073E0,9.4312036E-1,0E0,0E0,0E0,3.384292E-1,2.2577167E-1,2.730175E0,0E0,2.254441E0,4.4894485E0,2.1353464E0,1.2765617E0,2.4714875E0,0E0,2.4955153E0,1.4630218E0,0E0,0E0,4.9960804E-1,0E0,1.2891047E0,0E0,0E0,0E0,4.910701E0,0E0,0E0,0E0,0E0,0E0,3.6166906E0,1.2889051E0,2.468794E0,0E0,0E0,0E0,5.2047443E-1,0E0,0E0,0E0,0E0,0E0,4.942086E0,8.992832E-1,8.088291E0,0E0,7.0895E-1,1.8561475E0,0E0,0E0,0E0,0E0,0E0,0E0,0E0,0E0,0E0,0E0],"parents":[2147483647,0,0,1,1,2,2,3,3,4,4,5,5,6,6,8,8,9,9,10,10,11,11,12,12,13,13,14,14,21,21,22,22,23,23,27,27,28,28,29,29,30,30,31,31,33,33,35,35,36,36,39,39,40,40,41,41,43,43,45,45,48,48,49,49,51,51,53,53,54,54,55,55,57,57,58,58,60,60,61,61,65,65,67,67,69,69,73,73,75,75,76,76,77,77,78,78,81,81,83,83,87,87,88,88,91,91,95,95,97,97,99,99,101,101,105,105,106,106,107,107,111,111,112,112,113,113,115,115,116,116,117,117,118,118,119,119,121,121,122,122,125,125,127,127,131,131,137,137,138,138,139,139,143,143,149,149,150,150,151,151,153,153,154,154],"right_children":[2,4,6,8,10,12,14,-1,16,18,20,22,24,26,28,-1,-1,-1,-1,-1,-1,30,32,34,-1,-1,-1,36,38,40,42,44,-1,46,-1,48,50,-1,-1,52,54,56,-1,58,-1,60,-1,-1,62,64,-1,66,-1,68,70,72,-1,74,76,-1,78,80,-1,-1,-1,82,-1,84,-1,86,-1,-1,-1,88,-1,90,92,94,96,-1,-1,98,-1,100,-1,-1,-1,102,104,-1,-1,106,-1,-1,-1,108,-1,110,-1,112,-1,114,-1,-1,-1,116,118,120,-1,-1,-1,122,124,126,-1,128,130,132,134,136,-1,138,140,-1,-1,142,-1,144,-1,-1,-1,146,-1,-1,-1,-1,-1,148,150,152,-1,-1,-1,154,-1,-1,-1,-1,-1,156,158,160,-1,162,164,-1,-1,-1,-1,-1,-1,-1,-1,-1,-1],"split_conditions":[1E0,1E0,1E0,1E0,1E0,1E0,1E0,-3.035283E-1,1E0,1E0,1E0,1E0,1E0,1E0,1E0,-2.6821148E-1,7.638794E-2,2.3236646E-1,9.527273E-2,-1.14240624E-1,1.385384E-1,1E0,1E0,1E0,-3.3783805E-1,1.10406816E-1,3.546709E-1,1E0,1E0,1E0,1E0,1E0,-4.247926E-1,1E0,-3.075367E-1,1E0,1E0,2.515308E-1,9.428014E-1,1E0,1E0,1E0,2.73371E-1,1E0,-4.4565937E-1,1E0,-3.6983737E-1,1.08848676E-1,1E0,1E0,-1.8389286E-1,1E0,-8.164527E-2,1E0,1E0,1E0,-1.8480182E-1,1E0,1E0,-2.6859364E-1,1E0,1E0,3.653168E-2,6.713066E-3,1.11509435E-1,1E0,3.3738843E-1,1E0,2.3290187E-1,1E0,3.4435755E-1,2.5386098E-1,-1.3291056E-1,1E0,-6.58867E-1,1E0,1E0,1E0,1E0,-2.995246E-2,5.6707215E-2,1E0,2.981031E-1,1E0,1.8249494E-1,-6.946859E-2,2.1843551E-1,1E0,1E0,-3.536448E-1,5.3798735E-1,1E0,2.0424564E-1,-2.3352847E-1,3.3717322E-1,1E0,5.797569E-2,1E0,1.5313148E-1,1E0,2.1126924E-1,1E0,2.6092967E-1,2.1122871E-1,7.605479E-2,1E0,1E0,1E0,5.5810837E-3,-3.7771504E-2,1.1478194E-1,1E0,1E0,1E0,1.3108367E-1,1E0,1E0,1E0,1E0,1E0,-1.886216E-2,1E0,1E0,6.77221E-2,1.3660316E-1,1E0,4.0812824E-2,1E0,-9.180379E-2,-9.435425E-2,9.182519E-2,1E0,7.597326E-2,1.5059598E-1,3.729484E-1,-2.90919E-1,-2.799453E-2,1E0,1E0,1E0,1.0357867E-1,-1.4725108E-1,-4.8293676E-2,1E0,1.0112616E-1,-4.2473274E-1,1.3964145E-2,-3.5438985E-1,7.409187E-2,1E0,1E0,1E0,2.1581191E-1,1E0,1E0,1.4780327E-2,3.388928E-1,1.879336E-2,7.6745525E-2,-4.8761278E-1,3.1665552E-2,-4.966441E-3,4.1066933E-2,3.482482E-2,-4.6480507E-2],"split_indices":[23,42,3,1,30,44,40,0,30,5,1,30,21,30,27,0,0,0,0,0,0,6,11,0,0,0,0,29,21,19,41,39,0,2,0,19,21,0,0,5,42,28,0,19,0,40,0,0,21,19,0,21,0,8,2,19,0,1,37,0,19,26,0,0,0,35,0,13,0,1,0,0,0,0,0,1,7,4,1,0,0,4,0,15,0,0,0,10,47,0,0,41,0,0,0,5,0,0,0,26,0,41,0,0,0,4,4,4,0,0,0,28,21,4,0,6,21,1,21,6,0,29,4,0,0,21,0,47,0,0,0,5,0,0,0,0,0,5,40,0,0,0,0,5,0,0,0,0,0,4,2,5,0,21,21,0,0,0,0,0,0,0,0,0,0],"split_type":[0,0,0,0,0,0,0,0,0,0,0,0,0,0,0,0,0,0,0,0,0,0,0,0,0,0,0,0,0,0,0,0,0,0,0,0,0,0,0,0,0,0,0,0,0,0,0,0,0,0,0,0,0,0,0,0,0,0,0,0,0,0,0,0,0,0,0,0,0,0,0,0,0,0,0,0,0,0,0,0,0,0,0,0,0,0,0,0,0,0,0,0,0,0,0,0,0,0,0,0,0,0,0,0,0,0,0,0,0,0,0,0,0,0,0,0,0,0,0,0,0,0,0,0,0,0,0,0,0,0,0,0,0,0,0,0,0,0,0,0,0,0,0,0,0,0,0,0,0,0,0,0,0,0,0,0,0,0,0,0,0,0,0,0,0],"sum_hessian":[1.9394417E3,8.253218E1,1.8569094E3,5.8985252E1,2.354693E1,1.6078618E3,2.4904764E2,4.1123573E1,1.7861677E1,1.5005768E1,8.5411625E0,1.4165168E3,1.9134491E2,3.160263E1,2.17445E2,6.2786145E0,1.1583063E1,1.18744135E1,3.1313546E0,3.8254485E0,4.715714E0,7.238991E2,6.9261774E2,1.6760484E2,2.3740068E1,7.221224E0,2.4381407E1,2.0654417E2,1.0900829E1,6.840866E2,3.981252E1,6.873615E2,5.256268E0,1.4912383E2,1.8481016E1,1.4161926E2,6.492491E1,7.897071E0,3.0037582E0,8.275123E1,6.013354E2,3.6245495E1,3.567025E0,6.8332666E2,4.0348334E0,1.4059456E2,8.529271E0,2.2531857E1,1.1908741E2,5.8681133E1,6.243779E0,6.435389E1,1.8397335E1,5.8718994E2,1.4145473E1,2.4011435E1,1.223406E1,8.0913124E1,6.024135E2,4.3516984E0,1.3624286E2,9.664111E1,2.2446297E1,5.8213186E0,5.2859814E1,5.0818947E1,1.3534942E1,5.7627966E2,1.0910245E1,8.189481E0,5.9559913E0,2.29171E0,2.1719725E1,7.1130714E1,9.78241E0,6.7754483E0,5.9563806E2,8.214645E0,1.2802821E2,9.0058556E1,6.5825524E0,3.396899E1,1.6849958E1,5.6377545E2,1.250422E1,3.8430338E0,4.3464475E0,5.1741314E1,1.9389404E1,2.3597455E0,4.415703E0,5.8962384E2,6.0142198E0,2.5308557E0,5.68379E0,6.819189E1,5.9836327E1,2.427918E1,9.689809E0,5.6087354E2,2.9018948E0,4.8289406E1,3.451906E0,1.6072744E1,3.3166585E0,5.568464E2,3.2777508E1,4.0376686E1,2.78152E1,1.5129245E1,9.149936E0,5.182192E2,4.265436E1,4.359619E1,4.6932144E0,4.927109E2,6.413545E1,1.9687492E1,1.3090014E1,1.417448E1,2.6202206E1,4.72095E2,4.61242E1,3.7105534E1,5.5488257E0,3.24581E1,1.1138094E1,4.7384793E2,1.886297E1,4.9884495E1,1.4250956E1,1.0040922E1,9.646571E0,8.662167E0,4.427848E0,3.8440435E0,1.0330437E1,5.578813E0,4.6651617E2,2.3779428E1,2.234477E1,2.5337254E1,7.120845E0,4.6086154E2,1.2986396E1,2.2154508E0,7.8254714E0,2.7743526E0,2.8044605E0,2.1927055E1,4.4458914E2,2.0815374E1,2.9640543E0,2.8203247E2,1.7882909E2,1.727487E1,4.6521854E0,4.1986182E2,2.4727324E1,2.1370575E0,1.8678318E1,2.4879523E2,3.323724E1,1.4935486E2,2.9474222E1],"tree_param":{"num_deleted":"0","num_feature":"48","num_nodes":"165","size_leaf_vector":"1"}},{"base_weights":[6.557348E-2,-5.0806457E-1,8.704611E-2,-3.048965E-1,5.172013E-1,6.20438E-2,5.1938915E-1,6.872527E-1,-1.1761496E-1,6.524858E-2,-5.024889E-1,3.074065E-1,7.9234976E-1,7.387345E-1,8.678745E-2,6.899816E-2,-4.0977943E-1,6.2153805E-2,3.1074598E-1,3.6659405E-1,6.8262386E-1,5.2721345E-1,2.7755907E-1,5.673483E-2,5.0223756E-1,2.0776264E-1,-9.192538E-2,3.261546E-1,1.6206384E-1,1.7978005E-1,5.438081E-2,4.31212E-2,4.062475E-1,-4.4073895E-1,6.535132E-1,-4.651013E-1,9.480226E-2,-1.4247178E-1,7.358551E-2,1.6122213E-1,4.1396484E-1,9.09423E-1,-7.3027916E-2,-4.0748796E-1,-7.531668E-2,-9.837529E-2,-3.9779025E-1,2.4583296E-1,4.83512E-2,8.99987E-2,2.969273E-1,7.0601445E-1,5.3899497E-1,-3.0537066E-1,-6.675718E-2,-6.6355735E-2,9.1129214E-1,3.8183186E-2,6.029384E-1,-1.5297316E-1,2.9390785E-1,5.6045234E-1,1.3872437E-1,-1.1050731E-1,2.349596E-1,2.8773958E-2,-6.9991577E-1,4.013598E-1,1.3911568E-1,9.186608E-3,2.5438792E-1,4.1699663E-1,3.162542E-1,-3.2407814E-1,2.6481593E-1,1.4484417E-1,2.5032863E-1,-5.1079858E-2,-6.857163E-1,-6.776808E-2,2.8574654E-1,1.8096702E-1,-1.2315811E0,7.270867E-2,-1.1204943E-1,5.476166E-1,4.9550165E-3,9.495172E-2,4.7229877E-1,-6.369305E-2,2.1585073E-1,3.140899E-2,-1.13871954E-1,-1.337352E-2,5.5676118E-2,2.1738866E-2,-4.088071E-1,-2.8670147E-1,-7.6362E-2,-4.5885447E-1,6.7563154E-2,-5.122633E-1,2.7015617E-1,-4.1000977E-1,-1.9816919E-1,-3.0474997E-1,3.9084554E-1,1.2037767E-2,-2.4368975E-1,3.213613E-2,8.993679E-2,1.0510798E-1,1.00049E0,-3.7301564E-1,5.48429E-2,-1.421489E-1,6.909844E-2,-2.7089074E-1,1.6455634E-1,4.3047535E-1,-1.9193442E-1,4.6247344E-2,-3.7806135E-2,-6.3964486E-1,3.6312383E-1,1.0554821E-1,1.3019055E-3,1.8013057E-1,4.04254E-1,4.504132E-1,1.6867584E-2,3.8200215E-1,2.693E-1,3.671466E-2,2.3987475E-1,1.186843E-2,-4.7906247E-1,-8.6630213E-1,2.6682666E-1,8.1246726E-2,2.3963492E-1,1.929628E-2,-4.9284577E-2,8.7926425E-2,1.5777838E-1,1.8204292E-4,7.5170994E-2,8.177613E-3,-4.2233393E-1,-1.7607802E-1,2.6435104E-1,-1.6276342E-1,-4.6184656E-1],"categories":[],"categories_nodes":[],"categories_segments":[],"categories_sizes":[],"default_left":[0,0,0,0,0,0,0,0,0,0,0,0,0,0,0,0,0,0,0,0,0,0,0,0,0,0,0,0,0,0,0,0,0,0,0,0,0,0,0,0,0,0,0,0,0,0,0,0,0,0,0,0,0,0,0,0,0,0,0,0,0,0,0,0,0,0,0,0,0,0,0,0,0,0,0,0,0,0,0,0,0,0,0,0,0,0,0,0,0,0,0,0,0,0,0,0,0,0,0,0,0,0,0,0,0,0,0,0,0,0,0,0,0,0,0,0,0,0,0,0,0,0,0,0,0,0,0,0,0,0,0,0,0,0,0,0,0,0,0,0,0,0,0,0,0,0,0,0,0,0,0,0,0],"id":10,"left_children":[1,3,5,-1,7,9,11,13,-1,15,-1,17,19,21,-1,23,-1,25,-1,-1,27,29,-1,31,33,-1,35,-1,-1,-1,-1,37,39,-1,41,43,-1,45,47,49,-1,51,-1,-1,-1,53,-1,55,57,59,-1,61,-1,-1,63,65,67,69,71,73,75,-1,-1,77,79,81,-1,-1,83,85,87,89,-1,91,-1,93,-1,95,97,99,-1,101,103,-1,-1,105,107,109,111,-1,-1,-1,-1,-1,-1,113,115,-1,-1,117,-1,-1,119,-1,-1,-1,-1,121,123,125,-1,-1,127,-1,129,-1,-1,-1,-1,131,-1,133,135,137,-1,-1,-1,-1,-1,139,141,143,-1,145,-1,147,149,151,-1,-1,-1,-1,-1,-1,-1,-1,-1,-1,-1,-1,-1,-1,-1],"loss_changes":[2.3188526E1,3.593061E1,1.9555065E1,0E0,3.8536892E0,9.651241E0,5.480522E0,1.9383335E-1,0E0,9.280919E0,0E0,1.0174854E1,1.1745052E0,1.8152523E-1,0E0,9.048115E0,0E0,4.331808E0,0E0,0E0,1.4986687E0,1.4750004E-1,0E0,7.892841E0,1.4946436E1,0E0,5.6569138E0,0E0,0E0,0E0,0E0,9.064078E0,1.4618242E1,0E0,1.0378134E1,3.3502111E0,0E0,1.1670477E1,5.969656E0,2.910625E0,0E0,4.9826164E0,0E0,0E0,0E0,6.3015356E0,0E0,3.6541477E1,6.7526264E0,2.418572E0,0E0,7.579669E0,0E0,0E0,2.835857E0,2.6041822E1,1.8306534E1,7.4015408E0,1.3698668E0,4.2765837E0,2.005491E0,0E0,0E0,6.3432374E0,5.9896827E0,2.2587887E1,0E0,0E0,1.2069414E0,2.3722405E0,4.806035E0,3.3750947E0,0E0,5.169935E-1,0E0,1.772584E-1,0E0,4.4424343E0,1.7811298E0,2.4083972E0,0E0,1.8130926E1,7.634354E-2,0E0,0E0,1.0909848E1,1.8261033E0,1.043927E0,3.432826E0,0E0,0E0,0E0,0E0,0E0,0E0,6.0304265E0,1.3075247E0,0E0,0E0,4.4973583E0,0E0,0E0,1.5014782E1,0E0,0E0,0E0,0E0,1.7197297E0,1.7309977E1,5.652784E-1,0E0,0E0,6.456413E-1,0E0,2.0908115E0,0E0,0E0,0E0,0E0,1.6159973E0,0E0,4.2644787E0,9.006009E0,8.820535E0,0E0,0E0,0E0,0E0,0E0,5.46757E-1,1.1151123E0,8.710251E-1,0E0,4.567286E0,0E0,8.123327E0,6.616622E0,3.6840296E0,0E0,0E0,0E0,0E0,0E0,0E0,0E0,0E0,0E0,0E0,0E0,0E0,0E0,0E0,0E0],"parents":[2147483647,0,0,1,1,2,2,4,4,5,5,6,6,7,7,9,9,11,11,12,12,13,13,15,15,17,17,20,20,21,21,23,23,24,24,26,26,31,31,32,32,34,34,35,35,37,37,38,38,39,39,41,41,45,45,47,47,48,48,49,49,51,51,54,54,55,55,56,56,57,57,58,58,59,59,60,60,63,63,64,64,65,65,68,68,69,69,70,70,71,71,73,73,75,75,77,77,78,78,79,79,81,81,82,82,85,85,86,86,87,87,88,88,95,95,96,96,99,99,102,102,107,107,108,108,109,109,112,112,114,114,119,119,121,121,122,122,123,123,129,129,130,130,131,131,133,133,135,135,136,136,137,137],"right_children":[2,4,6,-1,8,10,12,14,-1,16,-1,18,20,22,-1,24,-1,26,-1,-1,28,30,-1,32,34,-1,36,-1,-1,-1,-1,38,40,-1,42,44,-1,46,48,50,-1,52,-1,-1,-1,54,-1,56,58,60,-1,62,-1,-1,64,66,68,70,72,74,76,-1,-1,78,80,82,-1,-1,84,86,88,90,-1,92,-1,94,-1,96,98,100,-1,102,104,-1,-1,106,108,110,112,-1,-1,-1,-1,-1,-1,114,116,-1,-1,118,-1,-1,120,-1,-1,-1,-1,122,124,126,-1,-1,128,-1,130,-1,-1,-1,-1,132,-1,134,136,138,-1,-1,-1,-1,-1,140,142,144,-1,146,-1,148,150,152,-1,-1,-1,-1,-1,-1,-1,-1,-1,-1,-1,-1,-1,-1,-1],"split_conditions":[1E0,1E0,1E0,