{"learner":{"attributes":{"scikit_learn":"{\"_estimator_type\": \"classifier\"}"},"feature_names":[],"feature_types":[],"gradient_booster":{"model":{"gbtree_model_param":{"num_parallel_tree":"1","num_trees":"100"},"iteration_indptr":[0,1,2,3,4,5,6,7,8,9,10,11,12,13,14,15,16,17,18,19,20,21,22,23,24,25,26,27,28,29,30,31,32,33,34,35,36,37,38,39,40,41,42,43,44,45,46,47,48,49,50,51,52,53,54,55,56,57,58,59,60,61,62,63,64,65,66,67,68,69,70,71,72,73,74,75,76,77,78,79,80,81,82,83,84,85,86,87,88,89,90,91,92,93,94,95,96,97,98,99,100],"tree_info":[0,0,0,0,0,0,0,0,0,0,0,0,0,0,0,0,0,0,0,0,0,0,0,0,0,0,0,0,0,0,0,0,0,0,0,0,0,0,0,0,0,0,0,0,0,0,0,0,0,0,0,0,0,0,0,0,0,0,0,0,0,0,0,0,0,0,0,0,0,0,0,0,0,0,0,0,0,0,0,0,0,0,0,0,0,0,0,0,0,0,0,0,0,0,0,0,0,0,0,0],"trees":[{"base_weights":[-0E0,3.7460348E-1,-1.6087784E0,-1.446724E0,7.410974E-1,-1.7228489E0,-1.1946704E0,-9.9768E-1,1.7808534E0,-8.277296E-1,7.911499E-1,-9.318728E-1,-1.4757198E0,-9.815764E-1,-9.625397E-1,1.8502272E0,4.9886823E-1,-6.408747E-1,-7.6657706E-1,1.0475279E0,5.1053995E-1,6.661638E-1,-1.5144167E0,-8.1725866E-1,-4.1474292E-1,-0E0,1.8760778E0,9.219826E-1,-2.0038815E-1,-3.957396E-1,-1.2306045E0,1.0626343E0,-7.4527293E-1,1.454647E-1,7.405636E-1,-1.4034524E0,-9.6784973E-1,-8.873908E-1,-2.0291452E-1,9.5502496E-1,3.6310726E-1,-0E0,6.185242E-1,-9.2579794E-1,9.617336E-1,-7.0359176E-1,1.6623549E-1,1.071872E0,-7.246958E-1,4.533196E-1,-1.636832E-1,9.7051984E-1,6.8013E-1,-1.1753278E0,-9.131761E-1,-7.320325E-3,-8.505825E-1,-7.251886E-1,-6.987115E-1,1.4564217E0,-1.5494084E-1,9.3752784E-1,1.1889216E0,-1.8568173E-1,8.7443864E-1,-6.921952E-1,2.981786E-1,1.9115518E-1,7.558626E-1,-7.629751E-1,-9.663014E-1,7.4946123E-1,-1.3632531E-1,-1.0637132E0,-4.4784555E-1,8.254967E-1,1.7597601E-1,-4.7419503E-1,4.5413396E-1,9.992729E-1,-4.6279913E-1,1.2763203E0,8.225283E-1,8.644041E-1,-7.696723E-1,9.0564394E-1,7.902237E-1,-9.950978E-1,1.21640325E-1,9.467447E-1,4.984046E-3,7.3090607E-1,-1.0180249E0,9.312553E-1,4.306859E-1,-2.2934124E-1,-1.2723823E0,8.167953E-2,-6.5430236E-1,-7.1488E-1,-0E0,-1.2242743E-1,-8.3043605E-1,9.572255E-1,9.585548E-1,-1.2605056E0,5.7632625E-1,9.618697E-1,1.2410378E0,8.864684E-1,-3.2675484E-1,1.0463532E0,-6.254853E-1,-8.1015337E-1,-1.7984205E-1,8.584052E-3,1.0419047E0,-6.2738085E-1,-2.1663855E-1,1.8507396E-1,-9.1438346E-2,2.2327691E-1,-1.6678891E0,3.3420703E-1,9.3997324E-1,-1.2069312E0,-9.5823355E-2,9.3877363E-1,8.867195E-1,-9.6895254E-1,5.0233096E-1,8.884896E-3,-8.2914466E-1,-7.663896E-1,-9.5040274E-1,-6.187361E-2,7.385964E-1,-4.450627E-1,4.995689E-1,3.841677E-1,-4.003882E-1,-0E0,-4.549572E-1,-5.157201E-1,-0E0,4.4471028E-1,7.577877E-1,-7.180103E-1,-5.1746384E-4,3.2255706E-1,6.4569163E-1,4.8352018E-1,1.9937395E-1,-3.9183882E-1,-0E0,5.993678E-1,-5.389095E-1,9.1719717E-1,-5.748239E-1,-2.0333213E-1,5.587193E-1,9.579921E-1,3.746301E-1,-6.04538E-2,-2.9461238E-1,9.740934E-2,-0E0,2.6545325E-1,-5.376601E-1,-9.132073E-2,-8.7753046E-1,-1.5268361E-2,5.223129E-1,-7.070454E-1,-1.6724169E-1,8.45666E-2,4.804042E-1,-6.005953E-1,-0E0,2.052892E-1,7.419533E-1,1.751265E-1,-7.2279745E-1,-1.954185E-1,-8.6725634E-1,6.685373E-2,-4.8776016E-1],"categories":[],"categories_nodes":[],"categories_segments":[],"categories_sizes":[],"default_left":[0,0,0,0,0,0,0,0,0,0,0,0,0,0,0,0,0,0,0,0,0,0,0,0,0,0,0,0,0,0,0,0,0,0,0,0,0,0,0,0,0,0,0,0,0,0,0,0,0,0,0,0,0,0,0,0,0,0,0,0,0,0,0,0,0,0,0,0,0,0,0,0,0,0,0,0,0,0,0,0,0,0,0,0,0,0,0,0,0,0,0,0,0,0,0,0,0,0,0,0,0,0,0,0,0,0,0,0,0,0,0,0,0,0,0,0,0,0,0,0,0,0,0,0,0,0,0,0,0,0,0,0,0,0,0,0,0,0,0,0,0,0,0,0,0,0,0,0,0,0,0,0,0,0,0,0,0,0,0,0,0,0,0,0,0,0,0,0,0,0,0,0,0,0,0,0,0,0,0,0,0,0,0,0,0,0,0],"id":0,"left_children":[1,3,5,7,9,11,13,-1,15,17,19,-1,21,23,-1,25,27,29,-1,31,33,-1,35,-1,37,-1,39,41,-1,43,45,47,-1,49,51,53,-1,-1,55,-1,-1,-1,-1,57,59,-1,-1,61,-1,63,65,-1,67,69,-1,71,-1,73,-1,75,77,79,81,83,85,87,89,91,93,95,-1,-1,97,99,101,-1,-1,-1,-1,103,105,107,109,111,113,-1,115,117,119,-1,121,123,125,127,129,131,133,135,137,-1,139,141,143,145,-1,147,-1,-1,149,151,153,155,-1,-1,157,159,161,-1,163,165,-1,167,169,171,-1,173,-1,-1,175,177,179,181,-1,-1,183,185,-1,-1,-1,-1,-1,-1,-1,-1,-1,-1,-1,-1,-1,-1,-1,-1,-1,-1,-1,-1,-1,-1,-1,-1,-1,-1,-1,-1,-1,-1,-1,-1,-1,-1,-1,-1,-1,-1,-1,-1,-1,-1,-1,-1,-1,-1,-1,-1,-1,-1,-1],"loss_changes":[3.4955432E3,3.1408118E3,4.6773193E1,1.3991302E3,3.082544E2,2.367212E1,3.2831055E1,0E0,6.9333496E0,1.2792656E1,2.7112573E2,0E0,3.6727295E1,6.7686005E1,0E0,4.219818E0,3.9359345E0,1.2126156E1,0E0,7.713867E1,1.5159048E2,0E0,8.6345825E0,0E0,2.7624023E1,0E0,1.1730957E-1,2.508678E0,0E0,5.284118E1,9.063736E0,4.691284E1,0E0,6.748435E1,7.67876E1,1.9380188E1,0E0,0E0,2.5166306E1,0E0,0E0,0E0,0E0,1.8784485E0,1.271335E1,0E0,0E0,2.7654785E1,0E0,9.644731E1,8.627931E1,0E0,3.822644E1,4.875865E1,0E0,1.4921123E1,0E0,1.8379745E0,0E0,5.857372E-1,6.384927E0,8.084772E1,3.0226562E1,8.70374E1,1.2949646E1,4.166913E1,8.555878E1,9.541838E1,5.0551025E1,2.8720146E1,0E0,0E0,9.405708E0,6.9378414E0,2.1513906E0,0E0,0E0,0E0,0E0,2.9464355E1,5.1818344E1,1.3578369E1,1.5968948E1,2.0445087E1,4.3942154E1,0E0,3.8334503E1,2.2765953E1,9.0046144E-1,0E0,5.717338E1,4.353755E1,5.3559494E0,2.0562134E1,3.2635265E1,2.1067656E1,7.7619934E-1,1.2374633E1,1.0333367E1,0E0,3.521709E0,2.0295362E0,1.708272E0,2.841748E1,0E0,4.5299644E0,0E0,0E0,2.1187134E1,5.95076E0,2.3836017E0,1.6707115E1,0E0,0E0,1.1081554E2,2.4533022E1,3.439627E1,0E0,3.7783659E-1,7.309461E-2,0E0,5.6953346E1,7.223511E-2,2.1127842E1,0E0,4.149372E0,0E0,0E0,2.8971863E1,3.4832668E0,2.5483055E1,2.386424E1,0E0,0E0,1.01401825E1,9.817499E0,0E0,0E0,0E0,0E0,0E0,0E0,0E0,0E0,0E0,0E0,0E0,0E0,0E0,0E0,0E0,0E0,0E0,0E0,0E0,0E0,0E0,0E0,0E0,0E0,0E0,0E0,0E0,0E0,0E0,0E0,0E0,0E0,0E0,0E0,0E0,0E0,0E0,0E0,0E0,0E0,0E0,0E0,0E0,0E0,0E0,0E0,0E0,0E0,0E0,0E0,0E0],"parents":[2147483647,0,0,1,1,2,2,3,3,4,4,5,5,6,6,8,8,9,9,10,10,12,12,13,13,15,15,16,16,17,17,19,19,20,20,22,22,24,24,26,26,27,27,29,29,30,30,31,31,33,33,34,34,35,35,38,38,43,43,44,44,47,47,49,49,50,50,52,52,53,53,55,55,57,57,59,59,60,60,61,61,62,62,63,63,64,64,65,65,66,66,67,67,68,68,69,69,72,72,73,73,74,74,79,79,80,80,81,81,82,82,83,83,84,84,86,86,87,87,88,88,90,90,91,91,92,92,93,93,94,94,95,95,96,96,97,97,98,98,100,100,101,101,102,102,103,103,105,105,108,108,109,109,110,110,111,111,114,114,115,115,116,116,118,118,119,119,121,121,122,122,123,123,125,125,128,128,129,129,130,130,131,131,134,134,135,135],"right_children":[2,4,6,8,10,12,14,-1,16,18,20,-1,22,24,-1,26,28,30,-1,32,34,-1,36,-1,38,-1,40,42,-1,44,46,48,-1,50,52,54,-1,-1,56,-1,-1,-1,-1,58,60,-1,-1,62,-1,64,66,-1,68,70,-1,72,-1,74,-1,76,78,80,82,84,86,88,90,92,94,96,-1,-1,98,100,102,-1,-1,-1,-1,104,106,108,110,112,114,-1,116,118,120,-1,122,124,126,128,130,132,134,136,138,-1,140,142,144,146,-1,148,-1,-1,150,152,154,156,-1,-1,158,160,162,-1,164,166,-1,168,170,172,-1,174,-1,-1,176,178,180,182,-1,-1,184,186,-1,-1,-1,-1,-1,-1,-1,-1,-1,-1,-1,-1,-1,-1,-1,-1,-1,-1,-1,-1,-1,-1,-1,-1,-1,-1,-1,-1,-1,-1,-1,-1,-1,-1,-1,-1,-1,-1,-1,-1,-1,-1,-1,-1,-1,-1,-1,-1,-1,-1,-1],"split_conditions":[1E0,1E0,1E0,1E0,1E0,1.0989628E-1,1.7431693E-1,-9.9768E-1,1E0,1E0,1E0,-9.318728E-1,1.257202E-1,4.6771742E-2,-9.625397E-1,-2.593281E-3,1E0,1.5829258E-1,-7.6657706E-1,1E0,6.2139977E-2,6.661638E-1,1E0,-8.1725866E-1,1E0,-0E0,1E0,1.257202E-1,-2.0038815E-1,1.0989628E-1,1E0,1E0,-7.4527293E-1,4.428926E-2,7.6861635E-2,1E0,-9.6784973E-1,-8.873908E-1,1E0,9.5502496E-1,3.6310726E-1,-0E0,6.185242E-1,1E0,1.415089E-1,-7.0359176E-1,1.6623549E-1,1.0989628E-1,-7.246958E-1,-3.45189E-2,4.6771742E-2,9.7051984E-1,9.585176E-2,1E0,-9.131761E-1,6.0575448E-2,-8.505825E-1,1E0,-6.987115E-1,1E0,1.4268434E-1,1.0943401E-1,4.5144394E-1,-4.646133E0,-2.0855488E-2,1E0,6.0575448E-2,9.314782E-2,2.3972352E-1,1E0,-9.663014E-1,7.4946123E-1,1.0839064E-1,7.8643076E-2,5.064413E-2,8.254967E-1,1.7597601E-1,-4.7419503E-1,4.5413396E-1,9.585176E-2,1E0,1.257202E-1,1E0,1E0,-5.2072123E-2,9.0564394E-1,-1.9369727E-2,1E0,1E0,9.467447E-1,1E0,7.8643076E-2,1E0,1.0943401E-1,2.4414101E-1,1E0,1.9347367E-1,9.585176E-2,1.5975226E-1,-7.1488E-1,1.05072E-1,1E0,1E0,1E0,9.585548E-1,1E0,5.7632625E-1,9.618697E-1,1.2605855E-1,1E0,1E0,1E0,-6.254853E-1,-8.1015337E-1,-3.7141677E-2,1E0,-4.569301E-3,-6.2738085E-1,1E0,1E0,-9.1438346E-2,1E0,1E0,1E0,9.3997324E-1,1E0,-9.5823355E-2,9.3877363E-1,1.0989628E-1,1E0,1E0,1E0,-8.2914466E-1,-7.663896E-1,3.8805425E-1,9.314782E-2,7.385964E-1,-4.450627E-1,4.995689E-1,3.841677E-1,-4.003882E-1,-0E0,-4.549572E-1,-5.157201E-1,-0E0,4.4471028E-1,7.577877E-1,-7.180103E-1,-5.1746384E-4,3.2255706E-1,6.4569163E-1,4.8352018E-1,1.9937395E-1,-3.9183882E-1,-0E0,5.993678E-1,-5.389095E-1,9.1719717E-1,-5.748239E-1,-2.0333213E-1,5.587193E-1,9.579921E-1,3.746301E-1,-6.04538E-2,-2.9461238E-1,9.740934E-2,-0E0,2.6545325E-1,-5.376601E-1,-9.132073E-2,-8.7753046E-1,-1.5268361E-2,5.223129E-1,-7.070454E-1,-1.6724169E-1,8.45666E-2,4.804042E-1,-6.005953E-1,-0E0,2.052892E-1,7.419533E-1,1.751265E-1,-7.2279745E-1,-1.954185E-1,-8.6725634E-1,6.685373E-2,-4.8776016E-1],"split_indices":[44,23,1,42,40,48,48,0,1,5,30,0,48,48,0,48,29,48,0,11,48,0,0,0,23,0,0,48,0,48,2,31,0,48,48,5,0,0,21,0,0,0,0,29,48,0,0,48,0,48,48,0,48,3,0,48,0,41,0,41,48,48,48,48,48,0,48,48,48,4,0,0,48,48,48,0,0,0,0,48,3,48,21,3,48,0,48,3,21,0,1,48,3,48,48,11,48,48,48,0,48,4,1,45,0,28,0,0,48,0,1,21,0,0,48,1,48,0,21,47,0,5,19,1,0,4,0,0,48,0,6,2,0,0,48,48,0,0,0,0,0,0,0,0,0,0,0,0,0,0,0,0,0,0,0,0,0,0,0,0,0,0,0,0,0,0,0,0,0,0,0,0,0,0,0,0,0,0,0,0,0,0,0,0,0,0,0],"split_type":[0,0,0,0,0,0,0,0,0,0,0,0,0,0,0,0,0,0,0,0,0,0,0,0,0,0,0,0,0,0,0,0,0,0,0,0,0,0,0,0,0,0,0,0,0,0,0,0,0,0,0,0,0,0,0,0,0,0,0,0,0,0,0,0,0,0,0,0,0,0,0,0,0,0,0,0,0,0,0,0,0,0,0,0,0,0,0,0,0,0,0,0,0,0,0,0,0,0,0,0,0,0,0,0,0,0,0,0,0,0,0,0,0,0,0,0,0,0,0,0,0,0,0,0,0,0,0,0,0,0,0,0,0,0,0,0,0,0,0,0,0,0,0,0,0,0,0,0,0,0,0,0,0,0,0,0,0,0,0,0,0,0,0,0,0,0,0,0,0,0,0,0,0,0,0,0,0,0,0,0,0,0,0,0,0,0,0],"sum_hessian":[5.7982476E3,4.703748E3,1.0944995E3,7.869997E2,3.9167483E3,8.5374963E2,2.407499E2,6.732497E2,1.13749954E2,1.1999995E2,3.7967485E3,5.3699976E2,3.1674988E2,1.8924992E2,5.1499977E1,1.06749954E2,6.999997E0,9.749996E1,2.249999E1,1.9807491E3,1.8159993E3,3.4999986E0,3.1324988E2,8.624996E1,1.02999954E2,1.7499993E0,1.04999954E2,5.4999976E0,1.4999994E0,7.124997E1,2.6249989E1,1.9699991E3,1.0749995E1,7.042497E2,1.1117495E3,2.532499E2,5.9999973E1,1.2249995E1,9.074996E1,1.0049996E2,4.499998E0,1.2499995E0,4.249998E0,5.1999977E1,1.9249992E1,2.424999E1,1.9999992E0,1.9637491E3,6.2499976E0,3.5424985E2,3.4999985E2,5.0999977E1,1.0607495E3,1.6849992E2,8.474996E1,8.174997E1,8.999996E0,3.9749985E1,1.2249995E1,1.3749994E1,5.4999976E0,9.2249963E2,1.0412495E3,1.3999994E2,2.1424991E2,1.6399994E2,1.8599992E2,1.4449994E2,9.1624963E2,1.11249954E2,5.7249977E1,4.999998E0,7.674997E1,1.4999993E1,2.474999E1,1.0499995E1,3.2499986E0,3.7499983E0,1.7499993E0,8.8449963E2,3.7999985E1,8.3649963E2,2.0474991E2,4.924998E1,9.074996E1,1.4999993E1,1.9924992E2,1.2024995E2,4.374998E1,2.7499989E1,1.5849994E2,1.00749954E2,4.374998E1,5.9199976E2,3.2424988E2,5.5999977E1,5.5249977E1,5.3249977E1,2.349999E1,1.1249995E1,3.7499983E0,1.5499993E1,9.249996E0,8.4874963E2,3.5749985E1,2.5999989E1,1.1999995E1,3.8999985E1,7.974997E2,1.9499992E2,9.749996E0,4.624998E1,2.9999988E0,3.5749985E1,5.4999977E1,4.974998E1,1.4949994E2,8.874996E1,3.1499987E1,3.9249985E1,4.499998E0,1.4149994E2,1.6999992E1,7.649997E1,2.424999E1,3.4249985E1,9.499996E0,2.374999E1,5.6824976E2,1.4499994E1,3.0974988E2,4.824998E1,7.7499967E0,2.6749989E1,2.8499989E1,4.849998E1,4.749998E0,2.149999E1,1.9999992E0,2.249999E0,1.4999994E0,1.3749994E1,1.7499993E0,7.249997E0,1.9999992E0,7.607497E2,8.799996E1,2.199999E1,3.9999983E0,6.474997E1,7.327497E2,1.6474992E2,3.0249987E1,4.749998E0,4.999998E0,4.399998E1,2.249999E0,1.7249992E1,3.7749985E1,3.5999985E1,1.3749994E1,3.5249985E1,1.14249954E2,2.8249989E1,3.2499986E0,3.7249985E1,1.9999992E0,1.15499954E2,2.5999989E1,1.7499993E0,1.5249993E1,5.024998E1,2.6249989E1,2.6249989E1,7.9999967E0,5.4749977E1,5.1349976E2,1.1499995E1,2.9999988E0,2.8549988E2,2.424999E1,4.0249985E1,7.9999967E0,1.8249992E1,1.0249996E1,3.9749985E1,8.749996E0],"tree_param":{"num_deleted":"0","num_feature":"49","num_nodes":"187","size_leaf_vector":"1"}},{"base_weights":[-1.2209145E-2,2.0759124E-1,-1.0359578E0,-9.7962064E-1,4.1133842E-1,-1.1240852E0,-7.329239E-1,-6.814352E-1,1.1791208E0,-5.032655E-1,4.399457E-1,-6.382033E-1,-9.751353E-1,-5.8207434E-1,-6.511526E-1,2.2396255E-1,1.243988E0,-5.578847E-1,3.046299E-1,4.526795E-1,-7.422647E-1,1.1443589E0,-1.0079992E0,-1.0193095E0,-2.3245203E-1,2.2773123E-1,-3.2373123E-2,-0E0,6.368818E-1,-1.1006291E0,-4.6796986E-1,-2.2811283E-1,4.9933347E-1,5.9532124E-1,2.9847804E-1,-6.9758373E-1,-9.3798244E-1,-7.441969E-1,-6.040496E-1,-5.9774715E-1,-9.5693074E-2,2.3440033E-1,-9.836843E-2,-0E0,-1.2113771E0,-3.2522067E-1,-4.9617085E-1,6.006651E-1,-8.3920306E-1,-8.480799E-1,3.1524864E-1,-8.461748E-1,-6.6222674E-1,-1.0624108E0,8.400343E-1,5.307099E-3,-5.719536E-1,-6.416474E-1,-0E0,-6.003574E-1,-1.11272074E-1,2.9896152E-1,6.368759E-1,1.1820236E-1,4.356652E-1,-7.1101624E-1,-6.5258574E-1,-4.9127647E-1,-6.163243E-1,6.9437456E-1,8.532712E-2,-6.599417E-1,1.04329266E-1,-5.324563E-1,-2.9871252E-1,4.355854E-1,-6.223578E-1,8.142924E-1,-8.152945E-2,7.767847E-1,6.159732E-1,2.996156E-1,-5.812E-2,6.60631E-1,3.973266E-1,-3.928238E-1,-5.620593E-1,-4.70597E-1,5.978839E-1,3.8942492E-1,-1.1937408E-1,-9.5641054E-2,-4.112925E-1,-9.616174E-2,1.04729E0,-8.231048E-1,4.9478495E-1,9.483933E-1,-7.818459E-1,-3.012546E-1,8.4113264E-1,6.4826715E-1,2.3934421E-1,-7.200429E-2,5.313594E-1,-3.5926667E-1,2.053637E-1,4.52462E-1,-0E0,-2.7464828E-1,-7.6457274E-1,1.0729245E-1,7.411379E-1,-2.0158088E-1,3.505142E-1,-3.5806403E-1,4.5149624E-2,9.747751E-2,-4.1359487E-1,5.859875E-1,-0E0,-4.622626E-1,-0E0,3.1313553E-1,-0E0,5.372634E-1,-2.9826376E-1,-2.8927794E-2,-5.184434E-1,-5.3181076E-1,5.2426225E-1,3.2616392E-1,-6.486733E-1,-5.6312148E-2,2.309302E-1,2.5594124E-1,-2.1159658E-1,2.2347057E-1,7.5079125E-1,-2.6777044E-1,3.101002E-2,6.421644E-1,1.5043234E-2,2.0522928E-1,5.306141E-1,7.5467445E-2,-5.7885253E-1,6.2032763E-2,-3.4144577E-1,5.0526595E-1,-2.3054712E-2,2.426837E-3,-2.2046408E-1],"categories":[],"categories_nodes":[],"categories_segments":[],"categories_sizes":[],"default_left":[0,0,0,0,0,0,0,0,0,0,0,0,0,0,0,0,0,0,0,0,0,0,0,0,0,0,0,0,0,0,0,0,0,0,0,0,0,0,0,0,0,0,0,0,0,0,0,0,0,0,0,0,0,0,0,0,0,0,0,0,0,0,0,0,0,0,0,0,0,0,0,0,0,0,0,0,0,0,0,0,0,0,0,0,0,0,0,0,0,0,0,0,0,0,0,0,0,0,0,0,0,0,0,0,0,0,0,0,0,0,0,0,0,0,0,0,0,0,0,0,0,0,0,0,0,0,0,0,0,0,0,0,0,0,0,0,0,0,0,0,0,0,0,0,0,0,0,0,0,0,0,0,0],"id":1,"left_children":[1,3,5,7,9,11,13,-1,15,17,19,-1,21,23,-1,25,27,29,31,33,-1,-1,35,37,39,-1,-1,41,-1,43,45,-1,-1,47,49,-1,51,53,-1,-1,55,-1,-1,-1,57,59,-1,61,-1,-1,63,65,-1,67,69,71,-1,-1,-1,73,75,77,79,81,83,85,-1,87,-1,-1,-1,-1,89,-1,91,93,95,97,99,-1,101,103,105,-1,107,109,-1,-1,-1,111,113,115,-1,117,119,121,123,125,-1,127,129,131,133,135,137,139,141,143,145,147,-1,149,-1,151,-1,-1,-1,-1,-1,-1,-1,-1,-1,-1,-1,-1,-1,-1,-1,-1,-1,-1,-1,-1,-1,-1,-1,-1,-1,-1,-1,-1,-1,-1,-1,-1,-1,-1,-1,-1,-1,-1,-1],"loss_changes":[1.167493E3,1.0321144E3,2.181372E1,5.1861536E2,9.549713E1,1.2524841E1,1.5572914E1,0E0,4.0976715E0,5.2737427E0,8.626703E1,0E0,4.0131714E1,2.4629185E1,0E0,9.68155E-1,2.1910095E0,3.0147858E0,4.4031897E0,7.6198425E1,0E0,0E0,6.1697083E0,1.0101852E0,1.143626E1,0E0,0E0,6.525287E-1,0E0,5.8798504E-1,5.3171253E0,0E0,0E0,2.2050476E1,5.5802353E1,0E0,7.7697754E0,1.8767618E1,0E0,0E0,1.0395206E1,0E0,0E0,0E0,1.1109829E-1,3.697956E0,0E0,1.8729004E1,0E0,0E0,3.927327E1,1.2984924E1,0E0,5.996971E-1,3.6695528E-1,9.396722E0,0E0,0E0,0E0,2.661398E0,1.3328827E1,3.9936237E1,2.7892395E1,2.0795353E1,3.3055588E1,2.4624725E1,0E0,8.407588E0,0E0,0E0,0E0,0E0,5.157301E0,0E0,1.2889246E0,8.1721115E0,6.378314E0,2.8287384E1,2.2949451E1,0E0,1.8240967E1,2.8004517E1,2.590609E1,0E0,2.1622192E1,1.3507309E1,0E0,0E0,0E0,9.219149E0,2.4292674E0,2.7662416E0,0E0,3.2944548E0,9.467468E-1,1.4941044E0,5.831802E-2,1.7178947E1,0E0,1.5708573E1,9.566839E0,1.1714111E1,1.0523121E1,2.5124165E1,1.3638355E1,1.1880085E1,3.1074802E1,2.0492508E1,2.1260603E1,1.824367E1,0E0,5.1785846E0,0E0,2.3874362E0,0E0,0E0,0E0,0E0,0E0,0E0,0E0,0E0,0E0,0E0,0E0,0E0,0E0,0E0,0E0,0E0,0E0,0E0,0E0,0E0,0E0,0E0,0E0,0E0,0E0,0E0,0E0,0E0,0E0,0E0,0E0,0E0,0E0,0E0,0E0,0E0,0E0,0E0,0E0],"parents":[2147483647,0,0,1,1,2,2,3,3,4,4,5,5,6,6,8,8,9,9,10,10,12,12,13,13,15,15,16,16,17,17,18,18,19,19,22,22,23,23,24,24,27,27,29,29,30,30,33,33,34,34,36,36,37,37,40,40,44,44,45,45,47,47,50,50,51,51,53,53,54,54,55,55,59,59,60,60,61,61,62,62,63,63,64,64,65,65,67,67,72,72,74,74,75,75,76,76,77,77,78,78,80,80,81,81,82,82,84,84,85,85,89,89,90,90,91,91,93,93,94,94,95,95,96,96,97,97,99,99,100,100,101,101,102,102,103,103,104,104,105,105,106,106,107,107,108,108,109,109,111,111,113,113],"right_children":[2,4,6,8,10,12,14,-1,16,18,20,-1,22,24,-1,26,28,30,32,34,-1,-1,36,38,40,-1,-1,42,-1,44,46,-1,-1,48,50,-1,52,54,-1,-1,56,-1,-1,-1,58,60,-1,62,-1,-1,64,66,-1,68,70,72,-1,-1,-1,74,76,78,80,82,84,86,-1,88,-1,-1,-1,-1,90,-1,92,94,96,98,100,-1,102,104,106,-1,108,110,-1,-1,-1,112,114,116,-1,118,120,122,124,126,-1,128,130,132,134,136,138,140,142,144,146,148,-1,150,-1,152,-1,-1,-1,-1,-1,-1,-1,-1,-1,-1,-1,-1,-1,-1,-1,-1,-1,-1,-1,-1,-1,-1,-1,-1,-1,-1,-1,-1,-1,-1,-1,-1,-1,-1,-1,-1,-1,-1,-1],"split_conditions":[1E0,1E0,1E0,1E0,1E0,6.2139977E-2,1.7431693E-1,-6.814352E-1,6.2139977E-2,1E0,1E0,-6.382033E-1,7.6861635E-2,4.6771742E-2,-6.511526E-1,1E0,1E0,1E0,1E0,1E0,-7.422647E-1,1.1443589E0,1E0,4.428926E-2,1E0,2.2773123E-1,-3.2373123E-2,1.6996208E-1,6.368818E-1,-1.9369727E-2,1E0,-2.2811283E-1,4.9933347E-1,1E0,1E0,-6.9758373E-1,1E0,1.3084917E-2,-6.040496E-1,-5.9774715E-1,1E0,2.3440033E-1,-9.836843E-2,-0E0,3.5500902E-1,6.2139977E-2,-4.9617085E-1,-1.9369727E-2,-8.3920306E-1,-8.480799E-1,6.2139977E-2,1E0,-6.6222674E-1,-3.7141677E-2,2.8003074E-2,1E0,-5.719536E-1,-6.416474E-1,-0E0,1E0,1.337247E-1,-4.646133E0,-4.569301E-3,4.428926E-2,7.6861635E-2,1E0,-6.5258574E-1,-5.2072123E-2,-6.163243E-1,6.9437456E-1,8.532712E-2,-6.599417E-1,7.6861635E-2,-5.324563E-1,5.064413E-2,1.0989628E-1,1E0,1E0,1E0,7.767847E-1,1E0,-3.45189E-2,4.6771742E-2,6.60631E-1,1E0,1E0,-5.620593E-1,-4.70597E-1,5.978839E-1,6.2139977E-2,1.5975226E-1,-3.45189E-2,-4.112925E-1,1.0943401E-1,1E0,1E0,2.3570529E-1,1E0,-7.818459E-1,-2.0855488E-2,-5.3427864E-2,1E0,1.0989628E-1,-4.646133E0,3.3613723E-2,1E0,6.0575448E-2,1E0,1E0,1E0,-7.6457274E-1,6.0575448E-2,7.411379E-1,1.0839064E-1,3.505142E-1,-3.5806403E-1,4.5149624E-2,9.747751E-2,-4.1359487E-1,5.859875E-1,-0E0,-4.622626E-1,-0E0,3.1313553E-1,-0E0,5.372634E-1,-2.9826376E-1,-2.8927794E-2,-5.184434E-1,-5.3181076E-1,5.2426225E-1,3.2616392E-1,-6.486733E-1,-5.6312148E-2,2.309302E-1,2.5594124E-1,-2.1159658E-1,2.2347057E-1,7.5079125E-1,-2.6777044E-1,3.101002E-2,6.421644E-1,1.5043234E-2,2.0522928E-1,5.306141E-1,7.5467445E-2,-5.7885253E-1,6.2032763E-2,-3.4144577E-1,5.0526595E-1,-2.3054712E-2,2.426837E-3,-2.2046408E-1],"split_indices":[44,23,1,42,40,48,48,0,48,26,11,0,48,48,0,5,19,19,21,30,0,0,23,48,23,0,0,48,0,48,5,0,0,33,37,0,3,48,0,0,21,0,0,0,48,48,0,48,0,0,48,0,0,48,48,40,0,0,0,41,48,48,48,48,48,5,0,48,0,0,0,0,48,0,48,48,2,1,3,0,4,48,48,0,21,6,0,0,0,48,48,48,0,48,29,39,48,0,0,48,48,10,48,48,48,0,48,6,1,4,0,48,0,48,0,0,0,0,0,0,0,0,0,0,0,0,0,0,0,0,0,0,0,0,0,0,0,0,0,0,0,0,0,0,0,0,0,0,0,0,0,0,0],"split_type":[0,0,0,0,0,0,0,0,0,0,0,0,0,0,0,0,0,0,0,0,0,0,0,0,0,0,0,0,0,0,0,0,0,0,0,0,0,0,0,0,0,0,0,0,0,0,0,0,0,0,0,0,0,0,0,0,0,0,0,0,0,0,0,0,0,0,0,0,0,0,0,0,0,0,0,0,0,0,0,0,0,0,0,0,0,0,0,0,0,0,0,0,0,0,0,0,0,0,0,0,0,0,0,0,0,0,0,0,0,0,0,0,0,0,0,0,0,0,0,0,0,0,0,0,0,0,0,0,0,0,0,0,0,0,0,0,0,0,0,0,0,0,0,0,0,0,0,0,0,0,0,0,0],"sum_hessian":[5.182752E3,4.2665396E3,9.1621204E2,6.2368445E2,3.6428552E3,7.0513696E2,2.1107512E2,5.3035956E2,9.332489E1,1.08923164E2,3.5339321E3,3.415612E2,3.6357574E2,1.6985342E2,4.1221695E1,7.1984086E0,8.612648E1,1.0347481E2,5.448354E0,3.5119785E3,2.195358E1,2.636755E0,3.60939E2,7.334855E1,9.6504875E1,5.596773E0,1.6016355E0,2.6753259E0,8.345116E1,1.1527862E1,9.194695E1,2.0751846E0,3.3731692E0,1.8195167E3,1.6924617E3,5.0191082E1,3.1074792E2,3.401672E1,3.9331833E1,1.0128349E1,8.6376526E1,1.6043622E0,1.0709637E0,1.7852777E0,9.742583E0,7.504483E1,1.690212E1,1.8164233E3,3.0934265E0,1.2779228E1,1.6796825E3,2.557666E2,5.4981323E1,2.9126816E1,4.8899035E0,7.882255E1,7.5539756E0,8.639725E0,1.102859E0,2.9993391E1,4.5051437E1,1.9859883E2,1.6178245E3,6.4102045E2,1.038662E3,2.0123703E2,5.452957E1,8.929389E0,2.0197428E1,1.2756269E0,3.6142764E0,3.9209864E0,7.4901566E1,9.506767E0,2.0486624E1,2.0890202E1,2.4161236E1,8.498483E1,1.13614006E2,3.3366474E1,1.584458E3,3.183998E2,3.2262067E2,4.062831E1,9.980337E2,1.16146614E2,8.5090416E1,7.8663664E0,1.0630225E0,3.4571625E1,4.0329937E1,1.6991531E1,3.4950912E0,1.075181E1,1.0138392E1,2.1462788E1,2.6984482E0,8.1415306E1,3.5695257E0,9.318096E1,2.043304E1,1.4562185E3,1.2823949E2,1.20900406E2,1.974994E2,1.5215175E2,1.704689E2,8.750084E2,1.230253E2,1.0712729E2,9.019324E0,2.9078007E1,5.493619E0,3.8450306E1,1.8796322E0,4.500372E0,1.249116E1,7.235714E0,3.516096E0,8.583745E0,1.5546472E0,1.8552778E1,2.9100096E0,1.4571779E0,1.2412702E0,7.614989E1,5.2654204E0,7.184695E1,2.1334013E1,1.1274862E0,1.9305555E1,1.4543618E3,1.8567076E0,4.8121826E1,8.011766E1,4.4165607E1,7.67348E1,1.839826E2,1.3516806E1,1.08750854E2,4.3400898E1,2.214107E1,1.4832784E2,8.2163446E2,5.337394E1,1.1005007E2,1.2975227E1,5.3309124E1,5.3818165E1,4.3567204E0,2.4721287E1,1.8927353E1,1.9522955E1],"tree_param":{"num_deleted":"0","num_feature":"49","num_nodes":"153","size_leaf_vector":"1"}},{"base_weights":[-2.6845671E-2,1.1325923E-1,-7.847237E-1,-8.353574E-1,2.3425844E-1,-7.151303E-1,-5.7767177E-1,-5.8894104E-1,9.1918224E-1,-3.495888E-1,2.5162938E-1,-6.3154113E-1,-5.7854205E-1,1.0090487E0,-0E0,-1.2096334E-1,-4.9225128E-1,2.5922498E-1,-5.153239E-1,-4.812531E-1,-9.997863E-1,1.0513464E0,1.9280849E-2,1.6265818E-1,-2.9453027E-1,-6.5381455E-1,1.4756966E-1,-3.414034E-1,-7.978572E-1,2.6367575E-1,-8.097154E-1,-5.934429E-1,-3.9205834E-1,-5.730356E-1,-8.4447813E-1,-0E0,1.076316E0,-0E0,1.8540034E-1,-1.7733878E-2,2.4006154E-1,-1.14614524E-1,-8.6212283E-1,3.887363E-1,-3.0962613E-1,-0E0,-4.6012622E-1,-8.7197787E-1,-0E0,3.4820825E-1,1.7581433E-1,-6.0454077E-1,-3.2822123E-1,3.895937E-1,-4.5289177E-1,5.520082E-1,1.5483803E-1,-3.609885E-1,2.8386971E-2,-5.0389856E-1,-0E0,5.3446877E-1,-2.6072321E-2,-0E0,-3.2887405E-1,1.8678373E-1,-2.8262302E-1,-5.818264E-1,-0E0,-4.8744115E-1,-0E0,3.1924623E-1,6.72679E-1,-5.4953927E-1,1.8569072E-1,-2.3762524E-1,-8.8944376E-1,-0E0,2.1169631E-1,-2.5778735E-1,-0E0,6.341958E-1,-0E0,-1.6698544E-1,-0E0,4.3305966E-1,-1.8943466E-1,-7.725895E-1,-0E0,1.1064896E-1,-3.0916294E-1,1.862282E-3,3.4805366E-1,-0E0,7.800673E-1,1.9248255E-1,-8.397608E-1,-6.3594264E-1,-7.0987016E-2,-4.9102228E-2,-5.2683794E-1,-0E0,3.9382553E-1,7.7414554E-1,-1.3574322E-1,-9.135439E-1,6.3368455E-2,2.6596809E-2,-1.6561307E-1,2.9513985E-1,-1.5010862E0,7.261699E-1,3.3340958E-1,3.0957365E-1,-8.1332904E-1,8.4909177E-1,3.344586E-1,2.3307106E-1,-7.706292E-2,-4.337661E-1,-4.6098968E-1,8.989843E-1,-1.3275388E-1,6.4705265E-1,-4.1263267E-1,2.1116519E-1,-1.6290043E-1,-0E0,4.4200557E-1,-4.8772034E-1,-0E0,-3.9550968E-2,2.821958E-1,2.3391725E-1,-7.8862196E-1,-8.1060284E-1,-0E0,1.5416671E-1,4.3292227E-1,-1.6566044E-1,2.2497948E-1,4.3510062E-1,-0E0,-2.256803E-1,2.4093558E-1,1.2011307E-1,-6.2574685E-1,-2.8111058E-1,-4.0161107E-3,3.605448E-1,-3.1828174E-1,-5.7136685E-1,-3.6481477E-2,1.0870858E0,-2.3578078E-1],"categories":[],"categories_nodes":[],"categories_segments":[],"categories_sizes":[],"default_left":[0,0,0,0,0,0,0,0,0,0,0,0,0,0,0,0,0,0,0,0,0,0,0,0,0,0,0,0,0,0,0,0,0,0,0,0,0,0,0,0,0,0,0,0,0,0,0,0,0,0,0,0,0,0,0,0,0,0,0,0,0,0,0,0,0,0,0,0,0,0,0,0,0,0,0,0,0,0,0,0,0,0,0,0,0,0,0,0,0,0,0,0,0,0,0,0,0,0,0,0,0,0,0,0,0,0,0,0,0,0,0,0,0,0,0,0,0,0,0,0,0,0,0,0,0,0,0,0,0,0,0,0,0,0,0,0,0,0,0,0,0,0,0,0,0,0,0,0,0,0,0,0,0,0,0],"id":2,"left_children":[1,3,5,7,9,11,-1,-1,13,15,17,19,-1,21,23,25,27,29,-1,31,33,35,37,39,-1,41,43,45,47,49,-1,-1,51,-1,53,-1,55,-1,-1,-1,-1,57,59,61,63,65,67,69,-1,71,73,-1,75,-1,-1,-1,77,79,-1,-1,-1,81,83,-1,-1,85,-1,87,89,-1,-1,91,93,-1,95,97,99,-1,-1,-1,-1,101,-1,-1,-1,103,-1,105,107,-1,-1,109,111,113,115,117,-1,119,121,123,-1,125,-1,127,-1,129,-1,131,-1,133,135,-1,137,139,-1,141,143,145,147,-1,149,-1,151,153,-1,-1,-1,-1,-1,-1,-1,-1,-1,-1,-1,-1,-1,-1,-1,-1,-1,-1,-1,-1,-1,-1,-1,-1,-1,-1,-1,-1,-1,-1,-1],"loss_changes":[4.764246E2,4.3352975E2,1.5362579E1,2.5792776E2,3.4011963E1,1.9438385E1,0E0,0E0,6.3780403E0,2.447917E0,3.1246002E1,2.5927399E1,0E0,1.5969391E0,9.8799473E-1,6.438195E0,1.165165E0,2.6181274E1,0E0,2.0723175E1,2.9507446E-1,1.2028809E0,3.2489341E-1,7.8656304E-1,0E0,6.202092E-1,3.1417425E0,1.9032273E0,7.119961E-1,2.3448975E1,0E0,0E0,1.4959156E1,0E0,8.45459E0,0E0,7.220459E-2,0E0,0E0,0E0,0E0,6.075517E-1,6.882124E-1,1.6917531E0,1.2717868E0,1.0384157E0,1.481184E0,1.3523502E0,0E0,1.4227707E1,1.9368542E1,0E0,1.4064003E1,0E0,0E0,0E0,4.1212288E-1,4.230399E-1,0E0,0E0,0E0,1.2613292E0,2.9803142E-1,0E0,0E0,1.5243025E0,0E0,2.2301044E0,1.5058028E0,0E0,0E0,1.3478836E1,9.172844E0,0E0,1.8902016E1,1.6752726E1,4.394306E0,0E0,0E0,0E0,0E0,7.720213E-1,0E0,0E0,0E0,2.6905413E0,0E0,3.1188154E0,2.5859925E-1,0E0,0E0,5.6432053E1,2.0107895E1,9.837662E0,1.9890747E0,1.7455902E1,0E0,1.3465099E0,2.0372347E1,5.3683977E0,0E0,8.9021194E-1,0E0,3.154912E-1,0E0,3.3225155E-1,0E0,8.960352E-1,0E0,3.518556E1,3.3934937E0,0E0,1.6822113E1,1.831975E0,0E0,8.696289E-1,2.410271E0,1.3909447E1,6.2660837E0,0E0,1.0300471E1,0E0,9.826852E0,1.0285402E1,0E0,0E0,0E0,0E0,0E0,0E0,0E0,0E0,0E0,0E0,0E0,0E0,0E0,0E0,0E0,0E0,0E0,0E0,0E0,0E0,0E0,0E0,0E0,0E0,0E0,0E0,0E0,0E0,0E0,0E0,0E0],"parents":[2147483647,0,0,1,1,2,2,3,3,4,4,5,5,8,8,9,9,10,10,11,11,13,13,14,14,15,15,16,16,17,17,19,19,20,20,21,21,22,22,23,23,25,25,26,26,27,27,28,28,29,29,32,32,34,34,36,36,41,41,42,42,43,43,44,44,45,45,46,46,47,47,49,49,50,50,52,52,56,56,57,57,61,61,62,62,65,65,67,67,68,68,71,71,72,72,74,74,75,75,76,76,81,81,85,85,87,87,88,88,91,91,92,92,93,93,94,94,95,95,97,97,98,98,99,99,101,101,103,103,105,105,107,107,109,109,110,110,112,112,113,113,115,115,116,116,117,117,118,118,120,120,122,122,123,123],"right_children":[2,4,6,8,10,12,-1,-1,14,16,18,20,-1,22,24,26,28,30,-1,32,34,36,38,40,-1,42,44,46,48,50,-1,-1,52,-1,54,-1,56,-1,-1,-1,-1,58,60,62,64,66,68,70,-1,72,74,-1,76,-1,-1,-1,78,80,-1,-1,-1,82,84,-1,-1,86,-1,88,90,-1,-1,92,94,-1,96,98,100,-1,-1,-1,-1,102,-1,-1,-1,104,-1,106,108,-1,-1,110,112,114,116,118,-1,120,122,124,-1,126,-1,128,-1,130,-1,132,-1,134,136,-1,138,140,-1,142,144,146,148,-1,150,-1,152,154,-1,-1,-1,-1,-1,-1,-1,-1,-1,-1,-1,-1,-1,-1,-1,-1,-1,-1,-1,-1,-1,-1,-1,-1,-1,-1,-1,-1,-1,-1,-1],"split_conditions":[1E0,1E0,1E0,1E0,1E0,1E0,-5.7767177E-1,-5.8894104E-1,1E0,1E0,1E0,1E0,-5.7854205E-1,1E0,1E0,7.8643076E-2,1E0,1E0,-5.153239E-1,1E0,6.2139977E-2,-2.593281E-3,1.7539594E-1,1.257202E-1,-2.9453027E-1,1E0,2.3570529E-1,2.8003074E-2,1E0,1E0,-8.097154E-1,-5.934429E-1,1E0,-5.730356E-1,7.6861635E-2,-0E0,1E0,-0E0,1.8540034E-1,-1.7733878E-2,2.4006154E-1,1E0,1E0,1E0,1E0,1E0,1E0,1E0,-0E0,1E0,1E0,-6.0454077E-1,1E0,3.895937E-1,-4.5289177E-1,5.520082E-1,1.01389125E-1,1E0,2.8386971E-2,-5.0389856E-1,-0E0,1.5975226E-1,1.4268434E-1,-0E0,-3.2887405E-1,1E0,-2.8262302E-1,1E0,7.8643076E-2,-4.8744115E-1,-0E0,-3.45189E-2,1E0,-5.4953927E-1,1E0,4.6771742E-2,3.3613723E-2,-0E0,2.1169631E-1,-2.5778735E-1,-0E0,1.0989628E-1,-0E0,-1.6698544E-1,-0E0,1E0,-1.8943466E-1,6.30592E-1,1.2605855E-1,1.1064896E-1,-3.0916294E-1,-3.7141677E-2,-2.0855488E-2,3.5140872E-1,2.885821E-1,1E0,-8.397608E-1,1.3084917E-2,6.0575448E-2,1E0,-5.2683794E-1,1.0943401E-1,3.9382553E-1,-3.45189E-2,-1.3574322E-1,1E0,6.3368455E-2,1.0989628E-1,-1.6561307E-1,1E0,1E0,7.261699E-1,1E0,-3.45189E-2,-8.1332904E-1,1E0,3.323327E-1,1E0,-1.9369727E-2,-4.337661E-1,4.428926E-2,8.989843E-1,1E0,1E0,-4.1263267E-1,2.1116519E-1,-1.6290043E-1,-0E0,4.4200557E-1,-4.8772034E-1,-0E0,-3.9550968E-2,2.821958E-1,2.3391725E-1,-7.8862196E-1,-8.1060284E-1,-0E0,1.5416671E-1,4.3292227E-1,-1.6566044E-1,2.2497948E-1,4.3510062E-1,-0E0,-2.256803E-1,2.4093558E-1,1.2011307E-1,-6.2574685E-1,-2.8111058E-1,-4.0161107E-3,3.605448E-1,-3.1828174E-1,-5.7136685E-1,-3.6481477E-2,1.0870858E0,-2.3578078E-1],"split_indices":[44,23,0,42,40,3,0,0,1,41,11,5,0,0,29,48,29,7,0,23,48,48,48,48,0,30,48,48,3,30,0,0,19,0,48,0,21,0,0,0,0,5,3,39,45,1,1,21,0,26,37,0,21,0,0,0,48,0,0,0,0,48,48,0,0,4,0,0,48,0,0,48,0,0,8,48,48,0,0,0,0,48,0,0,0,3,0,48,48,0,0,48,48,48,48,21,0,48,48,1,0,48,0,48,0,28,0,48,0,0,47,0,47,48,0,21,48,12,48,0,48,0,40,4,0,0,0,0,0,0,0,0,0,0,0,0,0,0,0,0,0,0,0,0,0,0,0,0,0,0,0,0,0,0,0],"split_type":[0,0,0,0,0,0,0,0,0,0,0,0,0,0,0,0,0,0,0,0,0,0,0,0,0,0,0,0,0,0,0,0,0,0,0,0,0,0,0,0,0,0,0,0,0,0,0,0,0,0,0,0,0,0,0,0,0,0,0,0,0,0,0,0,0,0,0,0,0,0,0,0,0,0,0,0,0,0,0,0,0,0,0,0,0,0,0,0,0,0,0,0,0,0,0,0,0,0,0,0,0,0,0,0,0,0,0,0,0,0,0,0,0,0,0,0,0,0,0,0,0,0,0,0,0,0,0,0,0,0,0,0,0,0,0,0,0,0,0,0,0,0,0,0,0,0,0,0,0,0,0,0,0,0,0],"sum_hessian":[4.478689E3,3.7795203E3,6.991688E2,4.259516E2,3.3535686E3,5.9337506E2,1.0579372E2,3.5713052E2,6.882108E1,9.467853E1,3.2588901E3,5.029424E2,9.043267E1,6.3202442E1,5.61864E0,3.9782326E1,5.4896206E1,3.241268E3,1.7622028E1,3.6073993E2,1.422025E2,5.958358E1,3.61886E0,4.1651673E0,1.4534731E0,1.40975895E1,2.5684736E1,4.03625E1,1.4533709E1,3.2349958E3,6.2721467E0,3.78427E1,3.2289722E2,6.6627686E1,7.557481E1,1.7400091E0,5.784357E1,2.2433925E0,1.3754675E0,1.172037E0,2.9931302E0,5.6983547E0,8.399235E0,1.8344933E1,7.3398023E0,9.601638E0,3.076086E1,1.294154E1,1.5921688E0,1.6414209E3,1.5935751E3,2.096539E1,3.0193182E2,1.7301568E0,7.384465E1,5.4909634E1,2.9339383E0,4.277628E0,1.420727E0,6.5559583E0,1.8432765E0,1.5146039E1,3.1988945E0,3.5521135E0,3.7876887E0,8.375277E0,1.2263619E0,2.3239109E1,7.52175E0,1.157659E1,1.3649498E0,1.5115654E3,1.2985541E2,1.0624139E1,1.5829509E3,2.627262E2,3.920565E1,1.1087985E0,1.8251399E0,3.1787424E0,1.0988855E0,1.3603412E1,1.5426266E0,1.6976421E0,1.5012525E0,7.229812E0,1.1454644E0,1.6483112E1,6.7559977E0,5.4034557E0,2.1182942E0,1.2875822E2,1.3828073E3,1.8474209E1,1.11381195E2,1.5786355E3,4.3153663E0,7.489247E1,1.8783371E2,7.617322E0,3.158833E1,3.8915489E0,9.7118635E0,5.7612395E0,1.4685724E0,1.5197321E1,1.285791E0,5.440424E0,1.3155738E0,1.0896445E2,1.9793774E1,1.5918982E1,1.3668883E3,1.6385996E1,2.088212E0,9.3715195E1,1.7666E1,1.3753749E3,2.0326057E2,2.806614E1,4.682633E1,4.5919065E0,1.832418E2,3.424121E0,4.193201E0,2.6673834E0,1.2241654E0,1.1724398E0,4.5888E0,1.3556126E1,1.6411958E0,3.705592E0,1.7348318E0,1.0093883E2,8.025622E0,1.8117723E1,1.6760491E0,1.3087091E3,5.8179195E1,1.4200003E0,1.4965996E1,9.032411E1,3.391082E0,1.3932688E0,1.6272732E1,1.3702825E3,5.092488E0,2.2624104E1,1.8063647E2,4.9172807E0,4.190905E1,8.2945385E0,1.7494727E2,1.426717E0,1.9974039E0],"tree_param":{"num_deleted":"0","num_feature":"49","num_nodes":"155","size_leaf_vector":"1"}},{"base_weights":[-3.5276897E-2,-8.163556E-1,3.5990465E-2,-5.485008E-1,7.046827E-1,1.2471658E-1,-5.3963304E-1,8.179148E-1,-4.2001266E-2,1.3479517E-1,-5.692097E-1,-4.6668032E-1,-5.1524E-1,-0E0,8.485113E-1,-3.042552E-1,9.3474664E-2,4.7154382E-2,2.2720276E-1,-2.8956172E-1,-1.011608E0,-3.8302067E-1,-5.180964E-1,8.954721E-1,-0E0,-0E0,8.301068E-2,7.511617E-2,-4.043627E-1,6.695694E-1,1.7616858E-1,-4.3378142E-1,7.4238956E-2,-9.4333714E-1,-2.082191E-1,-2.5592753E-1,-7.881467E-1,9.3386835E-1,9.6736945E-2,-0E0,4.786601E-2,4.3125834E-2,6.1068934E-1,-7.7137256E-1,3.8618785E-1,-4.3796745E-1,2.2318114E-1,-6.9134885E-1,-0E0,1.6669074E-1,-5.825108E-2,-2.0912822E-1,-5.6743985E-1,-5.068056E-1,-5.6886923E-1,4.7678453E-1,-0E0,-0E0,1.514559E-1,8.7770745E-2,-5.5851597E-1,-9.736112E-1,-1.595175E-1,-5.794628E-1,7.6477844E-1,-5.632992E-1,2.6417202E-1,6.7390656E-1,1.633981E-1,-7.238405E-1,-0E0,-2.1571514E-1,1.9284105E-1,-1.6059324E-1,-5.0838095E-1,2.8366458E-1,-6.403925E-1,4.4037815E-2,6.588981E-1,-6.715254E-1,6.6300344E-1,-1.087838E0,-1.893468E-1,-8.1322044E-1,1.9665787E-1,4.846677E-1,-5.348434E-1,-6.9985723E-1,4.3948314E-1,-1.4632428E0,2.3667286E-1,-1.8768118E-1,7.871748E-3,-5.205826E-1,6.4804405E-2,-1.0571817E-1,-4.2855784E-1,-4.1742504E-1,-4.7954786E-1,1.0450265E-1,-5.062555E-1,-5.285936E-1,-1.412586E0,-0E0,5.009623E-1,-1.1686658E0,-1.5184236E-1,-0E0,-3.0157492E-1,-0E0,-5.157016E-1,2.634267E-1,-8.0476403E-1,3.007018E-1,-0E0,-1.6088996E0,-2.7353945E-1,6.7487544E-1,1.6732818E-1,-3.3121848E-1,-0E0,-0E0,1.08309776E-1,-4.326573E-1,1.6134117E-2,-2.5698715E-1,5.371461E-2,8.704723E-3,6.4888406E-1,-5.3665245E-1,-2.243799E-2,-1.7072056E-1,-4.3070304E-1,-7.7692145E-1,-0E0,-6.006577E-1,-0E0,-2.4996E-1,-0E0,1.9824509E-2,-0E0,2.2276387E-1,-0E0,-5.730728E-1,-1.8210205E-1,-8.321646E-1,-0E0,-2.844374E-1,1.4717984E-2,-1.4478877E-1,9.992721E-2,-1.4792489E-1,-3.615724E-1,7.6406825E-1,-9.615769E-3],"categories":[],"categories_nodes":[],"categories_segments":[],"categories_sizes":[],"default_left":[0,0,0,0,0,0,0,0,0,0,0,0,0,0,0,0,0,0,0,0,0,0,0,0,0,0,0,0,0,0,0,0,0,0,0,0,0,0,0,0,0,0,0,0,0,0,0,0,0,0,0,0,0,0,0,0,0,0,0,0,0,0,0,0,0,0,0,0,0,0,0,0,0,0,0,0,0,0,0,0,0,0,0,0,0,0,0,0,0,0,0,0,0,0,0,0,0,0,0,0,0,0,0,0,0,0,0,0,0,0,0,0,0,0,0,0,0,0,0,0,0,0,0,0,0,0,0,0,0,0,0,0,0,0,0,0,0,0,0,0,0,0,0,0,0,0,0,0,0,0,0,0,0,0,0],"id":3,"left_children":[1,3,5,-1,7,9,11,13,15,17,19,21,-1,-1,23,-1,25,27,29,31,33,35,-1,37,39,-1,-1,41,43,-1,45,47,49,-1,-1,51,53,55,57,-1,-1,59,-1,61,63,65,67,69,71,-1,-1,73,-1,-1,75,-1,-1,-1,-1,77,79,81,83,-1,85,87,-1,-1,89,-1,91,93,-1,95,-1,-1,97,99,-1,101,103,105,107,109,-1,-1,-1,111,113,115,117,119,-1,-1,121,123,-1,125,-1,127,129,131,133,-1,-1,135,137,139,-1,-1,-1,141,143,-1,-1,145,147,-1,149,-1,-1,-1,-1,151,153,-1,-1,-1,-1,-1,-1,-1,-1,-1,-1,-1,-1,-1,-1,-1,-1,-1,-1,-1,-1,-1,-1,-1,-1,-1,-1,-1,-1,-1,-1],"loss_changes":[2.2335574E2,1.4437895E2,1.8675403E2,0E0,5.2332897E0,2.1858006E1,1.5494583E1,1.4596176E0,1.0843475E0,2.5089989E1,3.8798141E0,1.8595558E1,0E0,0E0,1.2893715E0,0E0,5.53556E-2,2.0089739E1,8.4465576E1,1.9602754E0,4.9058886E0,1.8147709E1,0E0,1.7744064E-1,2.5867729E-2,0E0,0E0,5.4554504E1,2.7447866E1,0E0,4.1882217E1,2.3479195E0,6.2012655E-1,0E0,0E0,1.0350515E1,2.1710472E0,1.7391968E-1,2.5718966E-1,0E0,0E0,3.944369E1,0E0,6.6554375E0,1.7485481E1,1.2717537E1,8.926314E1,6.5415664E0,8.7539595E-1,0E0,0E0,9.545269E0,0E0,0E0,4.412592E0,0E0,0E0,0E0,0E0,7.303261E1,1.4411892E1,2.7116394E0,7.379347E0,0E0,1.0113424E1,1.3155537E1,0E0,0E0,1.5252808E2,0E0,1.3226429E-1,2.8853946E0,0E0,9.049508E0,0E0,0E0,1.5863743E0,4.418309E1,0E0,7.247326E0,2.4478033E0,1.4940681E0,9.688269E-1,2.2948341E0,0E0,0E0,0E0,9.056801E0,6.791899E-1,7.2135468E0,9.3430725E1,9.281132E-1,0E0,0E0,1.7083381E-1,1.0283186E1,0E0,2.0561752E0,0E0,1.2423863E2,3.311475E1,3.5707436E0,1.3649464E0,0E0,0E0,1.1440659E0,6.592603E-1,4.747634E-3,0E0,0E0,0E0,8.015536E-1,9.394386E0,0E0,0E0,4.78582E0,1.268101E0,0E0,1.7247765E1,0E0,0E0,0E0,0E0,1.5275211E0,1.1111625E1,0E0,0E0,0E0,0E0,0E0,0E0,0E0,0E0,0E0,0E0,0E0,0E0,0E0,0E0,0E0,0E0,0E0,0E0,0E0,0E0,0E0,0E0,0E0,0E0,0E0,0E0,0E0,0E0,0E0,0E0],"parents":[2147483647,0,0,1,1,2,2,4,4,5,5,6,6,7,7,8,8,9,9,10,10,11,11,14,14,16,16,17,17,18,18,19,19,20,20,21,21,23,23,24,24,27,27,28,28,30,30,31,31,32,32,35,35,36,36,37,37,38,38,41,41,43,43,44,44,45,45,46,46,47,47,48,48,51,51,54,54,59,59,60,60,61,61,62,62,64,64,65,65,68,68,70,70,71,71,73,73,76,76,77,77,79,79,80,80,81,81,82,82,83,83,87,87,88,88,89,89,90,90,91,91,94,94,95,95,97,97,99,99,100,100,101,101,102,102,105,105,106,106,107,107,111,111,112,112,115,115,116,116,118,118,123,123,124,124],"right_children":[2,4,6,-1,8,10,12,14,16,18,20,22,-1,-1,24,-1,26,28,30,32,34,36,-1,38,40,-1,-1,42,44,-1,46,48,50,-1,-1,52,54,56,58,-1,-1,60,-1,62,64,66,68,70,72,-1,-1,74,-1,-1,76,-1,-1,-1,-1,78,80,82,84,-1,86,88,-1,-1,90,-1,92,94,-1,96,-1,-1,98,100,-1,102,104,106,108,110,-1,-1,-1,112,114,116,118,120,-1,-1,122,124,-1,126,-1,128,130,132,134,-1,-1,136,138,140,-1,-1,-1,142,144,-1,-1,146,148,-1,150,-1,-1,-1,-1,152,154,-1,-1,-1,-1,-1,-1,-1,-1,-1,-1,-1,-1,-1,-1,-1,-1,-1,-1,-1,-1,-1,-1,-1,-1,-1,-1,-1,-1,-1,-1],"split_conditions":[1E0,1E0,1E0,-5.485008E-1,1E0,1.2983257E0,1E0,-1.9369727E-2,1.0989628E-1,1.0989628E-1,2.1289213E0,1E0,-5.1524E-1,-0E0,1E0,-3.042552E-1,2.599125E-1,1.0943401E-1,1.257202E-1,1E0,1E0,1E0,-5.180964E-1,1E0,1.01389125E-1,-0E0,8.301068E-2,9.585176E-2,1E0,6.695694E-1,1.2605855E-1,1E0,1.5589046E0,-9.4333714E-1,-2.082191E-1,1E0,6.2139977E-2,1E0,1.0989628E-1,-0E0,4.786601E-2,9.314782E-2,6.1068934E-1,1E0,1E0,1E0,1.4200638E-1,1E0,1E0,1.6669074E-1,-5.825108E-2,1E0,-5.6743985E-1,-5.068056E-1,7.6861635E-2,4.7678453E-1,-0E0,-0E0,1.514559E-1,7.8643076E-2,1E0,1E0,1E0,-5.794628E-1,1E0,1E0,2.6417202E-1,6.7390656E-1,1.4268434E-1,-7.238405E-1,1.5589046E0,1E0,1.9284105E-1,3.8805425E-1,-5.0838095E-1,2.8366458E-1,2.0557223E-1,7.6861635E-2,6.588981E-1,1E0,1E0,1E0,1E0,1E0,1.9665787E-1,4.846677E-1,-5.348434E-1,1E0,1E0,1E0,1.5829258E-1,1E0,7.871748E-3,-5.205826E-1,1.5589046E0,4.6771742E-2,-4.2855784E-1,1.7539594E-1,-4.7954786E-1,6.2139977E-2,1E0,1E0,1E0,-0E0,5.009623E-1,1E0,1E0,1E0,-3.0157492E-1,-0E0,-5.157016E-1,1E0,1E0,3.007018E-1,-0E0,1E0,1E0,6.7487544E-1,1.5975226E-1,-3.3121848E-1,-0E0,-0E0,1.08309776E-1,1E0,6.0575448E-2,-2.5698715E-1,5.371461E-2,8.704723E-3,6.4888406E-1,-5.3665245E-1,-2.243799E-2,-1.7072056E-1,-4.3070304E-1,-7.7692145E-1,-0E0,-6.006577E-1,-0E0,-2.4996E-1,-0E0,1.9824509E-2,-0E0,2.2276387E-1,-0E0,-5.730728E-1,-1.8210205E-1,-8.321646E-1,-0E0,-2.844374E-1,1.4717984E-2,-1.4478877E-1,9.992721E-2,-1.4792489E-1,-3.615724E-1,7.6406825E-1,-9.615769E-3],"split_indices":[23,42,44,0,1,48,0,48,48,48,48,3,0,0,21,0,48,48,48,5,29,5,0,0,48,0,0,48,0,0,48,29,48,0,0,11,48,3,48,0,0,48,0,3,30,26,48,0,3,0,0,2,0,0,48,0,0,0,0,48,28,21,29,0,47,6,0,0,48,0,48,1,0,48,0,0,48,48,0,0,6,28,5,19,0,0,0,40,30,4,48,26,0,0,48,48,0,48,0,48,30,5,26,0,0,6,4,1,0,0,0,29,29,0,0,8,21,0,48,0,0,0,0,4,48,0,0,0,0,0,0,0,0,0,0,0,0,0,0,0,0,0,0,0,0,0,0,0,0,0,0,0,0,0,0],"split_type":[0,0,0,0,0,0,0,0,0,0,0,0,0,0,0,0,0,0,0,0,0,0,0,0,0,0,0,0,0,0,0,0,0,0,0,0,0,0,0,0,0,0,0,0,0,0,0,0,0,0,0,0,0,0,0,0,0,0,0,0,0,0,0,0,0,0,0,0,0,0,0,0,0,0,0,0,0,0,0,0,0,0,0,0,0,0,0,0,0,0,0,0,0,0,0,0,0,0,0,0,0,0,0,0,0,0,0,0,0,0,0,0,0,0,0,0,0,0,0,0,0,0,0,0,0,0,0,0,0,0,0,0,0,0,0,0,0,0,0,0,0,0,0,0,0,0,0,0,0,0,0,0,0,0,0],"sum_hessian":[3.996922E3,3.3449442E2,3.6624275E3,2.8318106E2,5.1313362E1,3.1754822E3,4.869455E2,4.5636585E1,5.676776E0,3.1322363E3,4.3245827E1,4.2740936E2,5.9536148E1,1.2753682E0,4.4361217E1,1.8462389E0,3.830537E0,1.6139104E3,1.5183259E3,2.8895432E1,1.4350396E1,3.7565518E2,5.1754173E1,4.1336212E1,3.025007E0,1.2909312E0,2.5396059E0,1.5226625E3,9.124787E1,6.4660645E1,1.4536653E3,2.2523108E1,6.3723254E0,4.250622E0,1.0099773E1,2.8907028E2,8.65849E1,3.808429E1,3.2519233E0,1.2024426E0,1.8225644E0,1.4831793E3,3.9483124E1,6.319777E1,2.8050102E1,1.0126255E2,1.3524027E3,1.3173005E1,9.350101E0,4.607467E0,1.7648579E0,2.7671252E2,1.235776E1,3.8655632E1,4.7929264E1,3.6677273E1,1.4070146E0,1.0152874E0,2.236636E0,1.3830651E3,1.00114296E2,4.582534E1,1.737243E1,4.5948696E0,2.3455233E1,9.092181E1,1.0340741E1,6.633041E1,1.2860723E3,5.3535967E0,7.8194084E0,6.953024E0,2.3970778E0,2.6332495E2,1.3387557E1,1.5999125E0,4.6329353E1,1.3373645E3,4.570052E1,9.279796E1,7.316342E0,3.854863E1,7.2767105E0,8.573029E0,8.799401E0,2.2016895E1,1.4383373E0,8.116776E1,9.7540455E0,5.4030132E1,1.2320422E3,2.711948E0,5.1074605E0,1.9799943E0,4.9730296E0,2.4649268E2,1.6832285E1,3.0463978E1,1.58653755E1,1.2073331E3,1.3003139E2,8.036105E1,1.2436899E1,2.2363198E0,5.080022E0,3.4272106E1,4.2765203E0,4.797873E0,2.4788375E0,1.4645476E0,7.108481E0,6.886907E0,7.428085E1,6.6206493E0,3.133396E0,4.7073917E1,6.956214E0,7.0326096E1,1.1617161E3,1.4129646E0,1.2989833E0,1.7978084E0,3.1752214E0,6.846141E1,1.7803127E2,2.735747E1,3.1065073E0,1.126934E3,8.0399216E1,5.676804E1,7.326334E1,5.4656406E1,2.5704649E1,1.067023E1,1.7666695E0,3.3173645E1,1.0984632E0,2.1246645E0,2.151856E0,2.0200377E0,2.7778354E0,5.7954106E0,1.0914965E0,3.9669952E1,3.4610905E1,4.5652824E1,1.4210907E0,4.749476E0,2.2067378E0,7.4635925E1,1.0870802E3,5.025455E1,1.8206858E1,3.7505116E0,1.7428076E2],"tree_param":{"num_deleted":"0","num_feature":"49","num_nodes":"155","size_leaf_vector":"1"}},{"base_weights":[-2.1104572E-2,-7.50322E-1,2.4945594E-2,-5.226925E-1,5.4715896E-1,8.0702774E-2,-3.9039385E-1,-1.0005635E-1,6.854266E-1,1.1713426E-1,-9.2602886E-2,-3.2688978E-1,-4.7052407E-1,-1.8889907E-1,-0E0,-1.6043719E-2,3.7452507E-1,1.3298589E-1,-5.739157E-1,-1.1297618E0,-3.7945315E-2,-2.5816318E-1,-4.7513697E-1,6.691924E-2,-0E0,4.783754E-2,2.7087408E-1,-5.210163E-1,-2.0611894E-1,-6.5786076E-1,-2.2680952E-1,5.911142E-1,-7.373516E-2,-1.6350731E-1,-6.3468367E-1,1.7846362E-1,-3.6328647E-2,5.7453287E-1,2.2545484E-1,-6.7085224E-1,-0E0,-4.5199487E-1,1.0782602E-2,-1.0110789E-2,-5.362357E-1,-4.687811E-1,-1.1475136E-1,-4.5816576E-1,-4.0241656E-1,4.8145846E-2,5.658108E-1,-5.154406E-1,9.049878E-2,-1.4832756E-1,2.7600753E-1,2.9446945E-1,-4.3318504E-1,-3.1343767E-1,4.9522933E-2,-9.6110396E-2,-1.2882035E0,-8.038011E-2,-6.460045E-1,-0E0,-5.673387E-1,1.4421278E-1,-6.1298025E-1,6.9242376E-1,2.141478E-1,-1.591894E0,-2.6178214E-1,6.3513297E-1,6.7130113E-3,-4.9270686E-2,-7.31218E-1,5.7574105E-1,2.2096063E-1,-0E0,2.655378E-1,-9.8880005E-1,1.668185E-1,-4.2911205E-1,4.154973E-1,6.0654444E-1,-7.868204E-5,-8.022566E-1,1.4637208E-1,-1.1067635E0,-8.3198056E-2,-9.1415596E-1,-3.477691E-2,2.1298145E-1,-6.197928E-3,-3.1563994E-1,-4.1464704E-1,-0E0,6.1010194E-1,-1.4571502E0,2.579552E-1,-1.1652406E0,7.097856E-1,-6.2574947E-1,-1.2554243E0,-3.885741E-1,-0E0,8.184745E-2,-2.4842323E-1,3.8851702E-1,-1.5217331E-1,-9.466394E-1,-1.8512413E-1,-5.563971E-1,2.9315332E-1,1.0176019E-1,-2.3403545E-1,-6.957228E-1,1.3716803E-1,-5.009911E-1,2.658129E-1,2.7781275E-1,-0E0,3.8831912E-2,-3.2495004E-1,-0E0,-7.1341485E-1,-5.916969E-1,3.346775E-1,2.7036238E-1,-2.9234385E-1,-0E0,-4.929479E-1,2.4141656E-2,-5.497983E-1,-9.655682E-2,4.14708E-3,-2.3257923E-1,3.2005865E-2,1.8064833E-1,-6.660588E-2,-8.351828E-1,2.944971E-1,1.930177E-1,-4.566526E-1,-2.1145912E-1,-8.270545E-1,6.8280745E-1,1.02105625E-1,-2.6953772E-1,-0E0,-2.949058E-2,2.5240517E-1,-4.1395854E-2,9.272521E-2,-2.6757583E-1,-0E0,2.8125447E-1,-2.2410786E-1,3.554966E-2,-4.1262528E-1,1.7277065E-1,-2.0858838E-1,-2.0541827E-1,-7.042572E-1,5.7628965E-1,1.1293341E-1,-0E0,-1.5384814E-1,-3.005208E-1,7.372868E-2,-5.210813E-2,7.352945E-2,-5.61364E-1,-8.8878736E-2,-1.9196007E-1,2.0886643E-1,2.2407645E-1,-3.611602E-1,3.22544E-2,-4.5838493E-1,-6.279779E-2,-4.7806907E-1,3.0391617E-2,-0E0],"categories":[],"categories_nodes":[],"categories_segments":[],"categories_sizes":[],"default_left":[0,0,0,0,0,0,0,0,0,0,0,0,0,0,0,0,0,0,0,0,0,0,0,0,0,0,0,0,0,0,0,0,0,0,0,0,0,0,0,0,0,0,0,0,0,0,0,0,0,0,0,0,0,0,0,0,0,0,0,0,0,0,0,0,0,0,0,0,0,0,0,0,0,0,0,0,0,0,0,0,0,0,0,0,0,0,0,0,0,0,0,0,0,0,0,0,0,0,0,0,0,0,0,0,0,0,0,0,0,0,0,0,0,0,0,0,0,0,0,0,0,0,0,0,0,0,0,0,0,0,0,0,0,0,0,0,0,0,0,0,0,0,0,0,0,0,0,0,0,0,0,0,0,0,0,0,0,0,0,0,0,0,0,0,0,0,0,0,0,0,0,0,0,0,0,0,0,0,0,0,0,0,0],"id":4,"left_children":[1,3,5,-1,7,9,11,13,15,17,19,21,-1,-1,23,-1,-1,25,27,29,31,33,-1,-1,-1,35,37,-1,39,-1,41,-1,43,45,47,49,51,-1,53,-1,55,-1,-1,57,59,-1,61,-1,63,65,67,69,71,73,75,77,79,81,83,85,87,89,-1,91,93,95,97,-1,99,101,103,-1,105,107,109,-1,111,113,-1,115,-1,117,119,-1,121,123,125,-1,127,129,131,-1,133,135,-1,137,-1,139,141,143,145,-1,-1,147,149,151,153,155,157,-1,159,161,163,-1,165,-1,-1,167,-1,-1,-1,169,171,173,-1,-1,175,-1,-1,-1,-1,177,179,-1,181,-1,-1,-1,-1,-1,-1,-1,-1,-1,-1,-1,-1,-1,-1,-1,-1,-1,-1,-1,-1,-1,-1,-1,-1,-1,-1,-1,-1,-1,-1,-1,-1,-1,-1,-1,-1,-1,-1,-1,-1,-1,-1,-1,-1,-1,-1,-1,-1],"loss_changes":[1.23496574E2,8.4702446E1,7.933972E1,0E0,4.2785206E0,1.9191704E1,1.2585327E1,4.8607564E-1,2.3284473E0,2.7155151E1,2.8426619E1,1.4237331E1,0E0,0E0,4.239851E-2,0E0,0E0,2.8529171E1,8.025154E0,2.394085E0,2.0751816E1,1.095525E1,0E0,0E0,0E0,1.6919254E1,3.5610336E1,0E0,7.3993416E0,0E0,1.9840626E0,0E0,1.3752807E1,9.004505E0,2.5232162E0,2.9774412E1,5.660858E1,0E0,1.6988632E1,0E0,3.919708E0,0E0,0E0,8.062002E0,1.7312277E1,0E0,8.87134E0,0E0,3.1476398E0,2.8447084E1,4.1210793E1,5.1020226E1,7.084145E1,5.2080507E0,3.6291153E1,1.7611527E0,6.4006634E0,6.3961654E0,2.185585E1,7.2440886E0,1.9903912E1,8.538738E0,0E0,4.4422644E-1,5.3195477E-1,6.28443E1,4.3082207E1,0E0,7.334902E1,4.4410477E0,5.639947E0,0E0,1.2948258E1,3.9548697E0,6.212684E0,0E0,4.157286E1,4.1194484E-1,0E0,5.760351E0,0E0,4.736784E0,7.2174466E-1,0E0,4.637365E0,6.2926345E0,6.5391173E0,0E0,3.5605168E0,6.0917187E-1,7.808064E0,0E0,2.0747066E-1,1.484273E0,0E0,1.6782574E1,0E0,1.4892292E1,4.0338E0,7.4067574E0,2.4571285E1,0E0,0E0,6.3733463E0,1.9291053E0,9.183374E0,1.0967192E1,2.679539E0,1.23595495E1,0E0,1.5651565E0,5.3256454E0,3.775958E1,0E0,4.774192E-2,0E0,0E0,4.5727644E0,0E0,0E0,0E0,4.774715E0,3.1461682E0,1.0370755E0,0E0,0E0,3.1557047E0,0E0,0E0,0E0,0E0,7.3417964E0,3.344665E0,0E0,1.2886786E-2,0E0,0E0,0E0,0E0,0E0,0E0,0E0,0E0,0E0,0E0,0E0,0E0,0E0,0E0,0E0,0E0,0E0,0E0,0E0,0E0,0E0,0E0,0E0,0E0,0E0,0E0,0E0,0E0,0E0,0E0,0E0,0E0,0E0,0E0,0E0,0E0,0E0,0E0,0E0,0E0,0E0,0E0,0E0,0E0,0E0,0E0,0E0,0E0],"parents":[2147483647,0,0,1,1,2,2,4,4,5,5,6,6,7,7,8,8,9,9,10,10,11,11,14,14,17,17,18,18,19,19,20,20,21,21,25,25,26,26,28,28,30,30,32,32,33,33,34,34,35,35,36,36,38,38,40,40,43,43,44,44,46,46,48,48,49,49,50,50,51,51,52,52,53,53,54,54,55,55,56,56,57,57,58,58,59,59,60,60,61,61,63,63,64,64,65,65,66,66,68,68,69,69,70,70,72,72,73,73,74,74,76,76,77,77,79,79,81,81,82,82,84,84,85,85,86,86,88,88,89,89,90,90,92,92,93,93,95,95,97,97,98,98,99,99,100,100,103,103,104,104,105,105,106,106,107,107,108,108,110,110,111,111,112,112,114,114,117,117,121,121,122,122,123,123,126,126,131,131,132,132,134,134],"right_children":[2,4,6,-1,8,10,12,14,16,18,20,22,-1,-1,24,-1,-1,26,28,30,32,34,-1,-1,-1,36,38,-1,40,-1,42,-1,44,46,48,50,52,-1,54,-1,56,-1,-1,58,60,-1,62,-1,64,66,68,70,72,74,76,78,80,82,84,86,88,90,-1,92,94,96,98,-1,100,102,104,-1,106,108,110,-1,112,114,-1,116,-1,118,120,-1,122,124,126,-1,128,130,132,-1,134,136,-1,138,-1,140,142,144,146,-1,-1,148,150,152,154,156,158,-1,160,162,164,-1,166,-1,-1,168,-1,-1,-1,170,172,174,-1,-1,176,-1,-1,-1,-1,178,180,-1,182,-1,-1,-1,-1,-1,-1,-1,-1,-1,-1,-1,-1,-1,-1,-1,-1,-1,-1,-1,-1,-1,-1,-1,-1,-1,-1,-1,-1,-1,-1,-1,-1,-1,-1,-1,-1,-1,-1,-1,-1,-1,-1,-1,-1,-1,-1,-1,-1],"split_conditions":[1E0,1E0,1E0,-5.226925E-1,6.2139977E-2,2.885821E-1,1E0,1E0,1E0,1E0,2.955638E-1,1E0,-4.7052407E-1,-1.8889907E-1,1.0357981E-2,-1.6043719E-2,3.7452507E-1,1.0989628E-1,1E0,1E0,3.0486825E-1,1E0,-4.7513697E-1,6.691924E-2,-0E0,4.428926E-2,1.257202E-1,-5.210163E-1,1.3084917E-2,-6.5786076E-1,1E0,5.911142E-1,1E0,1E0,6.2139977E-2,-2.593281E-3,4.6771742E-2,5.7453287E-1,1.2605855E-1,-6.7085224E-1,1.0943401E-1,-4.5199487E-1,1.0782602E-2,3.5500902E-1,5.654473E-1,-4.687811E-1,1E0,-4.5816576E-1,1.05072E-1,-4.569301E-3,1.1716886E-2,1E0,6.0575448E-2,1E0,1.4200638E-1,6.2139977E-2,2.124953E-1,1E0,3.70013E-1,3.5500902E-1,1E0,1E0,-6.460045E-1,7.6861635E-2,2.0557223E-1,-1.9369727E-2,1E0,6.9242376E-1,1.3084917E-2,1E0,1E0,6.3513297E-1,1E0,1E0,1E0,5.7574105E-1,1.4268434E-1,4.428926E-2,2.655378E-1,1E0,1.668185E-1,1E0,1E0,6.0654444E-1,1.2983257E0,1E0,1E0,-1.1067635E0,1E0,-3.45189E-2,1E0,2.1298145E-1,7.8643076E-2,1.7539594E-1,-4.1464704E-1,-5.0410395E0,6.1010194E-1,1E0,1E0,1E0,2.8003074E-2,-6.2574947E-1,-1.2554243E0,1E0,1E0,6.2139977E-2,1E0,1E0,1E0,-9.466394E-1,1E0,1E0,1.5829258E-1,1.0176019E-1,6.0575448E-2,-6.957228E-1,1.3716803E-1,1E0,2.658129E-1,2.7781275E-1,-0E0,5.188444E-1,1E0,3.323327E-1,-7.1341485E-1,-5.916969E-1,1E0,2.7036238E-1,-2.9234385E-1,-0E0,-4.929479E-1,1E0,1E0,-9.655682E-2,1E0,-2.3257923E-1,3.2005865E-2,1.8064833E-1,-6.660588E-2,-8.351828E-1,2.944971E-1,1.930177E-1,-4.566526E-1,-2.1145912E-1,-8.270545E-1,6.8280745E-1,1.02105625E-1,-2.6953772E-1,-0E0,-2.949058E-2,2.5240517E-1,-4.1395854E-2,9.272521E-2,-2.6757583E-1,-0E0,2.8125447E-1,-2.2410786E-1,3.554966E-2,-4.1262528E-1,1.7277065E-1,-2.0858838E-1,-2.0541827E-1,-7.042572E-1,5.7628965E-1,1.1293341E-1,-0E0,-1.5384814E-1,-3.005208E-1,7.372868E-2,-5.210813E-2,7.352945E-2,-5.61364E-1,-8.8878736E-2,-1.9196007E-1,2.0886643E-1,2.2407645E-1,-3.611602E-1,3.22544E-2,-4.5838493E-1,-6.279779E-2,-4.7806907E-1,3.0391617E-2,-0E0],"split_indices":[23,42,44,0,48,48,0,29,19,2,48,3,0,0,48,0,0,48,29,0,48,5,0,0,0,48,48,0,48,0,30,0,3,19,48,48,48,0,48,0,48,0,0,48,48,0,7,0,48,48,48,45,48,3,48,48,48,6,48,48,29,40,0,48,48,48,5,0,48,1,0,0,5,19,30,0,48,48,0,42,0,12,28,0,48,30,36,0,19,48,21,0,48,48,0,48,0,47,21,30,48,0,0,3,26,48,29,1,5,0,40,3,48,0,48,0,0,4,0,0,0,48,19,48,0,0,21,0,0,0,0,11,1,0,21,0,0,0,0,0,0,0,0,0,0,0,0,0,0,0,0,0,0,0,0,0,0,0,0,0,0,0,0,0,0,0,0,0,0,0,0,0,0,0,0,0,0,0,0,0,0,0,0],"split_type":[0,0,0,0,0,0,0,0,0,0,0,0,0,0,0,0,0,0,0,0,0,0,0,0,0,0,0,0,0,0,0,0,0,0,0,0,0,0,0,0,0,0,0,0,0,0,0,0,0,0,0,0,0,0,0,0,0,0,0,0,0,0,0,0,0,0,0,0,0,0,0,0,0,0,0,0,0,0,0,0,0,0,0,0,0,0,0,0,0,0,0,0,0,0,0,0,0,0,0,0,0,0,0,0,0,0,0,0,0,0,0,0,0,0,0,0,0,0,0,0,0,0,0,0,0,0,0,0,0,0,0,0,0,0,0,0,0,0,0,0,0,0,0,0,0,0,0,0,0,0,0,0,0,0,0,0,0,0,0,0,0,0,0,0,0,0,0,0,0,0,0,0,0,0,0,0,0,0,0,0,0,0,0],"sum_hessian":[3.65446E3,2.1745294E2,3.437007E3,1.7794997E2,3.9502975E1,3.033049E3,4.0395786E2,5.729206E0,3.377377E1,2.5112422E3,5.21807E2,3.6524567E2,3.8712208E1,2.8775167E0,2.8516893E0,1.5110587E0,3.226271E1,2.457134E3,5.4108242E1,2.4221651E1,4.9758536E2,3.316953E2,3.355033E1,1.3669474E0,1.4847419E0,1.5243938E3,9.327402E2,2.1804407E1,3.2303837E1,1.878777E1,5.4338827E0,1.2470159E1,4.851152E2,2.6832864E2,6.336668E1,6.015492E2,9.228446E2,4.3590565E1,8.8914966E2,3.896344E0,2.8407492E1,1.8302794E0,3.6036031E0,4.292491E2,5.586608E1,1.3604355E1,2.5472429E2,2.536204E1,3.8004642E1,4.5288727E2,1.4866191E2,1.9416693E2,7.286776E2,1.03340836E2,7.858088E2,1.6696539E1,1.1710952E1,7.258066E1,3.5666846E2,3.6790394E1,1.9075691E1,2.4936163E2,5.3626595E0,9.601715E0,2.8402925E1,3.9743167E2,5.545558E1,4.2919384E1,1.0574252E2,3.5270603E1,1.5889633E2,4.6587948E1,6.8208966E2,9.072335E1,1.2617485E1,4.4233162E1,7.415756E2,6.011514E0,1.0685025E1,7.378981E0,4.3319707E0,6.417926E1,8.401401E0,1.4447999E1,3.4222046E2,9.868194E0,2.69222E1,9.847206E0,9.228484E0,1.0806643E1,2.3855498E2,1.4463403E0,8.155375E0,1.7556355E1,1.0846572E1,3.5065765E2,4.6774014E1,2.8401762E1,2.705382E1,2.7061161E1,7.8681366E1,2.825469E1,7.015914E0,1.08925446E2,4.9970886E1,5.304712E2,1.5161847E2,1.488848E1,7.583488E1,2.6596806E0,9.957804E0,6.12702E1,6.803054E2,1.0121696E0,4.9993443E0,6.1186576E0,1.2603238E0,6.1125465E1,3.053791E0,6.5951858E0,1.8062145E0,3.036535E2,3.856695E1,4.341377E0,5.526817E0,2.025272E0,2.4896927E1,3.188835E0,6.0396495E0,1.0290067E0,9.777636E0,2.1317874E2,2.5376242E1,4.570595E0,3.5847802E0,1.4323922E1,3.2324321E0,9.231095E1,2.583467E2,2.6330418E1,2.0713437E0,2.5760984E1,1.292836E0,1.2297958E1,1.4763203E1,3.264949E1,4.6031876E1,7.804606E1,3.0879389E1,4.4015335E1,5.9555497E0,2.0123314E2,3.2923807E2,7.018298E1,8.1435486E1,1.3586195E1,1.3022852E0,5.6501045E1,1.9333828E1,1.5697095E0,8.388094E0,5.4599136E1,6.671061E0,4.714522E1,6.331602E2,2.0243392E0,2.9750054E0,5.435428E1,6.7711883E0,1.2682318E2,1.768303E2,3.9167712E0,3.465018E1,1.563984E0,2.7773929E0,2.3857737E1,1.0391898E0,2.0632135E2,6.8573937E0,1.4259731E1,1.111651E1,2.509346E0,1.075434E0],"tree_param":{"num_deleted":"0","num_feature":"49","num_nodes":"183","size_leaf_vector":"1"}},{"base_weights":[-1.11433705E-2,-6.962692E-1,1.8890476E-2,-5.0496536E-1,3.730333E-1,5.6229096E-2,-2.8268382E-1,5.1745355E-1,-2.0741688E-1,8.029225E-2,-1.2510344E-1,-2.3300527E-1,-4.2591727E-1,5.966461E-1,-0E0,-3.0222398E-1,-0E0,9.6558854E-2,-2.1450254E-1,-7.5406563E-1,-1.0105894E-1,-1.8165953E-1,-8.658049E-1,6.5008324E-1,-0E0,-1.1897892E-2,1.0611358E-1,-2.6637825E-1,1.0640791E-1,-5.702165E-1,4.2414218E-1,2.7026343E-1,-2.1172856E-1,-4.255367E-1,-1.4347528E-1,-0E0,-4.505383E-1,-0E0,6.9904596E-1,-3.0841327E-1,8.112332E-2,1.3154033E-1,-6.23378E-3,-4.190589E-1,-1.1401186E0,-7.365571E-1,5.6557596E-1,5.740927E-1,2.6541883E-2,-6.122692E-1,-1.1172978E-1,-8.501493E-1,-1.092237E-1,7.905846E-1,2.6504314E-2,-1.9470675E-1,-5.914699E-1,-7.724763E-2,2.660394E-1,8.485499E-2,3.384198E-1,4.1866504E-2,-2.385455E-1,3.498357E-1,-6.133984E-1,6.348898E-1,-3.0572468E-1,1.0287522E0,1.527415E-1,1.6546814E-1,-5.391531E-1,-3.8531274E-1,-0E0,4.283027E-1,-1.4862168E-1,-0E0,-4.5651817E-1,-7.749687E-2,-4.128994E-1,4.3320888E-1,-0E0,-5.6734227E-2,2.1543834E-1,-9.183833E-2,-4.187199E-1,-7.300274E-1,-0E0,1.1939788E-1,-7.113213E-1,6.198366E-1,2.2125883E-1,-4.3888968E-1,7.164161E-2,-1.1151308E0,-7.385045E-2,5.450459E-1,-2.7833283E-1,2.5843704E-1,-7.217654E-1,-1.548976E-1,3.6537632E-1,-0E0,5.666298E-1,-3.1631702E-1,3.1424582E-1,-3.7222436E-1,2.5359285E-1,-4.510663E-1,2.78764E-1,-1.19395025E-1,-7.235655E-1,-3.4172478E-1,4.9554877E-4,-0E0,4.087144E-2,-4.1616553E-1,-0E0,-3.889116E-1,-0E0,9.2340104E-2,6.2210554E-1,-1.3451151E0,2.4865384E-1,-3.8581902E-1,3.6337972E-1,-3.7056464E-1,-1.1062408E-1,4.4889194E-1,4.902994E-2,-1.7840032E-1,2.9872808E-1,-5.1659174E-2,6.8694896E-1,-2.0569198E-1,4.0497392E-1,-7.2209185E-1,-5.26036E-1,-4.2599127E-1,-0E0,7.2277915E-1,1.0151145E-1,-0E0,-3.9181408E-1,-4.961442E-2,-5.9630424E-1,-2.2011018E-1,-3.9315364E-1,6.64741E-1,-2.1460406E-2,-0E0,-2.623565E-1,-1.8281761E-1,3.252859E-2,4.864746E-2,-4.3395236E-1,-3.7252283E-1,-9.385883E-1,-5.223863E-2,-9.327244E-1,6.1584604E-1,1.2771778E-1,-0E0,-1.11236304E-1,9.785226E-3,2.0630272E-1,-4.075612E-1,-0E0,3.5569835E-1,-2.4316414E-1,3.96938E-1,-0E0,6.871069E-3,-3.7500656E-1,-4.2768985E-2,1.2808725E-1,-0E0,5.826431E-1,-1.8648931E-1,2.0723294E-1,-9.186841E-2,6.125577E-2,2.4117846E-2,-5.03237E-1,-5.577834E-1,2.702851E-1,-3.4119317E-1,-6.455661E-2,8.65606E-3,-2.781169E-1],"categories":[],"categories_nodes":[],"categories_segments":[],"categories_sizes":[],"default_left":[0,0,0,0,0,0,0,0,0,0,0,0,0,0,0,0,0,0,0,0,0,0,0,0,0,0,0,0,0,0,0,0,0,0,0,0,0,0,0,0,0,0,0,0,0,0,0,0,0,0,0,0,0,0,0,0,0,0,0,0,0,0,0,0,0,0,0,0,0,0,0,0,0,0,0,0,0,0,0,0,0,0,0,0,0,0,0,0,0,0,0,0,0,0,0,0,0,0,0,0,0,0,0,0,0,0,0,0,0,0,0,0,0,0,0,0,0,0,0,0,0,0,0,0,0,0,0,0,0,0,0,0,0,0,0,0,0,0,0,0,0,0,0,0,0,0,0,0,0,0,0,0,0,0,0,0,0,0,0,0,0,0,0,0,0,0,0,0,0,0,0,0,0,0,0,0,0,0,0,0,0,0,0,0,0,0,0,0,0],"id":5,"left_children":[1,3,5,-1,7,9,11,13,15,17,19,21,-1,23,-1,-1,25,27,29,-1,31,33,35,37,-1,-1,-1,39,41,43,45,47,49,-1,51,-1,-1,-1,53,55,57,59,61,63,-1,-1,65,67,69,71,73,75,77,79,81,83,85,-1,-1,87,89,91,93,95,97,99,-1,101,103,105,-1,-1,107,-1,109,-1,-1,111,-1,-1,113,-1,-1,115,-1,117,-1,119,121,-1,123,125,127,-1,129,131,-1,133,135,-1,-1,-1,-1,137,-1,-1,139,141,-1,143,-1,145,147,-1,-1,149,151,-1,-1,153,-1,155,-1,157,159,-1,161,-1,163,165,167,-1,169,-1,-1,-1,171,-1,173,175,177,179,-1,181,183,185,-1,-1,187,-1,-1,-1,-1,-1,-1,-1,-1,-1,-1,-1,-1,-1,-1,-1,-1,-1,-1,-1,-1,-1,-1,-1,-1,-1,-1,-1,-1,-1,-1,-1,-1,-1,-1,-1,-1,-1,-1,-1,-1],"loss_changes":[7.017742E1,4.9056908E1,3.6213173E1,0E0,3.1413836E0,1.2541075E1,8.714176E0,1.4288092E0,7.334686E-1,1.2130444E1,9.317869E0,9.458767E0,0E0,9.6104145E-1,0E0,0E0,1.053774E-1,8.520603E0,3.002084E1,0E0,1.3529491E1,6.7124243E0,3.3018303E-1,7.164469E-1,0E0,0E0,0E0,1.1514196E0,6.806988E0,1.8370531E1,1.233099E1,4.861324E0,9.473219E0,0E0,6.024664E0,0E0,0E0,0E0,4.8725033E-1,9.552946E-1,9.7689396E-1,1.8253513E1,4.9466662E0,1.244009E1,0E0,0E0,4.020643E0,4.609391E0,6.0066457E0,3.990343E0,6.861109E0,3.723421E-1,5.429283E0,6.338005E-1,6.449161E-1,1.9799784E0,1.4687543E0,0E0,0E0,4.3095985E1,3.546544E1,4.655836E0,2.2618097E1,3.078843E0,6.8195267E0,4.5477085E0,0E0,1.3104963E0,4.6238213E0,2.9601707E0,0E0,0E0,3.2507558E0,0E0,5.9464197E0,0E0,0E0,5.944008E0,0E0,0E0,1.3726293E-2,0E0,0E0,1.4058938E0,0E0,2.1942568E-1,0E0,4.4857418E1,5.120499E1,0E0,2.7207075E1,9.036219E-1,5.195978E0,0E0,2.7428598E0,1.9769039E0,0E0,3.2939115E0,5.664465E0,0E0,0E0,0E0,0E0,2.0821168E0,0E0,0E0,1.8736737E0,8.808012E-1,0E0,5.9770317E0,0E0,2.3285713E0,7.4054103E0,0E0,0E0,7.3821986E-1,6.6644555E-1,0E0,0E0,6.39242E0,0E0,9.824295E0,0E0,2.227529E1,2.2217777E1,0E0,3.4223902E-1,0E0,3.0365045E0,7.3760977E0,5.133995E0,0E0,1.4005718E0,0E0,0E0,0E0,6.7156897E0,0E0,2.6428348E-1,2.8974366E0,4.963392E0,1.6751799E-1,0E0,1.7607725E1,1.5107577E1,1.3762083E0,0E0,0E0,4.7960086E0,0E0,0E0,0E0,0E0,0E0,0E0,0E0,0E0,0E0,0E0,0E0,0E0,0E0,0E0,0E0,0E0,0E0,0E0,0E0,0E0,0E0,0E0,0E0,0E0,0E0,0E0,0E0,0E0,0E0,0E0,0E0,0E0,0E0,0E0,0E0,0E0,0E0,0E0,0E0,0E0],"parents":[2147483647,0,0,1,1,2,2,4,4,5,5,6,6,7,7,8,8,9,9,10,10,11,11,13,13,16,16,17,17,18,18,20,20,21,21,22,22,23,23,27,27,28,28,29,29,30,30,31,31,32,32,34,34,38,38,39,39,40,40,41,41,42,42,43,43,46,46,47,47,48,48,49,49,50,50,51,51,52,52,53,53,54,54,55,55,56,56,59,59,60,60,61,61,62,62,63,63,64,64,65,65,67,67,68,68,69,69,72,72,74,74,77,77,80,80,83,83,85,85,87,87,88,88,90,90,91,91,92,92,94,94,95,95,97,97,98,98,103,103,106,106,107,107,109,109,111,111,112,112,115,115,116,116,119,119,121,121,123,123,124,124,126,126,128,128,129,129,130,130,132,132,136,136,138,138,139,139,140,140,141,141,143,143,144,144,145,145,148,148],"right_children":[2,4,6,-1,8,10,12,14,16,18,20,22,-1,24,-1,-1,26,28,30,-1,32,34,36,38,-1,-1,-1,40,42,44,46,48,50,-1,52,-1,-1,-1,54,56,58,60,62,64,-1,-1,66,68,70,72,74,76,78,80,82,84,86,-1,-1,88,90,92,94,96,98,100,-1,102,104,106,-1,-1,108,-1,110,-1,-1,112,-1,-1,114,-1,-1,116,-1,118,-1,120,122,-1,124,126,128,-1,130,132,-1,134,136,-1,-1,-1,-1,138,-1,-1,140,142,-1,144,-1,146,148,-1,-1,150,152,-1,-1,154,-1,156,-1,158,160,-1,162,-1,164,166,168,-1,170,-1,-1,-1,172,-1,174,176,178,180,-1,182,184,186,-1,-1,188,-1,-1,-1,-1,-1,-1,-1,-1,-1,-1,-1,-1,-1,-1,-1,-1,-1,-1,-1,-1,-1,-1,-1,-1,-1,-1,-1,-1,-1,-1,-1,-1,-1,-1,-1,-1,-1,-1,-1,-1],"split_conditions":[1E0,1E0,1E0,-5.0496536E-1,1E0,1E0,1E0,1E0,1E0,1E0,-2.675504E0,1E0,-4.2591727E-1,1E0,-0E0,-3.0222398E-1,2.599125E-1,1E0,1E0,-7.5406563E-1,4.428926E-2,1E0,-5.2072123E-2,-2.593281E-3,-0E0,-1.1897892E-2,1.0611358E-1,1E0,2.885821E-1,1E0,1E0,1E0,6.2139977E-2,-4.255367E-1,1E0,-0E0,-4.505383E-1,-0E0,2.0557223E-1,1.7539594E-1,1E0,1.7539594E-1,1E0,1E0,-1.1401186E0,-7.365571E-1,7.4459535E-1,1E0,1E0,1E0,7.6861635E-2,-3.45189E-2,1E0,1E0,2.599125E-1,1E0,1E0,-7.724763E-2,2.660394E-1,1.7457876E-1,1.9086495E-1,2.955638E-1,1E0,1E0,-4.646133E0,1.3084917E-2,-3.0572468E-1,-5.2072123E-2,-2.593281E-3,1E0,-5.391531E-1,-3.8531274E-1,1E0,4.283027E-1,1E0,-0E0,-4.5651817E-1,4.6771742E-2,-4.128994E-1,4.3320888E-1,1.05072E-1,-5.6734227E-2,2.1543834E-1,-1.9369727E-2,-4.187199E-1,9.2956275E-1,-0E0,1.5975226E-1,1E0,6.198366E-1,1.9347367E-1,1E0,3.0486825E-1,-1.1151308E0,1E0,3.3613723E-2,-2.7833283E-1,-5.401595E0,6.2139977E-2,-1.548976E-1,3.6537632E-1,-0E0,5.666298E-1,1E0,3.1424582E-1,-3.7222436E-1,-3.7141677E-2,5.8682784E-2,2.78764E-1,4.1887158E-1,-7.235655E-1,1E0,6.0575448E-2,-0E0,4.087144E-2,-5.0410395E0,1E0,-3.889116E-1,-0E0,1E0,6.2210554E-1,1E0,2.4865384E-1,1E0,2.0715114E-1,-3.7056464E-1,1E0,4.4889194E-1,1E0,1E0,6.30592E-1,-5.1659174E-2,1.9922282E-1,-2.0569198E-1,4.0497392E-1,-7.2209185E-1,1.2458016E-1,-4.2599127E-1,-3.45189E-2,-5.2072123E-2,-1.9369727E-2,4.6771742E-2,-3.9181408E-1,1E0,1E0,-5.2072123E-2,-3.9315364E-1,6.64741E-1,3.8805425E-1,-0E0,-2.623565E-1,-1.8281761E-1,3.252859E-2,4.864746E-2,-4.3395236E-1,-3.7252283E-1,-9.385883E-1,-5.223863E-2,-9.327244E-1,6.1584604E-1,1.2771778E-1,-0E0,-1.11236304E-1,9.785226E-3,2.0630272E-1,-4.075612E-1,-0E0,3.5569835E-1,-2.4316414E-1,3.96938E-1,-0E0,6.871069E-3,-3.7500656E-1,-4.2768985E-2,1.2808725E-1,-0E0,5.826431E-1,-1.8648931E-1,2.0723294E-1,-9.186841E-2,6.125577E-2,2.4117846E-2,-5.03237E-1,-5.577834E-1,2.702851E-1,-3.4119317E-1,-6.455661E-2,8.65606E-3,-2.781169E-1],"split_indices":[23,42,44,0,1,21,0,0,30,35,48,3,0,34,0,0,48,40,6,0,48,19,48,48,0,0,0,2,48,3,19,30,48,0,40,0,0,0,48,48,42,48,0,19,0,0,48,19,0,3,48,48,6,21,48,4,4,0,0,48,48,48,19,31,48,48,0,48,48,19,0,0,29,0,6,0,0,48,0,0,48,0,0,48,0,48,0,48,3,0,48,29,48,0,47,48,0,48,48,0,0,0,0,1,0,0,48,48,0,48,0,5,48,0,0,48,19,0,0,12,0,30,0,1,48,0,19,0,2,45,48,0,48,0,0,0,48,0,48,48,48,48,0,0,0,48,0,0,48,0,0,0,0,0,0,0,0,0,0,0,0,0,0,0,0,0,0,0,0,0,0,0,0,0,0,0,0,0,0,0,0,0,0,0,0,0,0,0,0],"split_type":[0,0,0,0,0,0,0,0,0,0,0,0,0,0,0,0,0,0,0,0,0,0,0,0,0,0,0,0,0,0,0,0,0,0,0,0,0,0,0,0,0,0,0,0,0,0,0,0,0,0,0,0,0,0,0,0,0,0,0,0,0,0,0,0,0,0,0,0,0,0,0,0,0,0,0,0,0,0,0,0,0,0,0,0,0,0,0,0,0,0,0,0,0,0,0,0,0,0,0,0,0,0,0,0,0,0,0,0,0,0,0,0,0,0,0,0,0,0,0,0,0,0,0,0,0,0,0,0,0,0,0,0,0,0,0,0,0,0,0,0,0,0,0,0,0,0,0,0,0,0,0,0,0,0,0,0,0,0,0,0,0,0,0,0,0,0,0,0,0,0,0,0,0,0,0,0,0,0,0,0,0,0,0,0,0,0,0,0,0],"sum_hessian":[3.375926E3,1.422421E2,3.233684E3,1.10747055E2,3.1495035E1,2.8810981E3,3.5258603E2,2.6686556E1,4.808479E0,2.5489233E3,3.321747E2,3.2719324E2,2.5392794E1,2.383833E1,2.8482268E0,1.6915009E0,3.116978E0,2.4194824E3,1.29441E2,3.9108813E0,3.2826385E2,3.052892E2,2.1903997E1,2.2196785E1,1.6415452E0,1.812718E0,1.3042599E0,6.055238E1,2.35893E3,8.42103E1,4.52307E1,7.2966446E1,2.552974E2,1.3912352E1,2.913769E2,1.3513502E0,2.0552647E1,1.6695737E0,2.052721E1,5.668565E1,3.8667269E0,1.9357407E3,4.2318918E2,7.90523E1,5.157995E0,1.9941578E0,4.3236546E1,3.0048578E1,4.2917866E1,4.7982548E1,2.0731485E2,1.1018947E1,2.8035794E2,1.6604746E1,3.9224637E0,4.416492E1,1.252073E1,1.5150325E0,2.3516946E0,1.5844342E3,3.5130655E2,3.477107E2,7.5478485E1,1.4749777E1,6.430253E1,4.2069324E1,1.1672213E0,1.26181135E1,1.7430466E1,3.9683323E1,3.2345402E0,3.663929E1,1.1343255E1,5.798217E0,2.0151663E2,1.1519881E0,9.866959E0,2.708687E2,9.489213E0,1.4502204E1,2.1025429E0,1.6111834E0,2.3112803E0,4.0398026E1,3.7668974E0,1.06313305E1,1.8894E0,1.5205688E3,6.3865337E1,3.833106E1,3.129755E2,1.7519018E1,3.3019168E2,4.3430343E0,7.113545E1,1.3372055E1,1.3777218E0,5.9357176E0,5.836681E1,2.7091045E0,3.9360218E1,1.3754556E0,1.1242659E1,7.8872895E0,9.543176E0,1.8443695E0,3.7838955E1,7.3521667E0,3.9910884E0,1.9890184E2,2.6147916E0,6.3882748E1,2.0698598E2,1.0482923E0,1.0542505E0,9.133485E0,3.126454E1,9.608482E0,1.0228477E0,1.4867751E3,3.3793762E1,4.2364334E1,2.1501003E1,5.771053E1,2.5526497E2,6.8802404E0,1.0638778E1,6.5873175E0,3.2360434E2,5.8050873E1,1.3084578E1,1.1845608E0,1.2187495E1,1.9763173E0,3.9594002E0,9.99365E0,4.8373158E1,3.0934741E0,4.793815E0,6.734462E0,3.1104494E1,4.1504855E0,3.2016811E0,1.7630591E2,2.2595936E1,5.3101376E1,1.0781374E1,3.1363652E0,2.0384961E2,1.0776854E0,8.0557995E0,3.0604742E0,2.8204065E1,1.4810729E3,5.702179E0,2.1921087E1,2.0443247E1,4.9957832E1,7.7526946E0,2.6049109E1,2.2921585E2,1.8462745E0,8.792503E0,3.028681E2,2.0736252E1,1.2930084E1,4.512079E1,9.472785E0,3.6117933E0,1.1096576E1,1.0909187E0,1.3151747E1,3.5221413E1,2.1138303E0,2.679985E0,2.6250756E0,4.1093864E0,1.1015716E1,2.0088778E1,3.0108962E0,1.1395891E0,1.598626E2,1.6443321E1,1.6127922E1,6.468014E0,5.857277E0,4.72441E1,1.8922775E2,1.4621851E1],"tree_param":{"num_deleted":"0","num_feature":"49","num_nodes":"189","size_leaf_vector":"1"}},{"base_weights":[-9.663605E-3,-6.288488E-1,9.074272E-3,-4.8955023E-1,2.5302082E-1,3.28346E-2,-1.9618893E-1,3.8518053E-1,-1.4354622E-1,3.702831E-2,-7.0152926E-1,-3.7144297E-1,-8.060599E-2,4.6555966E-1,-0E0,-1.9423142E-1,-0E0,3.9194718E-2,-6.5173256E-1,-4.4648382E-1,-4.2939384E-2,-5.2127254E-1,-1.8531096E-1,6.293373E-1,-1.4520183E-1,5.220214E-1,-0E0,-8.121887E-1,4.226582E-2,-1.15139864E-1,-0E0,-6.1303294E-1,-1.9764073E-2,2.642464E-1,-2.39782E-1,-8.0998105E-1,-7.683353E-2,-0E0,5.7302594E-1,-4.781752E-1,-0E0,4.495047E-2,-4.5836663E-1,-4.6102437E-1,-4.508456E-1,4.4970837E-1,-2.6325312E-1,-2.3619989E-2,6.0397124E-1,-3.1596994E-1,-1.4497492E-1,-4.8086503E-1,-3.774963E-2,1.06569E0,-1.4711685E-1,6.729157E-1,-0E0,7.1705796E-2,-3.4807477E-2,-1.6768569E-1,-4.13336E-1,3.9844766E-1,-5.4811466E-2,3.4441736E-1,-2.7435705E-1,-4.046759E-1,-6.739349E-2,3.8027284E-1,-0E0,-3.75802E-2,1.6814536E-1,-2.3667039E-1,8.964232E-2,4.4602525E-1,-6.358206E-2,-2.8752863E-1,2.7515826E-1,-2.924876E-1,-2.0568578E-2,8.968493E-1,-1.4971659E-1,-0E0,3.1073378E-2,-1.8849093E-2,-9.7210276E-1,6.300498E-1,7.9169296E-2,5.4529655E-1,-3.897052E-1,-9.160727E-2,3.9787242E-1,-1.267492E-1,-3.1729582E-1,-9.247998E-3,-5.336084E-1,4.5361336E-2,-7.180765E-1,-6.170469E-1,-2.8371125E-1,-2.2663799E-1,4.558418E-2,-0E0,3.549635E-1,-2.8913816E-2,-3.4079468E-1,2.8945062E-1,-3.168157E-1,-0E0,-2.9290974E-1,2.3886265E-2,-2.4057528E-1,-3.8810577E-2,-4.9207965E-1],"categories":[],"categories_nodes":[],"categories_segments":[],"categories_sizes":[],"default_left":[0,0,0,0,0,0,0,0,0,0,0,0,0,0,0,0,0,0,0,0,0,0,0,0,0,0,0,0,0,0,0,0,0,0,0,0,0,0,0,0,0,0,0,0,0,0,0,0,0,0,0,0,0,0,0,0,0,0,0,0,0,0,0,0,0,0,0,0,0,0,0,0,0,0,0,0,0,0,0,0,0,0,0,0,0,0,0,0,0,0,0,0,0,0,0,0,0,0,0,0,0,0,0,0,0,0,0,0,0,0,0,0,0],"id":6,"left_children":[1,3,5,-1,7,9,11,13,15,17,19,21,23,25,-1,-1,-1,27,-1,-1,29,31,33,-1,35,37,-1,39,41,-1,-1,43,45,47,49,51,53,-1,55,-1,-1,57,-1,-1,59,61,-1,-1,-1,-1,63,-1,-1,-1,65,67,69,71,73,75,-1,-1,-1,-1,77,-1,79,-1,81,-1,-1,83,85,87,89,91,-1,-1,-1,-1,93,-1,-1,95,97,-1,99,101,-1,103,105,107,-1,109,111,-1,-1,-1,-1,-1,-1,-1,-1,-1,-1,-1,-1,-1,-1,-1,-1,-1,-1],"loss_changes":[3.7946487E1,3.0646671E1,1.5067736E1,0E0,1.7272927E0,7.993931E0,5.9926767E0,9.303293E-1,4.451515E-1,6.8873873E0,8.6806107E-1,2.6357727E0,1.6140125E1,6.558671E-1,0E0,0E0,0E0,6.5505214E0,0E0,0E0,2.2557424E-1,2.3366547E0,1.4964666E0,0E0,7.679737E0,4.651122E-1,0E0,5.6569576E-1,6.3234463E0,0E0,0E0,8.7021446E-1,3.344434E0,2.6652725E0,1.1985588E0,6.997309E-1,2.5430023E1,0E0,4.2337084E-1,0E0,0E0,5.956738E0,0E0,0E0,3.003488E0,1.9646727E0,0E0,0E0,0E0,0E0,4.9662056E0,0E0,0E0,0E0,8.075926E0,4.2165422E-1,3.4298083E-1,1.1412952E1,9.162563E0,2.041441E0,0E0,0E0,0E0,0E0,2.4948099E0,0E0,2.2328197E1,0E0,7.801549E-3,0E0,0E0,1.6912903E1,2.2773987E1,4.6919975E0,8.159875E0,4.5406795E-1,0E0,0E0,0E0,0E0,7.5191536E0,0E0,0E0,1.5201284E1,9.533882E-2,0E0,1.2199069E1,2.751914E0,0E0,1.1524864E1,6.9344754E0,1.2659242E0,0E0,3.4820862E0,6.6995726E0,0E0,0E0,0E0,0E0,0E0,0E0,0E0,0E0,0E0,0E0,0E0,0E0,0E0,0E0,0E0,0E0,0E0,0E0],"parents":[2147483647,0,0,1,1,2,2,4,4,5,5,6,6,7,7,8,8,9,9,10,10,11,11,12,12,13,13,17,17,20,20,21,21,22,22,24,24,25,25,27,27,28,28,31,31,32,32,33,33,34,34,35,35,36,36,38,38,41,41,44,44,45,45,50,50,54,54,55,55,56,56,57,57,58,58,59,59,64,64,66,66,68,68,71,71,72,72,73,73,74,74,75,75,80,80,83,83,84,84,86,86,87,87,89,89,90,90,91,91,93,93,94,94],"right_children":[2,4,6,-1,8,10,12,14,16,18,20,22,24,26,-1,-1,-1,28,-1,-1,30,32,34,-1,36,38,-1,40,42,-1,-1,44,46,48,50,52,54,-1,56,-1,-1,58,-1,-1,60,62,-1,-1,-1,-1,64,-1,-1,-1,66,68,70,72,74,76,-1,-1,-1,-1,78,-1,80,-1,82,-1,-1,84,86,88,90,92,-1,-1,-1,-1,94,-1,-1,96,98,-1,100,102,-1,104,106,108,-1,110,112,-1,-1,-1,-1,-1,-1,-1,-1,-1,-1,-1,-1,-1,-1,-1,-1,-1,-1],"split_conditions":[1E0,1E0,1E0,-4.8955023E-1,1E0,1E0,6.2139977E-2,1E0,2.599125E-1,1E0,1E0,1E0,7.6861635E-2,1E0,-0E0,-1.9423142E-1,-0E0,1E0,-6.5173256E-1,-4.4648382E-1,2.266169E-1,1E0,-3.7141677E-2,6.293373E-1,7.8643076E-2,-2.593281E-3,-0E0,2.955638E-1,1E0,-1.15139864E-1,-0E0,3.3613723E-2,4.1169874E-2,-5.2072123E-2,1.3084917E-2,1E0,9.314782E-2,-0E0,2.0557223E-1,-4.781752E-1,-0E0,1E0,-4.5836663E-1,-4.6102437E-1,6.0575448E-2,1E0,-2.6325312E-1,-2.3619989E-2,6.0397124E-1,-3.1596994E-1,4.428926E-2,-4.8086503E-1,-3.774963E-2,1.06569E0,9.585176E-2,1E0,2.599125E-1,-5.2072123E-2,-4.646133E0,4.6771742E-2,-4.13336E-1,3.9844766E-1,-5.4811466E-2,3.4441736E-1,4.6771742E-2,-4.046759E-1,1.0839064E-1,3.8027284E-1,1.05072E-1,-3.75802E-2,1.6814536E-1,1E0,-3.7141677E-2,1E0,7.934539E-1,1E0,2.7515826E-1,-2.924876E-1,-2.0568578E-2,8.968493E-1,1E0,-0E0,3.1073378E-2,1E0,-2.675504E0,6.300498E-1,-3.45189E-2,1E0,-3.897052E-1,4.5144394E-1,1.5589046E0,1E0,-3.1729582E-1,1E0,1.7431693E-1,4.5361336E-2,-7.180765E-1,-6.170469E-1,-2.8371125E-1,-2.2663799E-1,4.558418E-2,-0E0,3.549635E-1,-2.8913816E-2,-3.4079468E-1,2.8945062E-1,-3.168157E-1,-0E0,-2.9290974E-1,2.3886265E-2,-2.4057528E-1,-3.8810577E-2,-4.9207965E-1],"split_indices":[23,42,44,0,1,11,48,0,48,10,29,1,48,34,0,0,0,37,0,0,48,21,48,0,48,48,0,48,7,0,0,48,48,48,48,5,48,0,48,0,0,5,0,0,48,4,0,0,0,0,48,0,0,0,48,21,48,48,48,48,0,0,0,0,48,0,48,0,48,0,0,1,48,21,48,5,0,0,0,0,1,0,0,47,48,0,48,29,0,48,48,0,0,21,48,0,0,0,0,0,0,0,0,0,0,0,0,0,0,0,0,0,0],"split_type":[0,0,0,0,0,0,0,0,0,0,0,0,0,0,0,0,0,0,0,0,0,0,0,0,0,0,0,0,0,0,0,0,0,0,0,0,0,0,0,0,0,0,0,0,0,0,0,0,0,0,0,0,0,0,0,0,0,0,0,0,0,0,0,0,0,0,0,0,0,0,0,0,0,0,0,0,0,0,0,0,0,0,0,0,0,0,0,0,0,0,0,0,0,0,0,0,0,0,0,0,0,0,0,0,0,0,0,0,0,0,0,0,0],"sum_hessian":[3.2157134E3,9.506715E1,3.1206462E3,6.8775375E1,2.6291777E1,2.8020103E3,3.1863608E2,2.1632797E1,4.658979E0,2.788398E3,1.3612319E1,1.2231262E2,1.9632346E2,1.878457E1,2.8482268E0,2.722632E0,1.9363469E0,2.7856128E3,2.7851508E0,9.094472E0,4.517847E0,6.3790493E1,5.852213E1,7.470457E0,1.88853E2,1.7143026E1,1.6415452E0,7.8948455E0,2.777718E3,3.4456637E0,1.0721836E0,5.2050507E1,1.1739986E1,3.9243546E0,5.4597775E1,1.5235603E1,1.7361739E2,1.6695737E0,1.5473453E1,6.03383E0,1.8610154E0,2.7719539E3,5.764005E0,1.4180873E1,3.7869633E1,5.128155E0,6.6118307E0,2.8679929E0,1.0563619E0,7.47307E0,4.7124702E1,1.1242021E1,3.9935827E0,4.011992E0,1.696054E2,1.1880682E1,3.5927706E0,2.0851243E3,6.8682965E2,2.3939678E1,1.39299555E1,4.005185E0,1.1229699E0,4.711048E0,4.2413654E1,1.5892922E1,1.5371248E2,9.812425E0,2.0682576E0,1.6945955E0,1.8981752E0,1.1087877E2,1.9742455E3,3.6000248E1,6.508294E2,2.222274E1,1.716938E0,1.5703119E1,2.6710535E1,5.1161036E0,1.4859637E2,1.0482923E0,1.0199653E0,8.738295E1,2.349582E1,1.5603544E1,1.958642E3,3.457076E1,1.4294876E0,6.163646E2,3.446472E1,1.8089277E1,4.133462E0,1.1144638E2,3.7149994E1,8.132606E1,6.0568933E0,1.1518242E1,1.1977576E1,4.0519478E1,1.9181226E3,9.124498E0,2.544626E1,5.856273E2,3.0737328E1,3.0517197E1,3.947527E0,1.4506901E1,3.5823767E0,9.834315E1,1.3103231E1,2.014933E1,1.7000664E1],"tree_param":{"num_deleted":"0","num_feature":"49","num_nodes":"113","size_leaf_vector":"1"}},{"base_weights":[-1.1460501E-2,-5.4353565E-1,-0E0,-4.7253054E-1,1.6693233E-1,3.3553517E-3,-4.8608136E-1,-1.5871862E-1,3.0429778E-1,-4.0665278E-1,7.217612E-3,-1.7990929E-1,-0E0,-1.3475908E-1,4.0678456E-1,1.1712786E-2,-7.371904E-1,9.282496E-3,-0E0,-0E0,6.000478E-1,2.0456271E-2,-2.8619003E-1,-4.5849273E-1,-0E0,1.2286912E-1,-6.813482E-2,-0E0,3.7389448E-1,-2.8917137E-1,2.8828984E-2,-4.9013945E-1,-1.2537925E-1,-7.7252895E-2,-0E0,-4.0867394E-1,6.9204085E-2,-1.9693945E-1,-7.564645E-1,-3.9715744E-3,8.609031E-2,-5.009731E-1,-1.4560278E-2,1.03990264E-1,-2.4472965E-1,-0E0,-4.1095E-1,2.1280225E-3,-6.9676954E-1,1.0971013E-1,-4.0645343E-1,1.4426319E-2,-5.395412E-1,3.8128847E-1,-4.9420103E-2,-1.3704093E-1,-4.3481678E-1,6.754608E-3,-7.1667653E-1,1.6224344E-1,-2.958041E-2,-2.430748E-1,-6.985384E-1,-1.4319292E-1,4.6818757E-1,-0E0,3.0775732E-1,-1.0857388E-1,8.7749444E-2,-2.6073417E-1,-0E0,7.771207E-3,-3.404306E-1,9.782287E-2,-5.199909E-2,-2.8630033E-1,1.5584947E-2,-2.7614197E-1,-0E0,3.3403959E-3,-1.9371843E-1,-0E0,3.3725777E-1],"categories":[],"categories_nodes":[],"categories_segments":[],"categories_sizes":[],"default_left":[0,0,0,0,0,0,0,0,0,0,0,0,0,0,0,0,0,0,0,0,0,0,0,0,0,0,0,0,0,0,0,0,0,0,0,0,0,0,0,0,0,0,0,0,0,0,0,0,0,0,0,0,0,0,0,0,0,0,0,0,0,0,0,0,0,0,0,0,0,0,0,0,0,0,0,0,0,0,0,0,0,0,0],"id":7,"left_children":[1,3,5,-1,7,9,-1,11,13,-1,15,-1,17,-1,19,21,23,-1,-1,25,27,29,31,-1,33,-1,35,-1,-1,37,39,-1,41,-1,-1,-1,-1,43,45,47,49,-1,51,53,55,-1,-1,57,-1,59,61,63,-1,65,-1,67,69,71,-1,73,75,77,-1,79,81,-1,-1,-1,-1,-1,-1,-1,-1,-1,-1,-1,-1,-1,-1,-1,-1,-1,-1],"loss_changes":[1.939452E1,2.0058174E1,9.201048E0,0E0,1.2744032E0,8.781384E0,0E0,2.989452E-1,1.3931574E0,0E0,9.407823E0,0E0,7.5020216E-4,0E0,1.0981116E0,7.579875E0,1.4467764E0,0E0,0E0,2.5252074E-1,4.5444918E-1,7.339164E0,7.993892E0,0E0,9.940484E-2,0E0,1.5833313E0,0E0,0E0,2.088853E0,5.4450502E0,0E0,5.7104363E0,0E0,0E0,0E0,0E0,1.1006632E0,1.7937803E-1,1.669463E1,1.1974974E1,0E0,3.0439057E0,6.991662E-1,5.8118224E-1,0E0,0E0,1.0521364E1,0E0,7.496067E0,5.5249767E0,4.828072E0,0E0,3.5014582E-1,0E0,1.1471614E0,6.372273E-1,1.0182583E1,0E0,6.653694E0,9.50043E0,2.9088664E0,0E0,2.036595E0,1.5180635E0,0E0,0E0,0E0,0E0,0E0,0E0,0E0,0E0,0E0,0E0,0E0,0E0,0E0,0E0,0E0,0E0,0E0,0E0],"parents":[2147483647,0,0,1,1,2,2,4,4,5,5,7,7,8,8,10,10,12,12,14,14,15,15,16,16,19,19,20,20,21,21,22,22,24,24,26,26,29,29,30,30,32,32,37,37,38,38,39,39,40,40,42,42,43,43,44,44,47,47,49,49,50,50,51,51,53,53,55,55,56,56,57,57,59,59,60,60,61,61,63,63,64,64],"right_children":[2,4,6,-1,8,10,-1,12,14,-1,16,-1,18,-1,20,22,24,-1,-1,26,28,30,32,-1,34,-1,36,-1,-1,38,40,-1,42,-1,-1,-1,-1,44,46,48,50,-1,52,54,56,-1,-1,58,-1,60,62,64,-1,66,-1,68,70,72,-1,74,76,78,-1,80,82,-1,-1,-1,-1,-1,-1,-1,-1,-1,-1,-1,-1,-1,-1,-1,-1,-1,-1],"split_conditions":[1E0,1E0,1E0,-4.7253054E-1,6.2139977E-2,1E0,-4.8608136E-1,1E0,1E0,-4.0665278E-1,1E0,-1.7990929E-1,-4.569301E-3,-1.3475908E-1,1E0,1E0,1E0,9.282496E-3,-0E0,1.7431693E-1,9.585176E-2,1E0,1E0,-4.5849273E-1,2.266169E-1,1.2286912E-1,1E0,-0E0,3.7389448E-1,1E0,1E0,-4.9013945E-1,1.3084917E-2,-7.7252895E-2,-0E0,-4.0867394E-1,6.9204085E-2,1E0,-3.45189E-2,1E0,1E0,-5.009731E-1,1.0346261E0,1.5829258E-1,1.2605855E-1,-0E0,-4.1095E-1,1E0,-6.9676954E-1,1E0,4.5144394E-1,3.323327E-1,-5.395412E-1,7.8643076E-2,-4.9420103E-2,1.0989628E-1,1E0,1E0,-7.1667653E-1,1E0,-2.593281E-3,9.585176E-2,-6.985384E-1,1.0943401E-1,1E0,-0E0,3.0775732E-1,-1.0857388E-1,8.7749444E-2,-2.6073417E-1,-0E0,7.771207E-3,-3.404306E-1,9.782287E-2,-5.199909E-2,-2.8630033E-1,1.5584947E-2,-2.7614197E-1,-0E0,3.3403959E-3,-1.9371843E-1,-0E0,3.3725777E-1],"split_indices":[23,42,7,0,48,37,0,29,19,0,11,0,48,0,45,2,29,0,0,48,48,40,36,0,48,0,5,0,0,44,29,0,48,0,0,0,0,36,48,8,6,0,48,48,48,0,0,13,0,1,48,48,0,48,0,48,4,47,0,4,48,48,0,48,29,0,0,0,0,0,0,0,0,0,0,0,0,0,0,0,0,0,0],"split_type":[0,0,0,0,0,0,0,0,0,0,0,0,0,0,0,0,0,0,0,0,0,0,0,0,0,0,0,0,0,0,0,0,0,0,0,0,0,0,0,0,0,0,0,0,0,0,0,0,0,0,0,0,0,0,0,0,0,0,0,0,0,0,0,0,0,0,0,0,0,0,0,0,0,0,0,0,0,0,0,0,0,0,0],"sum_hessian":[3.1115012E3,6.603199E1,3.0454692E3,4.2877068E1,2.3154917E1,3.0367698E3,8.699338E0,4.6636195E0,1.8491299E1,1.2089058E1,3.0246807E3,2.4110053E0,2.252614E0,1.0765629E0,1.7414736E1,3.008839E3,1.5841528E1,1.1766509E0,1.0759633E0,6.901943E0,1.0512792E1,2.9272134E3,8.162594E1,1.1605275E1,4.2362537E0,2.7885919E0,4.1133513E0,3.2870932E0,7.2256985E0,7.304369E1,2.8541697E3,1.3225954E1,6.839999E1,3.16407E0,1.0721836E0,1.2961246E0,2.817227E0,6.3977562E1,9.066132E0,1.8041687E3,1.050001E3,5.7615657E0,6.2638416E1,5.73899E0,5.823857E1,1.2734847E0,7.7926474E0,1.7965613E3,7.6073027E0,1.00463165E3,4.5369328E1,6.102382E1,1.6145997E0,4.1355247E0,1.603465E0,4.1633766E1,1.6604803E1,1.7924761E3,4.085263E0,7.3459436E2,2.7003726E2,4.0881744E1,4.487583E0,4.416368E1,1.6860138E1,2.240635E0,1.89489E0,3.5929512E1,5.7042556E0,1.358354E1,3.021263E0,1.772258E3,2.021796E1,6.562796E2,7.831475E1,2.7979164E1,2.4205809E2,1.6649685E1,2.4232058E1,2.5434727E1,1.8728952E1,5.918726E0,1.0941412E1],"tree_param":{"num_deleted":"0","num_feature":"49","num_nodes":"83","size_leaf_vector":"1"}},{"base_weights":[-1.1390623E-2,-4.468651E-1,-3.926052E-3,-9.0114594E-1,1.0459728E-1,1.938483E-2,-8.044685E-2,-0E0,-4.6637794E-1,-6.621424E-2,2.2742343E-1,4.3748736E-2,-9.5323585E-2,-4.1814366E-1,-4.626963E-2,-1.9215901E-1,-0E0,-9.464424E-2,3.3671218E-1,9.154976E-2,-4.595103E-2,-9.0391666E-1,-6.0662024E-2,-1.033193E0,-1.9635351E-1,2.781059E-1,-6.3546315E-2,2.5749112E-2,-0E0,-0E0,2.8000802E-1,1.5564471E-1,-9.367204E-2,-2.2339918E-2,-3.9302683E-1,7.093371E-1,-1.416315E-1,-5.950744E-1,-0E0,2.2968072E-1,-2.545888E-1,1.8775144E-1,-3.0751798E-1,-1.4253291E-1,3.8332544E-2,-7.2103284E-2,4.7106232E-2,3.171729E-1,2.1826377E-2,-1.538631E-1,1.8510796E-1,-8.299117E-2,2.5937477E-1,-0E0,-4.6452886E-1,-3.0459836E-2,9.734219E-1,-7.72506E-1,-8.380017E-2,-2.967731E-1,4.870076E-3,-1.0487468E-1,-4.4897315E-1,4.542337E-1,-0E0,1.3674793E-2,-2.7346343E-1,-0E0,1.404055E-1,5.0123674E-1,-7.1100116E-2,-1.9876958E-1,1.20423324E-1,-6.7497694E-1,-9.988077E-2,3.7046823E-1,-5.68964E-1,-1.0608552E-2,-8.688526E-1,5.947455E-1,1.0853722E-1,1.5031856E-1,-2.0999545E-1,-6.063609E-1,-3.4176107E-3,1.0693982E-1,-1.5290861E-1,5.1598114E-1,-0E0,-5.3422797E-1,-1.9078617E-1,-4.158839E-2,-7.591172E-1,-1.7204097E-1,-4.04912E-1,-1.2602897E-1,4.0440395E-1,1.5194835E-1,-1.08472876E-1,7.637539E-1,-1.7951798E-1,-5.058748E-1,7.346563E-2,-1.1882582E-1,-1.255737E0,1.4830709E-1,-3.1284687E-1,8.768959E-2,-1.062233E0,-3.2676047E-1,-1.2420167E-4,4.6078956E-1,-4.2723328E-1,-6.597944E-1,6.7301653E-3,-6.324587E-2,2.959578E-1,1.896479E-2,-1.0552927E0,6.544428E-1,-0E0,-0E0,4.7187757E-1,-1.3904148E-1,3.0853713E-1,-3.604411E-1,-0E0,-0E0,-1.4965676E-1,5.5244725E-2,-3.655207E-1,-4.1561836E-1,-1.0495094E-3,-6.4956045E-1,-8.757487E-2,-2.8669077E-1,9.181166E-2,1.3703975E-1,-1.743267E-1,-1.04972236E-1,3.6748582E-1,-9.777541E-1,-2.3335984E-2,8.5646135E-1,-5.289093E-1,-3.561187E-1,-6.856159E-2,-1.4725018E-1,-1.0478746E0,2.3888196E-1,-8.562574E-2,-3.187276E-1,2.2501892E-1,-7.9649305E-1,-2.1161401E-1,9.41845E-2,3.186481E-1,-4.4988107E-2,-6.539275E-1,-3.910855E-1,3.417653E-1,-1.3465778E0,-0E0,2.3809208E-1,-3.811519E-1,-7.304485E-1,3.4209713E-2,4.3618077E-1,3.36278E-1,2.0810968E-1,-2.035677E-1,-3.6550376E-1,-2.5285559E-2,3.970189E-1,-5.541927E-1,-1.9712567E-1,4.2602116E-1,-1.3025634E0,-1.777854E-1,4.394364E-1,3.4645942E-1,-7.268454E-2,4.1874045E-1,-1.9390729E-1,6.5051377E-1,-2.3821296E-2,1.01031095E-1,-3.4705177E-1,-0E0,-1.810236E-1,-1.1748333E0,1.11083426E-1,-6.3209705E-2,1.5109311E-1,-1.99997E-1,-1.7403412E-1,-3.269195E-1,1.9227861E-1,-0E0,-2.8383985E-2,3.095182E-1,-4.492126E-1,-1.1590575E-1,2.2951962E-1,-7.555555E-1,-4.726565E-1,4.4652954E-1,-4.751218E-1,1.1267678E-2,4.9089378E-1,-1.12155475E-1,-3.4320772E-1,-0E0,-2.622163E-1,2.9898074E-3,-7.919658E-1,3.0954503E-3,-0E0,-5.792404E-1,-1.4975448E-1,1.4602594E-1,-2.552231E-1,9.691736E-2,3.228633E-1,-5.350214E-2,-2.24705E-1,6.4132996E-2,4.5237508E-1,1.0695967E-1,-4.650551E-1,4.094744E-2,-7.650134E-1,-5.6964368E-2,-0E0,2.3553646E-1,-2.3080026E-1,-2.078071E-2,-4.962432E-1,-0E0,2.3771246E-1,-1.7127737E-2,-4.4784658E-2,2.540279E-1,-8.284797E-2,-3.9289942E-1,1.5877794E-1,-6.1578207E-2,3.0822462E-1,-0E0,-0E0,3.082942E-1,-2.838796E-1,-1.0807253E0,2.6461703E-1,-2.8720748E-1,-0E0,2.6994967E-1,1.5940842E-1,-8.080483E-2,-1.3534785E-2,4.0117252E-1,1.6150515E-1,-1.9909254E-1,-2.7874586E-1,1.660338E-1,-8.481006E-1,-0E0,-0E0,4.6396676E-1,-1.2610835E-1,3.5966963E-2,-1.7780167E-1,3.048013E-2,-2.3777358E-1,1.1041976E-1,1.0460846E-1,-3.1020963E-1,3.22003E-1,-0E0,-1.0645367E-1,-4.5867908E-1,2.341908E-1,-1.070494E-1,-7.3638093E-3,4.8267844E-1,-7.527899E-1,-2.3878897E-2,-8.5192907E-1,1.1935428E-1,3.0743608E-1,5.833706E-2,1.1099317E-1,-4.0652338E-1,-2.4068987E-1,4.437143E-2],"categories":[],"categories_nodes":[],"categories_segments":[],"categories_sizes":[],"default_left":[0,0,0,0,0,0,0,0,0,0,0,0,0,0,0,0,0,0,0,0,0,0,0,0,0,0,0,0,0,0,0,0,0,0,0,0,0,0,0,0,0,0,0,0,0,0,0,0,0,0,0,0,0,0,0,0,0,0,0,0,0,0,0,0,0,0,0,0,0,0,0,0,0,0,0,0,0,0,0,0,0,0,0,0,0,0,0,0,0,0,0,0,0,0,0,0,0,0,0,0,0,0,0,0,0,0,0,0,0,0,0,0,0,0,0,0,0,0,0,0,0,0,0,0,0,0,0,0,0,0,0,0,0,0,0,0,0,0,0,0,0,0,0,0,0,0,0,0,0,0,0,0,0,0,0,0,0,0,0,0,0,0,0,0,0,0,0,0,0,0,0,0,0,0,0,0,0,0,0,0,0,0,0,0,0,0,0,0,0,0,0,0,0,0,0,0,0,0,0,0,0,0,0,0,0,0,0,0,0,0,0,0,0,0,0,0,0,0,0,0,0,0,0,0,0,0,0,0,0,0,0,0,0,0,0,0,0,0,0,0,0,0,0,0,0,0,0,0,0,0,0,0,0,0,0,0,0,0,0,0,0,0,0,0,0,0,0,0,0,0,0,0,0,0,0,0,0,0,0,0,0,0,0,0,0,0,0,0,0,0,0,0,0,0,0],"id":8,"left_children":[1,3,5,7,9,11,13,-1,-1,15,17,19,21,23,25,-1,27,-1,29,31,33,-1,35,37,39,41,43,-1,-1,45,-1,47,49,51,53,55,57,-1,-1,-1,59,-1,-1,61,63,65,67,69,71,73,75,77,79,81,83,85,87,89,91,93,-1,95,-1,-1,97,-1,-1,-1,-1,99,101,103,105,107,109,111,113,115,117,119,121,123,-1,125,127,-1,-1,-1,-1,-1,129,131,133,135,-1,137,-1,139,141,143,145,147,149,151,153,155,157,159,161,163,165,167,-1,-1,169,171,173,175,177,179,-1,181,183,-1,-1,-1,-1,185,-1,-1,187,189,191,-1,193,195,197,199,201,203,205,-1,207,209,211,-1,213,215,217,-1,219,221,223,-1,-1,225,227,229,-1,-1,-1,231,-1,233,235,237,239,-1,241,-1,-1,243,245,247,-1,-1,249,251,253,-1,255,257,-1,-1,259,-1,-1,-1,261,263,265,267,269,-1,-1,271,-1,-1,273,275,277,279,281,283,285,287,289,291,293,-1,-1,-1,-1,-1,-1,-1,-1,-1,-1,-1,-1,-1,-1,-1,-1,-1,-1,-1,-1,-1,-1,-1,-1,-1,-1,-1,-1,-1,-1,-1,-1,-1,-1,-1,-1,-1,-1,-1,-1,-1,-1,-1,-1,-1,-1,-1,-1,-1,-1,-1,-1,-1,-1,-1,-1,-1,-1,-1,-1,-1,-1,-1,-1,-1,-1,-1,-1,-1,-1,-1,-1,-1,-1,-1,-1,-1,-1,-1,-1,-1,-1,-1,-1,-1,-1],"loss_changes":[9.450239E0,1.3184482E1,5.4109745E0,3.0485153E-1,6.3924193E-1,6.349813E0,7.714548E0,0E0,0E0,5.201663E-1,9.611336E-1,8.178858E0,2.1416948E1,7.0891876E0,3.4394178E0,0E0,5.987689E-3,0E0,1.1810225E0,1.4849815E1,4.922835E0,0E0,2.371831E1,1.8569603E0,1.7581804E0,2.6072433E0,5.097157E0,0E0,0E0,2.8541375E-2,0E0,1.97321E1,5.308581E0,1.034776E1,9.818778E-1,7.9867496E0,1.1958651E1,0E0,0E0,0E0,8.077946E-1,0E0,0E0,8.997892E0,8.006671E0,7.0524365E-1,2.4660817E-1,3.0296337E1,1.1091882E1,6.579161E0,7.5195303E0,2.8091072E1,4.6051564E0,5.981031E-1,1.5023179E0,7.909973E-1,1.0359249E0,3.369402E0,8.45937E0,1.6526954E0,0E0,5.9985647E0,0E0,0E0,4.2897153E0,0E0,0E0,0E0,0E0,5.1660355E1,8.852074E0,1.1619363E1,4.206047E0,7.816716E0,5.149438E0,4.9546466E0,5.6116486E0,7.34894E0,7.973583E0,1.4676294E0,2.6565278E0,1.6767356E0,0E0,1.7810993E0,2.9173237E-1,0E0,0E0,0E0,0E0,0E0,9.1775924E-1,4.27162E0,4.926817E0,1.3618459E0,0E0,4.312918E0,0E0,6.4484735E0,2.1051155E1,2.5582603E1,3.844496E0,5.4793987E0,6.81577E0,1.0241362E1,1.0408783E-1,2.6837125E0,3.864183E0,4.452622E0,4.9634533E0,2.4101157E0,5.037378E0,7.075453E-1,0E0,0E0,1.171538E0,4.2308416E0,9.105817E0,1.4283098E0,5.987789E0,4.5790482E-1,0E0,4.395063E0,2.9690506E0,0E0,0E0,0E0,0E0,2.3189574E-1,0E0,0E0,1.1427102E0,3.3870053E0,1.9275562E0,0E0,1.4117032E0,2.6484036E-1,4.8400295E-1,1.6952707E0,3.9818106E0,1.1429006E1,4.3491364E0,0E0,2.686151E0,2.728392E1,7.201481E-1,0E0,2.8359032E0,6.7496443E0,1.0026789E0,0E0,5.772444E0,9.746202E0,7.9607306E0,0E0,0E0,4.6133304E0,3.4078403E0,2.8812318E0,0E0,0E0,0E0,1.066391E0,0E0,5.064317E-1,1.2975063E0,1.0623131E0,5.413029E0,0E0,3.140967E0,0E0,0E0,2.4469876E0,1.2010949E1,5.7021265E0,0E0,0E0,6.211631E-1,1.2854782E1,3.1108766E0,0E0,1.2293253E0,1.869119E0,0E0,0E0,2.2956543E0,0E0,0E0,0E0,8.6840934E-1,4.9390054E0,3.1340265E0,8.327153E0,5.0020914E0,0E0,0E0,1.4157645E0,0E0,0E0,9.6159476E-1,3.7902045E0,3.2471929E0,3.8569593E0,1.3646014E1,6.772704E0,7.925149E0,6.06729E0,2.468257E0,3.63794E0,4.6363378E0,0E0,0E0,0E0,0E0,0E0,0E0,0E0,0E0,0E0,0E0,0E0,0E0,0E0,0E0,0E0,0E0,0E0,0E0,0E0,0E0,0E0,0E0,0E0,0E0,0E0,0E0,0E0,0E0,0E0,0E0,0E0,0E0,0E0,0E0,0E0,0E0,0E0,0E0,0E0,0E0,0E0,0E0,0E0,0E0,0E0,0E0,0E0,0E0,0E0,0E0,0E0,0E0,0E0,0E0,0E0,0E0,0E0,0E0,0E0,0E0,0E0,0E0,0E0,0E0,0E0,0E0,0E0,0E0,0E0,0E0,0E0,0E0,0E0,0E0,0E0,0E0,0E0,0E0,0E0,0E0,0E0,0E0,0E0,0E0,0E0,0E0],"parents":[2147483647,0,0,1,1,2,2,3,3,4,4,5,5,6,6,9,9,10,10,11,11,12,12,13,13,14,14,16,16,18,18,19,19,20,20,22,22,23,23,24,24,25,25,26,26,29,29,31,31,32,32,33,33,34,34,35,35,36,36,40,40,43,43,44,44,45,45,46,46,47,47,48,48,49,49,50,50,51,51,52,52,53,53,54,54,55,55,56,56,57,57,58,58,59,59,61,61,64,64,69,69,70,70,71,71,72,72,73,73,74,74,75,75,76,76,77,77,78,78,79,79,80,80,81,81,83,83,84,84,90,90,91,91,92,92,93,93,95,95,97,97,98,98,99,99,100,100,101,101,102,102,103,103,104,104,105,105,106,106,107,107,108,108,109,109,110,110,111,111,114,114,115,115,116,116,117,117,118,118,119,119,121,121,122,122,127,127,130,130,131,131,132,132,134,134,135,135,136,136,137,137,138,138,139,139,140,140,142,142,143,143,144,144,146,146,147,147,148,148,150,150,151,151,152,152,155,155,156,156,157,157,161,161,163,163,164,164,165,165,166,166,168,168,171,171,172,172,173,173,176,176,177,177,178,178,180,180,181,181,184,184,188,188,189,189,190,190,191,191,192,192,195,195,198,198,199,199,200,200,201,201,202,202,203,203,204,204,205,205,206,206,207,207,208,208],"right_children":[2,4,6,8,10,12,14,-1,-1,16,18,20,22,24,26,-1,28,-1,30,32,34,-1,36,38,40,42,44,-1,-1,46,-1,48,50,52,54,56,58,-1,-1,-1,60,-1,-1,62,64,66,68,70,72,74,76,78,80,82,84,86,88,90,92,94,-1,96,-1,-1,98,-1,-1,-1,-1,100,102,104,106,108,110,112,114,116,118,120,122,124,-1,126,128,-1,-1,-1,-1,-1,130,132,134,136,-1,138,-1,140,142,144,146,148,150,152,154,156,158,160,162,164,166,168,-1,-1,170,172,174,176,178,180,-1,182,184,-1,-1,-1,-1,186,-1,-1,188,190,192,-1,194,196,198,200,202,204,206,-1,208,210,212,-1,214,216,218,-1,220,222,224,-1,-1,226,228,230,-1,-1,-1,232,-1,234,236,238,240,-1,242,-1,-1,244,246,248,-1,-1,250,252,254,-1,256,258,-1,-1,260,-1,-1,-1,262,264,266,268,270,-1,-1,272,-1,-1,274,276,278,280,282,284,286,288,290,292,294,-1,-1,-1,-1,-1,-1,-1,-1,-1,-1,-1,-1,-1,-1,-1,-1,-1,-1,-1,-1,-1,-1,-1,-1,-1,-1,-1,-1,-1,-1,-1,-1,-1,-1,-1,-1,-1,-1,-1,-1,-1,-1,-1,-1,-1,-1,-1,-1,-1,-1,-1,-1,-1,-1,-1,-1,-1,-1,-1,-1,-1,-1,-1,-1,-1,-1,-1,-1,-1,-1,-1,-1,-1,-1,-1,-1,-1,-1,-1,-1,-1,-1,-1,-1,-1,-1],"split_conditions":[1E0,1E0,1E0,-5.2072123E-2,7.8643076E-2,1E0,1E0,-0E0,-4.6637794E-1,1E0,1E0,1E0,-5.3427864E-2,6.2139977E-2,-4.646133E0,-1.9215901E-1,1.0357981E-2,-9.464424E-2,1E0,1E0,5.654473E-1,-9.0391666E-1,-2.0855488E-2,1E0,7.6861635E-2,1E0,1.4268434E-1,2.5749112E-2,-0E0,1E0,2.8000802E-1,1E0,3.1604686E-1,2.4414101E-1,1E0,-5.2072123E-2,1E0,-5.950744E-1,-0E0,2.2968072E-1,1.1191777E0,1.8775144E-1,-3.0751798E-1,1.4200638E-1,1.5829258E-1,1.5829258E-1,2.124953E-1,1E0,1E0,1E0,9.2956275E-1,1.9086495E-1,2.885821E-1,7.934539E-1,1.2983257E0,1E0,1E0,1E0,5.654473E-1,3.5140872E-1,4.870076E-3,1.2605855E-1,-4.4897315E-1,4.542337E-1,2.2343732E-1,1.3674793E-2,-2.7346343E-1,-0E0,1.404055E-1,1E0,7.8643076E-2,5.4495025E-1,1E0,4.1169874E-2,1E0,1E0,1E0,1.4268434E-1,1E0,1E0,1E0,6.30592E-1,-2.0999545E-1,1E0,2.1289213E0,1.0693982E-1,-1.5290861E-1,5.1598114E-1,-0E0,-5.3422797E-1,6.0575448E-2,3.3613723E-2,1E0,1.9347367E-1,-4.04912E-1,1E0,4.0440395E-1,1.7539594E-1,2.266169E-1,1E0,1E0,6.0575448E-2,1.4200638E-1,1.7539594E-1,1E0,1E0,1.6996208E-1,-1.9369727E-2,1E0,-4.646133E0,-3.45189E-2,3.5140872E-1,-4.2723328E-1,-6.597944E-1,1.2983257E0,-3.45189E-2,1E0,1E0,2.266169E-1,2.722959E-1,-0E0,5.188444E-1,1E0,-1.3904148E-1,3.0853713E-1,-3.604411E-1,-0E0,1E0,-1.4965676E-1,5.5244725E-2,1.5975226E-1,1.1716886E-2,7.6861635E-2,-6.4956045E-1,1E0,1.9018033E-1,2.3972352E-1,4.6771742E-2,-1.9369727E-2,1.7457876E-1,1E0,-9.777541E-1,1E0,1E0,1E0,-3.561187E-1,4.6771742E-2,-4.646133E0,1E0,2.3888196E-1,1E0,1E0,2.2343732E-1,-7.9649305E-1,-2.1161401E-1,-3.45189E-2,1E0,-3.45189E-2,-6.539275E-1,-3.910855E-1,3.417653E-1,1.7539594E-1,-0E0,-5.401595E0,1.9347367E-1,1E0,4.428926E-2,4.3618077E-1,4.3599933E-1,2.0810968E-1,-2.035677E-1,-3.7141677E-2,4.428926E-2,1.7457876E-1,-5.541927E-1,-1.9712567E-1,2.0557223E-1,2.0715114E-1,2.3972352E-1,4.394364E-1,1E0,1E0,4.1874045E-1,-1.9390729E-1,3.323327E-1,-2.3821296E-2,1.01031095E-1,-3.4705177E-1,3.5140872E-1,1E0,1E0,6.2139977E-2,1.5975226E-1,1.5109311E-1,-1.99997E-1,1.2605855E-1,-3.269195E-1,1.9227861E-1,1E0,1.1716886E-2,9.314782E-2,-2.0855488E-2,1.1716886E-2,1.5975226E-1,1E0,1E0,2.0715114E-1,3.0486825E-1,2.599125E-1,4.9089378E-1,-1.12155475E-1,-3.4320772E-1,-0E0,-2.622163E-1,2.9898074E-3,-7.919658E-1,3.0954503E-3,-0E0,-5.792404E-1,-1.4975448E-1,1.4602594E-1,-2.552231E-1,9.691736E-2,3.228633E-1,-5.350214E-2,-2.24705E-1,6.4132996E-2,4.5237508E-1,1.0695967E-1,-4.650551E-1,4.094744E-2,-7.650134E-1,-5.6964368E-2,-0E0,2.3553646E-1,-2.3080026E-1,-2.078071E-2,-4.962432E-1,-0E0,2.3771246E-1,-1.7127737E-2,-4.4784658E-2,2.540279E-1,-8.284797E-2,-3.9289942E-1,1.5877794E-1,-6.1578207E-2,3.0822462E-1,-0E0,-0E0,3.082942E-1,-2.838796E-1,-1.0807253E0,2.6461703E-1,-2.8720748E-1,-0E0,2.6994967E-1,1.5940842E-1,-8.080483E-2,-1.3534785E-2,4.0117252E-1,1.6150515E-1,-1.9909254E-1,-2.7874586E-1,1.660338E-1,-8.481006E-1,-0E0,-0E0,4.6396676E-1,-1.2610835E-1,3.5966963E-2,-1.7780167E-1,3.048013E-2,-2.3777358E-1,1.1041976E-1,1.0460846E-1,-3.1020963E-1,3.22003E-1,-0E0,-1.0645367E-1,-4.5867908E-1,2.341908E-1,-1.070494E-1,-7.3638093E-3,4.8267844E-1,-7.527899E-1,-2.3878897E-2,-8.5192907E-1,1.1935428E-1,3.0743608E-1,5.833706E-2,1.1099317E-1,-4.0652338E-1,-2.4068987E-1,4.437143E-2],"split_indices":[23,42,5,48,48,3,36,0,0,29,19,1,48,48,48,0,48,0,45,4,48,0,48,21,48,21,48,0,0,5,0,0,48,48,19,48,36,0,0,0,48,0,0,48,48,48,48,6,45,19,48,48,48,48,48,30,34,26,48,48,0,48,0,0,48,0,0,0,0,2,48,48,47,48,36,21,29,48,19,21,21,48,0,21,48,0,0,0,0,0,48,48,29,48,0,19,0,48,48,11,36,48,48,48,47,26,48,48,35,48,48,48,0,0,48,48,21,29,48,48,0,48,29,0,0,0,0,29,0,0,48,48,48,0,19,48,48,48,48,48,19,0,19,12,29,0,48,48,19,0,30,47,48,0,0,48,19,48,0,0,0,48,0,48,48,29,48,0,48,0,0,48,48,48,0,0,48,48,48,0,29,19,0,0,48,0,0,0,48,29,21,48,48,0,0,48,0,0,28,48,48,48,48,48,29,29,48,48,48,0,0,0,0,0,0,0,0,0,0,0,0,0,0,0,0,0,0,0,0,0,0,0,0,0,0,0,0,0,0,0,0,0,0,0,0,0,0,0,0,0,0,0,0,0,0,0,0,0,0,0,0,0,0,0,0,0,0,0,0,0,0,0,0,0,0,0,0,0,0,0,0,0,0,0,0,0,0,0,0,0,0,0,0,0,0],"split_type":[0,0,0,0,0,0,0,0,0,0,0,0,0,0,0,0,0,0,0,0,0,0,0,0,0,0,0,0,0,0,0,0,0,0,0,0,0,0,0,0,0,0,0,0,0,0,0,0,0,0,0,0,0,0,0,0,0,0,0,0,0,0,0,0,0,0,0,0,0,0,0,0,0,0,0,0,0,0,0,0,0,0,0,0,0,0,0,0,0,0,0,0,0,0,0,0,0,0,0,0,0,0,0,0,0,0,0,0,0,0,0,0,0,0,0,0,0,0,0,0,0,0,0,0,0,0,0,0,0,0,0,0,0,0,0,0,0,0,0,0,0,0,0,0,0,0,0,0,0,0,0,0,0,0,0,0,0,0,0,0,0,0,0,0,0,0,0,0,0,0,0,0,0,0,0,0,0,0,0,0,0,0,0,0,0,0,0,0,0,0,0,0,0,0,0,0,0,0,0,0,0,0,0,0,0,0,0,0,0,0,0,0,0,0,0,0,0,0,0,0,0,0,0,0,0,0,0,0,0,0,0,0,0,0,0,0,0,0,0,0,0,0,0,0,0,0,0,0,0,0,0,0,0,0,0,0,0,0,0,0,0,0,0,0,0,0,0,0,0,0,0,0,0,0,0,0,0,0,0,0,0,0,0,0,0,0,0,0,0,0,0,0,0,0,0],"sum_hessian":[3.04542E3,4.807287E1,2.9973472E3,2.7005596E1,2.1067272E1,2.2880166E3,7.093307E2,1.5155953E0,2.5490002E1,5.5994987E0,1.5467773E1,1.8948824E3,3.9313403E2,6.146969E1,6.4786096E2,2.7176669E0,2.8818321E0,1.1605574E0,1.4307216E1,1.2434014E3,6.5148114E2,6.212022E0,3.86922E2,1.4126926E1,4.7342762E1,2.9070686E1,6.187903E2,1.2577444E0,1.6240877E0,6.0077496E0,8.299466E0,9.2787427E2,3.1552704E2,6.1367896E2,3.7802193E1,3.4901997E1,3.5202002E2,1.1711152E1,2.4157739E0,1.8991429E0,4.544362E1,2.7744379E1,1.3263065E0,3.5385968E2,2.649306E2,2.6149719E0,3.3927777E0,4.164032E2,5.1147107E2,2.6281757E2,5.2709488E1,5.08465E2,1.0521394E2,6.475622E0,3.132657E1,8.418033E0,2.6483965E1,2.7069773E1,3.2495023E2,4.234603E1,3.0975873E0,3.3940268E2,1.4457013E1,9.174836E0,2.5575577E2,1.1999868E0,1.414985E0,1.1417942E0,2.2509835E0,2.8403757E2,1.3236562E2,1.5454388E2,3.569272E2,2.1851147E1,2.4096642E2,4.3782135E1,8.927351E0,4.6767526E2,4.0789745E1,2.9671041E1,7.55429E1,4.831932E0,1.64369E0,2.2058102E1,9.268469E0,2.6543264E0,5.7637057E0,2.442697E1,2.0569944E0,1.6247898E1,1.0821876E1,3.082264E2,1.672382E1,3.6706467E1,5.639566E0,3.3363464E2,5.768036E0,1.1001169E2,1.4574408E2,2.0596068E2,7.8076904E1,3.4132305E1,9.8233315E1,1.4559065E2,8.95323E0,3.3813193E2,1.8795258E1,6.749633E0,1.5101513E1,6.983602E1,1.7113039E2,4.211682E1,1.6653147E0,4.068048E0,4.8593025E0,4.0260397E2,6.50713E1,6.3041863E0,3.4485558E1,2.7757391E1,1.9136503E0,6.056296E1,1.4979938E1,1.6131296E0,3.2188027E0,1.8741241E1,3.3168597E0,7.010774E0,2.257695E0,2.0066807E0,8.815195E0,2.6823227E1,2.814032E2,7.9263797E0,8.797441E0,2.8169592E1,8.536874E0,4.8255203E1,2.8537943E2,4.8305256E1,6.1706432E1,4.936323E0,1.4080775E2,1.932147E2,1.2745964E1,1.097113E1,6.7105774E1,2.2416616E1,1.171569E1,2.8948704E1,6.928461E1,9.395132E1,5.1639347E1,4.866961E0,4.086269E0,2.6223523E2,7.58967E1,1.6424082E1,2.371175E0,1.9344853E0,4.8151474E0,1.1756733E1,3.3447797E0,4.2225404E0,6.561348E1,8.081338E0,1.6304906E2,6.5217104E0,3.559511E1,3.6542501E0,1.2050524E0,4.101905E1,3.615849E2,6.203633E1,3.034967E0,1.9249265E0,4.37926E0,2.5637302E1,8.848255E0,1.3106217E1,1.4651174E1,5.5723873E1,4.839092E0,1.4126368E0,1.3567301E1,2.527198E0,4.483576E0,4.0937653E0,4.72143E0,2.2443766E1,4.3794603E0,9.434195E1,1.8706123E2,2.5046585E0,6.292782E0,2.4767563E1,3.4020288E0,2.8164504E0,5.7204227E0,2.209834E1,2.6156864E1,4.584768E1,2.3953175E2,3.1315027E1,1.6990227E1,3.790195E0,5.7916237E1,1.1167894E1,1.2963986E2,1.7404887E2,1.9165836E1,8.6898155E0,4.056148E0,1.0467811E1,5.6637966E1,1.8923947E0,2.0524221E1,1.5650457E0,1.0150644E1,4.6056824E1,2.3227783E1,6.979888E1,2.415243E1,2.3689419E1,2.7949926E1,1.3021208E1,2.4921404E2,8.900218E0,6.699648E1,2.2536542E0,1.4170428E1,9.317537E0,2.4391956E0,1.606266E0,2.616274E0,5.037556E1,1.5237921E1,4.997493E0,3.0838451E0,2.3065874E1,1.3998317E2,8.695517E0,2.6899593E1,3.035963E1,1.0659419E1,7.753117E1,2.8405374E2,4.0152023E1,2.1884308E1,1.1774048E0,3.2018552E0,1.5339355E1,1.0297947E1,2.1536515E0,6.694604E0,4.9887614E0,9.662412E0,7.7542777E0,4.7969593E1,1.4283587E0,1.2138942E1,2.6388428E0,2.082587E0,1.4019636E1,8.4241295E0,2.6699944E0,1.7094659E0,8.430483E1,1.0037117E1,8.071267E1,1.06348564E2,1.6083088E1,8.684474E0,2.2984862E0,3.4219368E0,1.502564E1,7.0726986E0,1.3102351E1,1.3054513E1,3.2854588E1,1.29930935E1,3.2455387E1,2.0707637E2,2.3226439E1,8.088588E0,7.015851E0,9.974377E0,1.3918283E0,2.3983667E0,3.5766838E1,2.21494E1,2.7920353E0,8.375858E0,1.5154579E1,1.1448529E2],"tree_param":{"num_deleted":"0","num_feature":"49","num_nodes":"295","size_leaf_vector":"1"}},{"base_weights":[-9.1223065E-3,-5.502696E-3,-4.8755497E-1,-1.7846161E-3,-7.379713E-1,-0E0,-6.069436E-1,-6.567329E-1,-1.9474591E-1,1.639033E-2,-1.2562945E-1,-4.9403465E-1,3.6768395E-2,1.8821312E-2,-4.5884642E-1,-3.983257E-2,-2.7644905E-1,-0E0,-5.5222833E-1,-5.2944664E-2,4.3699462E-2,-1.2993796E-1,3.3309117E-1,-9.786258E-1,-2.098969E-2,2.4200952E-2,-2.3227564E-1,5.516045E-1,2.6677685E-2,7.401542E-2,-2.724915E-1,4.928412E-1,1.2524961E-1,-2.2785373E-1,-1.2619972E0,6.473033E-1,-1.1864692E-1,-1.5912822E-2,5.90079E-1,-1.4597997E-1,-5.8718944E-1,4.3094497E-2,-8.32716E-2,-5.1970404E-1,1.9353499E-1,-7.293312E-1,-1.4987688E-1,4.2874992E-1,-0E0,-5.82953E-1,4.4884112E-1,-1.529084E0,-4.255558E-1,-4.4897017E-1,-4.7443606E-2,2.9692285E-2,-9.5741045E-1,-6.41684E-1,-1.0393207E-1,-9.2862064E-1,-0E0,-8.047802E-2,6.335263E-2,-1.7946085E-1,1.489248E-1,-0E0,-6.332898E-1,4.674014E-1,-1.1702652E-2,-4.357492E-1,-4.809303E-2,5.288991E-1,-2.5558066E-1,-1.19000554E-1,3.5114256E-1,-0E0,-8.059514E-1,-5.724297E-1,-0E0,-0E0,-4.2350495E-1,-8.430773E-3,5.601689E-1,-2.6448616E-1,-9.8946273E-1,-0E0,-3.8107836E-1,-3.464795E-2,-1.8823706E-1,-5.72483E-1,-4.371629E-2,-2.5995359E-2,-5.3952014E-1,5.5972874E-1,1.6354412E-2,-3.1904686E-2,-2.9796064E-1,9.85089E-2,-0E0,-3.943013E-1,-0E0,4.0875357E-1,1.2146503E-1,3.6735722E-1,-6.854973E-2,-2.0045334E-1,9.113657E-2,-2.6046365E-1,1.0503349E-1,1.9314349E-1,-1.2781043E-1,-4.3204885E-2,1.9308344E-1],"categories":[],"categories_nodes":[],"categories_segments":[],"categories_sizes":[],"default_left":[0,0,0,0,0,0,0,0,0,0,0,0,0,0,0,0,0,0,0,0,0,0,0,0,0,0,0,0,0,0,0,0,0,0,0,0,0,0,0,0,0,0,0,0,0,0,0,0,0,0,0,0,0,0,0,0,0,0,0,0,0,0,0,0,0,0,0,0,0,0,0,0,0,0,0,0,0,0,0,0,0,0,0,0,0,0,0,0,0,0,0,0,0,0,0,0,0,0,0,0,0,0,0,0,0,0,0,0,0,0,0,0,0],"id":9,"left_children":[1,3,-1,5,7,9,-1,-1,11,13,15,17,-1,19,-1,21,23,-1,-1,25,27,29,31,33,35,37,39,-1,41,43,45,-1,47,49,51,-1,53,55,-1,57,59,61,63,65,67,69,71,-1,73,-1,-1,75,77,-1,79,81,83,85,87,89,-1,91,93,95,97,-1,99,101,103,-1,-1,-1,105,107,-1,-1,-1,-1,109,111,-1,-1,-1,-1,-1,-1,-1,-1,-1,-1,-1,-1,-1,-1,-1,-1,-1,-1,-1,-1,-1,-1,-1,-1,-1,-1,-1,-1,-1,-1,-1,-1,-1],"loss_changes":[9.236683E0,7.197049E0,0E0,6.3322935E0,2.4127498E0,5.966859E0,0E0,0E0,1.1747212E0,4.944565E0,3.9996562E0,2.5847735E0,0E0,4.5657434E0,0E0,7.1834307E0,1.9940952E1,0E0,0E0,9.197809E0,3.333658E1,5.4196563E0,4.2788954E0,4.6275787E0,1.0251363E1,2.2099041E1,5.2859383E0,0E0,3.364889E0,4.847766E0,5.0830917E0,0E0,3.225699E0,1.2334169E1,2.0121956E0,0E0,3.6346722E0,1.968069E1,0E0,2.6046712E0,6.8311653E0,4.1140194E0,5.3561096E0,6.114633E-1,3.9260902E0,8.344097E-1,1.0758066E1,0E0,2.3838506E0,0E0,0E0,2.3669815E-1,2.1352444E0,0E0,2.21433E0,2.2239235E1,5.719692E0,1.0535827E0,9.834857E-1,2.7569237E0,0E0,5.2313213E0,4.4882557E1,7.5504622E0,5.9727156E-1,0E0,9.696946E-1,9.8223734E-1,2.6972475E0,0E0,0E0,0E0,5.5660815E0,3.8531084E0,0E0,0E0,0E0,0E0,6.462374E-1,2.3060572E0,0E0,0E0,0E0,0E0,0E0,0E0,0E0,0E0,0E0,0E0,0E0,0E0,0E0,0E0,0E0,0E0,0E0,0E0,0E0,0E0,0E0,0E0,0E0,0E0,0E0,0E0,0E0,0E0,0E0,0E0,0E0,0E0,0E0],"parents":[2147483647,0,0,1,1,3,3,4,4,5,5,8,8,9,9,10,10,11,11,13,13,15,15,16,16,19,19,20,20,21,21,22,22,23,23,24,24,25,25,26,26,28,28,29,29,30,30,32,32,33,33,34,34,36,36,37,37,39,39,40,40,41,41,42,42,43,43,44,44,45,45,46,46,48,48,51,51,52,52,54,54,55,55,56,56,57,57,58,58,59,59,61,61,62,62,63,63,64,64,66,66,67,67,68,68,72,72,73,73,78,78,79,79],"right_children":[2,4,-1,6,8,10,-1,-1,12,14,16,18,-1,20,-1,22,24,-1,-1,26,28,30,32,34,36,38,40,-1,42,44,46,-1,48,50,52,-1,54,56,-1,58,60,62,64,66,68,70,72,-1,74,-1,-1,76,78,-1,80,82,84,86,88,90,-1,92,94,96,98,-1,100,102,104,-1,-1,-1,106,108,-1,-1,-1,-1,110,112,-1,-1,-1,-1,-1,-1,-1,-1,-1,-1,-1,-1,-1,-1,-1,-1,-1,-1,-1,-1,-1,-1,-1,-1,-1,-1,-1,-1,-1,-1,-1,-1,-1],"split_conditions":[1E0,1E0,-4.8755497E-1,1E0,1E0,1E0,-6.069436E-1,-6.567329E-1,1.4268434E-1,1E0,1.5829258E-1,7.456407E-2,3.6768395E-2,4.6771742E-2,-4.5884642E-1,1.0989628E-1,1.9347367E-1,-0E0,-5.5222833E-1,4.428926E-2,6.0575448E-2,4.428926E-2,1E0,1.7431693E-1,2.0715114E-1,3.3613723E-2,1E0,5.516045E-1,1E0,-5.2072123E-2,4.6771742E-2,4.928412E-1,1.257202E-1,1.5975226E-1,1E0,6.473033E-1,1E0,2.8003074E-2,5.90079E-1,1E0,1E0,6.2139977E-2,1E0,1E0,1E0,1E0,6.0575448E-2,4.2874992E-1,1.4268434E-1,-5.82953E-1,4.4884112E-1,1E0,1.7539594E-1,-4.4897017E-1,1.1191777E0,1.3084917E-2,1E0,1E0,1E0,1E0,-0E0,1E0,7.6861635E-2,2.3972352E-1,4.025854E-1,-0E0,1E0,1E0,-3.7141677E-2,-4.357492E-1,-4.809303E-2,5.288991E-1,1E0,1E0,3.5114256E-1,-0E0,-8.059514E-1,-5.724297E-1,1.9018033E-1,1E0,-4.2350495E-1,-8.430773E-3,5.601689E-1,-2.6448616E-1,-9.8946273E-1,-0E0,-3.8107836E-1,-3.464795E-2,-1.8823706E-1,-5.72483E-1,-4.371629E-2,-2.5995359E-2,-5.3952014E-1,5.5972874E-1,1.6354412E-2,-3.1904686E-2,-2.9796064E-1,9.85089E-2,-0E0,-3.943013E-1,-0E0,4.0875357E-1,1.2146503E-1,3.6735722E-1,-6.854973E-2,-2.0045334E-1,9.113657E-2,-2.6046365E-1,1.0503349E-1,1.9314349E-1,-1.2781043E-1,-4.3204885E-2,1.9308344E-1],"split_indices":[7,13,0,10,29,21,0,0,48,31,48,48,0,48,0,48,48,0,0,48,48,48,19,48,48,48,29,0,3,48,48,0,48,48,5,0,36,48,0,19,5,48,29,19,30,0,48,0,48,0,0,40,48,0,48,48,5,30,4,0,0,6,48,48,48,0,3,19,48,0,0,0,3,29,0,0,0,0,48,0,0,0,0,0,0,0,0,0,0,0,0,0,0,0,0,0,0,0,0,0,0,0,0,0,0,0,0,0,0,0,0,0,0],"split_type":[0,0,0,0,0,0,0,0,0,0,0,0,0,0,0,0,0,0,0,0,0,0,0,0,0,0,0,0,0,0,0,0,0,0,0,0,0,0,0,0,0,0,0,0,0,0,0,0,0,0,0,0,0,0,0,0,0,0,0,0,0,0,0,0,0,0,0,0,0,0,0,0,0,0,0,0,0,0,0,0,0,0,0,0,0,0,0,0,0,0,0,0,0,0,0,0,0,0,0,0,0,0,0,0,0,0,0,0,0,0,0,0,0],"sum_hessian":[2.9226853E3,2.913808E3,8.877296E0,2.9014478E3,1.2360341E1,2.898144E3,3.3036592E0,4.419525E0,7.940816E0,2.5647546E3,3.3338943E2,5.1176496E0,2.8231666E0,2.5601423E3,4.6124387E0,2.1753477E2,1.1585465E2,2.7746193E0,2.3430302E0,6.4839465E2,1.9117476E3,1.7788701E2,3.9647766E1,2.9106033E1,8.674862E1,4.5006982E2,1.9832483E2,2.8290073E1,1.8834575E3,7.049487E1,1.07392136E2,7.5108867E0,3.213688E1,9.436837E0,1.9669197E1,4.439883E0,8.230873E1,4.350925E2,1.4977336E1,1.6293648E2,3.5388355E1,1.6472113E3,2.3624622E2,9.849897E0,6.0644978E1,1.995176E1,8.744038E1,4.0938425E0,2.8043037E1,5.612132E0,3.8247046E0,1.3374819E1,6.294378E0,4.743014E0,7.756572E1,4.1490146E2,2.0191044E1,9.765657E0,1.5317082E2,2.1471E1,1.3917356E1,2.2463362E2,1.4225776E3,1.7025182E2,6.59944E1,2.0183692E0,7.8315287E0,2.7519009E1,3.312597E1,1.4696019E1,5.255739E0,5.5510907E0,8.188928E1,2.4954874E1,3.0881636E0,1.3480968E0,1.2026722E1,1.6369354E0,4.6574426E0,7.523273E1,2.3329906E0,3.979814E2,1.6920048E1,1.5983925E1,4.2071185E0,1.3206701E0,8.444987E0,1.4026817E2,1.2902648E1,1.5845714E1,5.625287E0,2.203995E2,4.234122E0,3.819133E1,1.3843864E3,1.3603044E2,3.4221386E1,5.2666336E1,1.3328066E1,6.254664E0,1.5768648E0,7.978377E0,1.9540632E1,2.9187114E0,3.0207258E1,6.3260902E1,1.8628382E1,1.2339329E1,1.2615544E1,1.5183316E0,3.139111E0,6.402456E1,1.1208173E1],"tree_param":{"num_deleted":"0","num_feature":"49","num_nodes":"113","size_leaf_vector":"1"}},{"base_weights":[-4.158668E-3,-3.805268E-4,-5.4657453E-1,-3.5512915E-1,3.8940397E-3,-1.2451755E0,-0E0,-8.368081E-1,4.4643465E-2,6.291628E-3,-3.6592045E-1,-0E0,-6.872958E-1,-1.4630464E-1,1.23314984E-1,-0E0,-4.4132417E-1,1.402247E-1,-8.1899665E-2,-5.810844E-1,8.526341E-3,2.4202628E-1,-1.6708408E-2,-1.3651185E-1,-0E0,-3.4243318E-1,-0E0,1.00640785E-2,-4.0612957E-1,3.4085992E-1,-0E0,1.1362154E-2,-5.069318E-1,-0E0,4.9211946E-1,-8.017278E-2,6.995736E-3,2.9021347E-2,-4.3181323E-2,-6.9905953E-3,3.5847347E-2,2.7135584E-1,-0E0,-5.4442286E-1,3.277058E-2,-2.5145465E-1,-2.3212982E-2,-5.4656035E-1,-0E0,3.5048965E-2,-4.2178234E-1,-7.768855E-1,-9.33553E-2,-3.7837993E-2,2.0484772E-1,1.6671164E-1,1.4720911E-2,-4.7092032E-1,-0E0,3.987747E-2,-8.5666575E-2,-8.460882E-3,-2.862275E-1,1.537336E-1,-1.9530132E-1],"categories":[],"categories_nodes":[],"categories_segments":[],"categories_sizes":[],"default_left":[0,0,0,0,0,0,0,0,0,0,0,0,0,0,0,0,0,0,0,0,0,0,0,0,0,0,0,0,0,0,0,0,0,0,0,0,0,0,0,0,0,0,0,0,0,0,0,0,0,0,0,0,0,0,0,0,0,0,0,0,0,0,0,0,0],"id":10,"left_children":[1,3,5,7,9,11,13,15,17,19,-1,-1,-1,-1,-1,-1,-1,21,23,25,27,29,-1,-1,-1,-1,-1,31,-1,33,35,37,-1,39,41,-1,-1,43,45,-1,-1,-1,-1,47,49,51,53,-1,-1,55,-1,57,59,61,63,-1,-1,-1,-1,-1,-1,-1,-1,-1,-1],"loss_changes":[5.3174067E0,4.666381E0,7.3086853E0,